{"layer_sizes": [784, 100, 10], "weights": [[[0.012151122664367265, -0.0025757268980792494, 0.017695408933165874, -0.008130442662658388, -0.010780077125847451, 0.0009485637164593076, -0.015876874526995387, -0.001776232712127853, 0.010465283214896575, 0.015935657822907578, -0.011878432971001008, -0.012029951805724075, -0.0051773600173018915, -0.0029981436884437994, -0.012318189766470495, -0.00043495745172908624, -0.0017691525623473889, -0.01305902972815704, -0.014259996726803866, 0.00938783980439786, -0.018191264601739837, 0.007995696045132344, -0.0011697401827429094, 0.008307508428847732, 0.011917090146756173, -0.0180055519193234, -0.004371298784172598, 0.020302669383115205, 0.012323555968478315, 0.005582042458711095, 0.006212702955737151, 0.008155042845319642, -0.0002958245914900554, 0.026453460036149755, -0.011453647512434252, -0.008820823591306688, -0.005545208256579232, -0.02420938973112888, -0.0028637543563174027, -0.004471597931388724, -0.0019580602173309377, -0.027836375362233864, -0.0049135935407542426, -0.012322659881508045, -0.013403728799331792, 0.01785721657088646, -0.007086842502641755, -0.02433733339825429, 0.010619679776218386, 0.002487844659888793, -0.002297768265069958, 0.00533386160317773, -0.006729408392614227, 0.002711372904789212, 0.0008721223234122835, -0.022146807878961706, 0.0018130562038169448, 0.008549712098315407, 0.009599977647754249, 0.019621169978957277, -0.006178498770630124, 0.002924499724769226, 0.0052146913073043205, -0.020454286754611094, -0.01132942725954659, -0.03560116007660879, -0.042004392399367894, -0.04541619203964127, -0.05403311105628932, -0.05849987309883886, -0.0937649238566361, -0.058903148851574175, -0.048709668690899495, -0.029731403595946792, 0.004821642843309498, -0.0044674322316866875, -0.006707110720592682, -0.02584983196742819, -0.004355013792213742, -0.004625997631278652, -0.018713911206473963, -0.009780308744444731, -0.004210307555876388, -0.014025508330701928, -0.016424019334321378, 0.0011468791730319698, -0.006216890404671898, 0.005994876465776204, -0.0006832937949902665, 0.002763173325379737, -0.009453974017858585, -0.015887137750885887, -0.06398170851993162, -0.09894723321085444, -0.08844474367279331, -0.09329021786738155, -0.13188121672275377, -0.15803724760686194, -0.16298464797619097, -0.13106715369243968, -0.15718874181596404, -0.06025825513325177, 0.012644324906992641, 0.010312466404844216, 0.01967506755883917, 0.03178045618725051, 0.009950629469403052, -0.04133374452330433, -0.054552528874119946, 0.004627699585488361, 0.005269216599400968, 0.0036867822963379334, 0.010428357083664382, -0.0031915061140153373, 0.013891266729295797, 0.0008749137299051739, 0.009710824465525049, -0.014894013712565731, -0.035970879627666354, -0.04508494093998828, -0.11635975453736361, -0.1737598441330905, -0.15508927729889987, -0.16039701381052143, -0.17360092106173003, -0.2265364364602502, -0.1883205331192301, -0.17775136742920006, -0.1329283428499004, -0.0672184833138932, -0.029903714315879865, -0.08219321310230313, -0.06949290110176737, -0.011002747584444734, 0.021858898490097284, 0.032793262083301716, 0.004916067149307801, 0.014971647997042575, -0.012218268660539554, -0.004114871622273252, 0.0017659813923037613, 9.207991577096356e-05, -0.0014555714217220287, -0.013308206025300051, -0.0045302692989899, -0.028565503121882472, -0.06734032896953822, -0.1234621372719968, -0.1480222542036798, -0.15451067240808566, -0.08524863705107828, 0.03544137162287716, -0.006542083843283275, -0.14423844508525918, -0.11795070948641773, -0.24629007039712922, -0.15704201299826054, -0.13720642408076045, -0.2836296942858527, -0.2098233482613822, -0.12952846782318694, -0.08715187135244314, 0.005446060393692402, -0.005986305135742019, -0.00033111153590503653, -0.011386184128464524, -0.014632350260164228, -0.019609246116932565, -0.0037137299462278186, 0.004719285298605992, -0.000988632158282473, -0.023516799282080836, -0.04534836422911309, -0.0366243370392825, -0.12095221479890625, -0.15565733210724372, -0.10875948171949833, -0.025466852498889515, 0.07703466976846918, 0.0491504464232323, -0.012020678068196037, -0.12875384720207883, -0.07373818277438104, -0.266526515270136, -0.2530289723906105, -0.20366553581403304, -0.22020934750443819, -0.05972304958827442, -0.025909368930252988, -0.07601516299351378, 0.00656810215291348, 0.12018409420464576, 0.10401430591375811, 0.05116054533730868, 0.042169136574659476, 0.0015526486484471339, 0.0009565820730061346, -0.010102166210187948, 0.01637613537942181, -0.014380844193057112, -0.06771065088728091, -0.03915234914750201, -0.11877855874583088, -0.1400796177815296, -0.005921875497657069, 0.07716068259954513, 0.13664237671231255, -0.021774232453624195, -0.10128075341028742, -0.05692462739435721, -0.07152786528180673, -0.06889987998467187, -0.07773393532455493, -0.0882521857161884, -0.10329829009828131, 0.04002567052923521, -0.02949050884418617, 0.04907428731077662, 0.12926030246094872, 0.19381733963282752, 0.12538260566419543, 0.0458528271581925, 0.03852820693825478, 0.0037007741333026007, 0.012135366723092162, -0.0187065831100756, -0.02510486760335876, -0.021158438623333466, -0.060492060629131955, -0.06552896235310339, -0.06242128690503586, -0.01179954633435498, 0.05198798445064548, 0.14077134381227813, -0.04328273826562734, -0.10732787295044408, -0.11128997538841735, -0.04678433317243493, 0.1157942273091012, 0.10788278405510951, 0.04400870203750458, 0.001167886684155729, 0.0017186666167308142, -0.09642660800364733, 0.003599676348953581, 0.09794748921847131, 0.10707463203275451, 0.235576568622188, 0.3269102810940418, 0.17787425223056932, 0.04154788735685584, 0.01598316601080361, -0.007089187055190194, -0.004503637659422457, -0.011972550837107897, -0.04779294509790948, -0.08061861038100991, -0.11453117005445418, -0.019911347958345062, -0.015134939903672876, 0.1053490149743216, 0.1470784294888918, -0.062421357268232565, -0.1517866366814901, -0.1508808060131241, -0.06050748367290296, -0.02152584154784275, 0.12422991447376705, 0.20933185605667035, 0.18756427650148463, 0.022136692782106608, -0.07730223764627071, 0.02195146797237324, 0.1439466690473752, 0.12485257735115644, 0.17842373387507054, 0.2670380620482782, 0.14796171648453063, 0.020309831941938264, -0.020800041895679747, 0.002350037355647977, 0.002014564618240151, -0.03863207659034437, -0.05262852210003527, -0.04494822423979483, -0.09798452251571642, -0.03534483812654716, 0.04233825018053841, 0.20494550153229754, 0.32353654718933006, 0.1792976020270336, -0.07160077941761983, -0.10636969317415353, -0.29597839078600613, -0.22949842042430704, -0.02364323375945907, -0.08965538237771314, -0.09384198740467012, -0.11484571341847102, -0.05550759887410904, -0.0402723110981174, 0.11946337488668096, 0.14194700968421795, 0.15301146695657536, 0.24619590997959867, 0.16099714816690786, 0.05330721689975916, -0.03221304324960024, -0.015221786665423447, -0.024604491973630467, -0.026986695707214046, -0.06426552755405751, -0.08536750518636278, -0.021265313479267575, 0.05009189503551677, 0.10122878086206885, 0.3581235645815095, 0.4002812954135351, 0.2112058789836944, 0.012066905318141299, -0.0955979488858069, -0.31895908711962284, -0.34551091752830176, -0.2193046915237826, -0.18180347697598356, -0.24733636743292103, -0.24761434329067836, -0.16471914608072014, -0.09696168290231931, 0.04301861417257124, 0.15001736872570973, 0.19362754376063715, 0.20224389150341962, 0.14727977128370695, 0.0636501416667123, 0.0025741679234883197, 0.014384119129178044, -0.0038520146010331355, -0.03121689845785425, -0.05845435801577628, -0.06531954679762082, -0.004273462289098447, 0.08624206024003733, 0.14604531874997403, 0.2541325389813133, 0.21166658403507413, 0.2422643512862443, 0.1594273857404829, 0.10750958856738706, -0.04950232369344957, -0.3216259773997933, -0.22302202711027538, -0.30904704150538376, -0.3700741463164816, -0.37459707184681457, -0.2556843592461196, -0.062430648401821866, 0.04035360398061602, 0.09814212640983187, 0.13758215433022067, 0.09748193625372911, 0.06847855478217851, 0.024413278133323814, -0.006718019326607837, -0.00892876426146471, 0.003577326417090461, -0.011428460242709469, -0.03783652642492137, -0.05158179712976474, 0.009143665280325496, -0.03882100600017357, 0.10143299332980181, 0.173263997851101, 0.2557885404209923, 0.33416154870090425, 0.231181369902925, 0.1978833191750813, -0.049748584930951745, -0.11726869002794298, 0.04359969752171114, -0.16065546973528402, -0.17748625359461345, -0.215341111097283, -0.14024865877527104, 0.030975420505801442, 0.07761442160892683, 0.0858359407860463, -0.014418828318041246, -0.027678213453260624, 0.004557170093300054, -0.004038692745216286, -0.003976165795354044, 0.0083154383055472, -0.001967606676888199, 0.006127852792071137, -0.01253639884793911, -0.008056995126196087, -0.03140437302154429, -0.08203778045867147, 0.06351155749084264, 0.15605819649027242, 0.21209776781213152, 0.26972520052811405, 0.22510420723429825, 0.18918712326142298, -0.005276301785816173, 0.0585962182013415, 0.05158579155979038, 0.1403998270565753, 0.1602131472626282, 0.009536331663589956, 0.015492593963409948, 0.01814590151805895, 0.030968601392031732, -0.027188329809669908, -0.113776480555688, -0.08782330032675646, -0.08368305022883414, -0.03138531790037709, -0.012673441236067414, 0.001710658840998274, 0.019366638266205126, -0.0057407876197494425, 0.001381152123381849, -0.031717470214479425, -0.11186861871721214, -0.12302286318370022, -0.05904470262700198, 0.06910638773214962, 0.2072253430284523, 0.3436426956432999, 0.25850362438872315, 0.23796304198817725, 0.015285657924909997, 0.06941829555316306, 0.015500530107281951, 0.09972234872968484, 0.15674828130571117, 0.01407379361607657, -0.10080304582425273, -0.19157409835154682, -0.15469992862059848, -0.13027923572102204, -0.12809444172282, -0.1651796076195782, -0.09496798633388799, -0.010663081902941348, -0.007591231486109524, -0.004808564500518319, -0.012683913034118753, -0.01250017853592729, -0.02685014805516424, -0.10377956314763616, -0.16230862761539472, -0.19241849981721204, -0.2590155744575938, -0.18765170145272336, -0.005278080771522602, 0.1789513628424947, 0.14228038288092937, 0.29493528132847985, 0.24879895369745567, -0.008662240145625309, -0.05129889304368812, -0.08452734862076619, -0.00956894293636863, -0.11052918954588146, -0.2695662401156427, -0.2497269314024984, -0.20665439267153407, -0.15638432501025776, -0.20279384544211815, -0.19742286515836233, -0.08455510917423834, -0.05595389053528901, 0.00470691975305388, 0.005291847827666813, -0.0248406480580487, 0.011543166638287963, -0.03078850904124844, -0.11468890681840431, -0.12833740616665482, -0.19399362778514004, -0.31564205474567747, -0.3177102385133831, -0.1897690957560444, -0.11924907357353148, -0.06594947397578119, 0.005590364790580607, 0.1260203717516721, -0.07548381860659344, -0.09749504771207242, -0.05108642802506245, -0.1137305482858297, -0.24518594173359548, -0.3717648473432176, -0.28180574166966027, -0.2398257042304367, -0.21049055921008356, -0.20605434714107845, -0.13346071277168547, -0.08069561973605556, -0.03010529734791386, -0.003442548400421561, 0.004075292131668485, -0.009259549696060227, -0.004344394233981083, -0.053028671238991805, -0.10710149331666181, -0.1129626634312211, -0.17591506896647566, -0.2896334360706683, -0.3069692497738301, -0.3377111636223308, -0.23328059763901993, -0.041548288802968646, -0.006159814424403307, 0.015804788119406447, -0.03755221560435034, -0.15345022802784059, -0.10437910137859503, -0.1386065334311518, -0.262377949016937, -0.2085932002632518, -0.19424769061104769, -0.27025231561271323, -0.2243651437898259, -0.16205103760865477, -0.08494838091076519, -0.040596097819356754, -0.0005098725563763419, -0.0014870325328070985, 0.0035392915655333658, 0.0018275922367477944, -0.012855944619807064, -0.04082908087099656, -0.15995990883469663, -0.13442308974444572, -0.15115189975783883, -0.20397209243866424, -0.14747277498459188, -0.20435396971675174, -0.06714465241791562, -0.04667696166517572, -0.01632289390729977, -0.02514496564914425, -0.04983823750650252, -0.0630225188941625, -0.04721457515508064, 0.02145436277730984, -0.07270576643310725, -0.10870776153468491, -0.17380743847260183, -0.22147000315386012, -0.19813546937082185, -0.0944596337567412, -0.014945440654139717, -0.028915410440690206, -0.002054449236559468, 0.0005815843367815919, -0.0031489803255826945, 0.004868665592048373, -0.023979319677952714, -0.05278468992455029, -0.1767205144825831, -0.09785716286438383, -0.11035496396669116, -0.1105160189200884, -0.0674714215162841, -0.016248503588248843, -0.016394614643895408, 0.058890219429881534, -0.0074844641575571675, 0.012300182546196997, -0.11047379889351544, 0.03934492302623177, 0.1145778607594734, 0.09985573092475292, -0.0425467761963337, -0.0935428953410525, -0.16578184863658768, -0.17121751301872912, -0.09548844181018451, -0.04666742017065893, 0.00033228437052464365, 0.008097704782395269, -0.008049302462819017, 0.005034296291644003, -0.015578046326724116, -0.004257620997083202, -0.0027706398279193456, -0.024915802384205717, -0.10036307130596672, -0.12091558752513236, -0.10849945619503276, 0.003417077830685442, 0.07167506558943654, 0.15453315084871946, 0.04722947128222541, 0.09594195707684196, 0.0558619567662791, -0.015231889794730011, -0.08255177936650257, 0.0043941855585679975, -0.09079519321567973, -0.011980109582512303, -0.0830252052689298, -0.17320356874919124, -0.2004323645483362, -0.10675881548500867, -0.019283055614801523, -0.021727387000377425, 0.021089166940182355, 0.021021534232801165, -0.005776366104133613, -0.0003663307832947499, 0.009959784311087086, 0.0027896834084537962, -0.013693122756633834, -0.03005994326269345, -0.0265240046049114, -0.10458051423445225, -0.11000838486182785, 0.003378472521257274, 0.08672706116045845, 0.15508528906889638, 0.10660130909388345, 0.09878226936423908, 0.0008528820612686729, -0.11090074443193736, -0.023101226136923052, -0.17195370871832397, -0.11956174642354127, -0.09545234213701767, -0.07944964476271865, -0.11029693866802977, -0.15258469263198982, -0.07551025811903782, -0.006260497296143505, 0.035512985454252056, 0.03439850276339708, 0.013902900265425292, -0.0021275309629813746, -0.0059723709710223566, -0.0019357695887194687, 0.0003689833033032472, -0.01201142127107879, 0.02095034401454938, -0.038135437840046076, -0.03288141587320282, -0.10825348844897473, -0.07109715532821333, 0.0875418803008791, 0.10054990003689497, 0.13751133224851106, 0.05790079847856855, -0.033213192547643544, -0.06531512631873236, -0.026396842692667493, -0.19698218344135562, 0.017008171560627207, -0.006939133771363313, 0.004565778738493531, -0.0024017990716392605, -0.04000436572146839, -0.03561720973872062, 0.015256458128681847, 0.033258023731608126, 0.006679497858729897, 0.004834916672656005, 0.008710685053698467, 0.005858734815012268, -0.009523225997956838, -0.007253174788654733, 0.0019050228668501695, -0.005666473593266627, -0.03369801164969584, -0.03484471443219726, -0.07843515767418145, -0.0217325991787002, 0.024232303710212368, 0.09555423022090151, 0.1082584798763246, 0.10837598057670185, 0.023570635618437454, 0.025553277780427472, 0.010270238647825109, -0.009895610947234621, 0.05452403703716138, -0.025171944914245865, 0.06532418516071055, 0.06417897208994491, 0.06413981100457583, 0.028911177900923495, 0.054073048171957475, 0.017780072250516168, -0.018517045849669487, 0.0020609251423670334, 0.0023675937898035475, -0.008486864415730544, -0.0006221299453179383, 0.00111008781527543, -0.004339066355485784, -0.011918541560576878, -0.0027364013554519173, -0.003600014269762162, -0.050032991736884705, -0.06845189147282589, -0.08968233388396678, -0.07122909605891942, -0.049909292014938, -0.04835781400751755, -0.11616856695692053, 0.014961117898697359, -0.015316399929190106, 0.04640939393351618, 0.052988359824921755, 0.08196992517895108, 0.09978816763715896, 0.01992131629248363, 0.03843066634552777, 0.05694126924149486, 0.01963220135523831, 0.03222935363481638, 0.00673021777914561, -0.0010377364862954367, -0.016244276607858845, -0.002710011899681954, -0.002542325789104471, 0.01048490540697832, 0.014571118890079029, -0.03414132724137394, 0.02106988406259274, 0.03657033586397204, 0.03434637012015957, -0.0187216884950309, -0.01624713818773809, -0.014345883511966816, -0.0375881091953252, -0.021950483273351678, 0.026113218013980498, -0.03444888992591054, -0.014076974372614333, -0.0149094522600409, -0.004504501768246126, 0.018488732079445572, -0.020987964902793223, -0.052193637829562156, -0.005096532622898909, -0.010386521870551675, -0.0032754344494029873, 0.0020902363439255123, 0.0070687494982879, 0.0013633412769256759, 0.006608617588978765, 0.015406994918998789, -0.005304583547360675, 0.008246840985453828, -0.0024394368434417753, -0.0054777150951639585, 0.008797765464238662, -0.008967977519048842, -0.012362532405411911, -0.010432755020054377, -0.01346343126434062, -0.006378982594178147, -0.009798599915321749, -0.009388518222307036, 0.006514830720591687, 0.00975914786474796, -0.002026046521445662, 0.029507080936195425, -0.0007624699359610544, -0.026003586877353636, -0.025993090684686658, -0.005321746539758954, 0.004209336289017751, -0.026020407313826134, -0.004206071428898353, -0.0031461673765434297, 0.009607994828154515, 0.003373503304950693, 0.0013431514020673778, -0.0056116573276834185], [0.007133150289775252, 0.01113688274088647, 0.004935467017729482, -0.014848615020055649, 0.005010510512590752, 0.0003170731923656409, -0.005825870082037122, -0.0075896196854434725, -0.017084829052643084, 0.0037896507358112343, 0.009749214766179076, 0.01087671034655355, -0.0020437031373913826, -0.009253589924930972, 0.012698271807145545, 0.004448183911850902, 0.0052740262024273225, -0.0017459105910256297, -0.02403438419649543, 0.011426006349788177, -0.0019467639561699043, -0.0025663951298764373, -0.01172469375273695, -0.021479720720945224, -0.0018521853645515015, 0.011187619296810357, 0.00763687690535104, -0.017926335943795738, -0.005733079190718663, 0.023787145909651863, 0.0036613550458901144, -0.017680470914011967, 0.00014402474797582668, -0.001790021606659266, 0.013947715047046423, 0.002063702986462871, 0.0017966055521230204, -0.006835378021568618, 0.007586363343940686, 0.0040237784619608225, -0.011335893667916751, -0.006827385106209486, 0.006124851936051097, 0.018063009373179745, -0.03488080576270356, -0.0011830425135271308, -0.003915888940315626, -0.016422644929695862, -0.0016858024869575953, -0.021779513585680352, -0.010241020262700623, -0.012936755992289103, 0.002902248367292999, -0.007063819861704299, -0.004405617116244073, 0.010002228416934027, -0.008030329354228465, 0.022471144395903676, 0.008431805625588155, -0.0012285037882340945, 0.003707520255223347, -0.0049472434116704924, -0.008277852428477903, 0.002712696171919693, -0.026899666502821405, -0.014680171869035863, -0.02169746514333514, 0.005326638845096146, -0.013693125181504695, 0.05560642460548568, 0.03943848720569036, 0.07144428251150935, 0.05893147085581387, 0.02305249470378919, -0.012449262919311744, 0.02987781618702547, -0.0034251936317075318, 0.02063152080563452, -0.0024806298171664277, 0.007071340448129736, 0.006893497398523476, 0.008666696284337886, -0.00356035453410817, 0.002775267855777839, -0.003269364198958441, 0.004202946083203425, 0.005983133100167974, 0.0035730186049746857, -0.01452203334160638, 0.03181346939349666, 0.01324727120121728, -0.001258031453556456, 0.02865405571778195, -0.028147086570186438, 0.00237805128421649, 0.07458222993806864, 0.1156974438034427, 0.11763991228133736, 0.13023308012979642, 0.16653659859731373, 0.11799790730192493, -0.009530812121070206, -0.10505184131203706, -0.1271185436892252, -0.1292074032696086, -0.1013619520381685, -0.029737529226647626, 0.028183885546395754, 0.016486470817223743, 0.013796309688567477, -0.005694001976088794, 0.008354860155461464, 0.009065215375194873, 0.0028740211646720738, -0.002038473155483057, 0.004729038362505876, 0.0138370920825489, 0.07619539591482032, 0.09213258428673902, 0.05329083709274222, 0.09128919374255737, 0.03623363060651928, 0.04378595572335528, -0.018518500800777486, 0.008570197022071928, 0.17159504713275053, 0.12887626909064118, 0.1741002030175337, 0.15678909251058562, 0.07866999053473672, -0.016746892654592817, -0.04046190475213034, -0.13539047251485772, -0.0565757472177761, -0.07063008573334993, -0.13987431489465837, -0.06684430882499005, -0.05493320540297579, -0.020101790415842806, 0.008222637700846816, 0.009755276166579821, -0.006112207491615909, 0.003965822725566079, 0.012820960063483926, 0.04606524451824697, 0.10624252208703588, 0.1416985591579974, 0.052077669665509266, -0.03391108494992358, -0.1424793376516228, -0.140332046072363, -0.24172499990256988, 0.006420337690752482, 0.04129806123553012, 0.19702258850333584, 0.24548602564392177, 0.15219974536055544, 0.07183999004723832, -0.036331781461851266, -0.10131883029568092, -0.3058834137704136, -0.24226267958234116, -0.24203821538176096, -0.20906176735960086, -0.09565864466432562, -0.05583685232843875, -0.0027175430993161527, 0.000813163914874034, 0.014549120143833706, -0.003884248410961139, -0.0003801565068777932, 0.02264221229322712, 0.07833865075846437, 0.11352508591193367, 0.09373481330212373, -0.06209674681822326, -0.20416951075901438, -0.1900044504679864, -0.1275584998776691, -0.05606932854189279, -0.0926126992316062, -0.05148480528615745, 0.10319621706508074, 0.2265961580567906, 0.43390453820521446, 0.28435386010142727, 0.15380671420828176, -0.04163779654999321, -0.3526463328373825, -0.4541590028360323, -0.391476631709639, -0.2499782257550239, -0.12196175539307927, -0.053622551143311395, -0.014701917279372504, 0.01493389050321539, 0.0058775062490780666, 0.008585218301782752, -0.010273009975875992, 0.051907694804667615, 0.12704873187327861, 0.09980360811789385, 0.09970096440708372, -0.026585033836922886, -0.27097815693914046, -0.05641067553959739, -0.09615343751234855, 0.026489701002821133, -0.13047705069094076, -0.20832828893602556, -0.058194895163617734, 0.12120393798259373, 0.1729075629507873, 0.45460998161001476, 0.19368132632960072, -0.05859270294666627, -0.3729015498402025, -0.6000100819354466, -0.46514068652573837, -0.2587145684470621, -0.1842722868629136, -0.042708348277373936, -0.018976113850905484, -0.004924134989933508, -0.0016058783482370328, 0.011117716427091587, 0.002978406968657504, 0.047396540878156965, 0.14234849501620736, 0.11392877120170246, 0.09065529369138586, 0.009739039119943031, -0.20211650434659786, -0.008809107901251993, 0.10725131934768665, -0.22090573351191, -0.2960775161532863, -0.258521011739425, -0.09596050934430896, 0.3334771169611982, 0.4765611685622261, 0.498032964268821, 0.24347152779989092, -0.16257440848043153, -0.715954577661108, -0.7328721458466009, -0.46701895371438085, -0.31970465094490425, -0.20269593642572908, -0.04269767054636988, -0.02758666382110815, 0.016567252748851357, -0.0004708702672236216, -0.01101336540754792, -0.0045654282520524924, 0.02272240972354446, 0.0934167643340418, 0.1468946620121979, 0.14808423296908693, 0.03357817594212864, -0.1459275528365924, -0.15694966389100326, -0.37877753979812984, -0.441121348100846, -0.2441415979835526, 0.015892599100052238, 0.27887589470024615, 0.628921194088507, 0.7460117619081597, 0.48214242925979195, -0.05802439898564548, -0.4180575238238487, -0.719083760469792, -0.57708753927656, -0.42370699856285615, -0.25324751341959983, -0.19873652489199783, -0.07012619673931422, -0.028160188164467293, -0.009043624937465045, 0.006062447411750616, 0.01703764154879433, 0.02534499638517138, 0.0500672840118525, 0.09450550384161872, 0.0532613960927332, 0.005615632062420438, -0.09300320603620435, -0.32227223912396974, -0.2758139144395417, -0.36861316945123873, -0.23299344205260025, -0.15182526093617488, 0.15670085070687118, 0.32040417365654456, 0.43140730282874956, 0.4731584920715227, 0.3312007223268822, -0.2963018340411563, -0.6104278494003242, -0.6409538807605788, -0.4703151702788245, -0.31057970361304776, -0.20248858148631163, -0.1851584308533753, -0.034490513541179685, -0.024091892802641186, -0.005509090910586704, -0.001504182475626454, -0.009481482781503795, -0.019622106331127855, 0.0621844003180454, 0.05350741553726845, 0.002257339568148828, -0.10203420665184988, -0.13529005232749738, -0.11504321006396241, -0.10120004613955008, -0.13612853564983168, -0.09381863792166485, 0.1111889544887106, 0.2831561799466227, 0.43820281883747536, 0.3224807422576415, 0.007306053403365008, -0.29189338821142347, -0.6060319662884893, -0.7004122910568186, -0.4047154177803302, -0.26481215484213033, -0.15668054791062042, -0.08946782294437691, -0.11413868591480843, -0.005739037768728151, 0.0004689499197387976, -0.002902687465140496, 0.0038350059114038307, 0.01909239606526229, -0.003363052611160836, -0.008478510245326561, -0.07225281703624008, 0.002798857326880772, -0.054133385575351536, -0.054608918535234155, -0.043303171705256306, 0.05711843473800508, 0.09262893016186154, 0.025981189128294314, 0.22190886203101753, 0.25738839001344477, 0.30330828581485747, -0.04370158664809686, -0.19429280921015588, -0.5182790105553283, -0.4695260101478414, -0.43680359130603164, -0.07563915022395866, -0.05940436291621276, -0.034753941494360556, 0.02073306683011495, 0.04725916922332065, 0.0036230561164145906, -0.027555592921590738, -0.0175729504399542, 0.012114160072704813, -0.006069073991487773, 0.01251813618553236, 0.010001233130244215, -0.06733155624514485, -0.05176393123236743, 0.062271365986084536, -0.10465735977508292, 0.024450804661490903, 0.019377128927056377, 0.004024790449753574, -0.05232337007267995, -0.04952932307777335, 0.14946769301789048, 0.14715669932746214, -0.040494019191704755, -0.09997618072543965, -0.21208625811421927, -0.12789260011387316, -0.134131251397358, 0.1095149468326048, 0.0935823578069785, -0.0011426884853279863, 0.06022516390952267, -0.01907503224344624, 0.011651308412440645, -0.0035405925946391924, -0.0032854408244949885, 0.008119529362450239, 0.004459625356820085, 0.00324732278758042, 0.021510145522647565, -0.025543034318955188, -0.013116533032862079, -0.08734007404660425, -0.07336968366372756, 0.15151037321093505, 0.10040167323645932, -0.07634152437499062, -0.21794107049286668, 0.0012869828336559475, 0.13466395658010302, 0.1183270577011408, -0.196771875851156, -0.20780121771029347, -0.15247797000903604, -0.2501503105232491, 0.08468578434858202, 0.10743871611979826, 0.23904548103203482, 0.14955385735335955, 0.06344536277515396, -0.045525125578429526, -0.025408795854190636, 0.005180157721299683, -0.001301594104108938, -0.005454239025829638, -0.00512111107526351, 0.012015833320985795, 0.021018075858303516, 0.002277846715788019, -0.07277639398567813, -0.08624437427932076, 0.006962258785778235, 0.1399559124779082, 0.1813002010005908, 0.01190258111577268, 0.03865881699558543, 0.12762729742323728, 0.19847527306781432, 0.0589826279153116, -0.21619572015332103, -0.15171812904327622, -0.09202372343080567, -0.19993257222035926, -0.026576875605400535, 0.12586664804459932, 0.2632386432488856, 0.2509304916921679, 0.04624312765225658, -0.05121986542974958, -0.02533135542395558, 0.038625497957939396, 0.016451457499909197, -0.014463119262008222, -0.013422135202269734, 0.010387973478600637, 0.002730991071191519, -0.031235085677205565, -0.12230733991110694, -0.08954069727769826, 0.13086266941600827, 0.1319237906139843, 0.28317628457649424, 0.03987648345382346, 0.051203145342595825, 0.12408926128927834, -0.0008331007946861504, 0.049295231395813405, -0.11321942008696029, -0.1201473504264191, -0.21017395223239405, -0.03255616720714801, 0.004242375180729779, 0.014270497213136524, 0.1431116823002945, 0.05733273388767678, 0.05227691534870174, 0.041339503141413936, -0.023536497298399482, 0.011100224747609468, 0.006860475957748629, 0.0020797436332693165, 0.007313758877721872, -0.0008175846617204587, 0.0031912245988592004, -0.01908327992329331, -0.19396485135676075, -0.1452724710464223, 0.10440199048765761, 0.11788179041069292, 0.13611165651555998, -0.06352329367791511, -0.08319744775169692, -0.0873015305537096, -0.01950561146502472, 0.103381312521721, -0.2213771758705517, -0.05472699772289244, -0.12670795494932538, -0.04179292771480117, -0.09241066403519399, -0.13802149347294512, 0.2660078761388294, 0.20908751013162982, 0.12421852880210461, 0.029857286886467792, -0.0285604694450978, -0.005600788355662417, -0.006862501277361887, -0.016613586612402087, -0.014007114967234788, 0.005990017012661974, 0.019381324489928697, -0.030203727474289736, -0.15264373624598981, -0.1970415691596258, -0.10479408691546922, -0.020964911838065765, -0.003954971888612607, -0.18334402120645232, -0.2102538271127281, -0.08202754114750875, 0.10699771014403579, -0.12634007016198306, -0.10779058434961673, -0.06678138445405431, -0.09105464039320706, 0.08634772409330012, -0.05777084304386316, 0.0006347880347859149, 0.29029954956817167, 0.1776018634075399, 0.018123171384789284, -0.032574959975622694, -0.0077942007757424055, -0.0005438933372948527, 0.024695398597153854, -0.016648173714539118, 0.0040479674604605095, -0.05961392579949401, -0.010386108010756439, -0.07038821248359745, -0.13810226903320674, -0.14990260150788715, -0.02607470584486502, -0.07017485854832604, 0.09010670814065569, -0.16252887213841696, -0.27239030220783145, -0.42874669775985536, -0.18370680228776295, -0.042001260383771256, 0.03705572589872888, 0.18057957117160947, 0.11282568772074, 0.11850268911867404, -0.008665222572356463, 0.037565465858344464, 0.09960570547324073, 0.046422399790878775, -0.07152057164302497, -0.04598703578116892, 0.020456225165753877, -0.00663094934346045, 0.0025817271512073928, -0.005770849882155384, -0.01915636603822449, -0.04397601040164182, -0.022129820799142927, -0.09929791742302145, -0.1779488282362462, -0.04202491959323292, 0.01993111004351641, -0.04000382690071874, 0.1345121983623985, -0.09175847200680957, -0.21036410186415344, -0.34209836565369456, -0.22438438957700527, 0.0872931107779458, -0.011411312979436258, 0.2157736419020965, 0.20779961210538161, 0.33313984033410454, 0.03282366335771342, 0.1121888291596106, 0.108416824465631, -0.006677257333880957, -0.07229277891400789, -0.047829150036109574, -0.03334116150552574, -0.011852182386367737, 0.004649095175722241, 0.008994503972788911, 0.00828786205994685, 0.028882143612318, 0.03163327558163603, -0.0698373361329907, -0.08251210773419547, -0.04899844824060962, -0.1150682388067962, -0.04918707179941931, -0.09894127558029313, -0.15824436713902196, -0.3023244346996275, -0.3628763034988827, -0.1993857579906322, -0.07102297986658714, -0.047169756471485816, 0.03829594787420823, 0.1470943897067906, 0.24361513039001845, 0.030565286909208924, -0.13280809339958963, -0.08679052586708064, -0.021548873909711087, -0.11339681070510188, -0.05052034942258886, -0.013333726661683686, -0.021930096343835765, 0.0043862111784923686, -0.00566422177547039, 0.0032708977149835364, 0.017680311783459416, 0.028859102134931924, -0.0010105192842756539, -0.008437117928104006, 0.03368600478828746, -0.11006330314549659, -0.0841531295924055, -0.15825115337819182, -0.15158808682198557, -0.24858570851527864, -0.43712551929153337, -0.21867286320636423, -0.19069814543279748, -0.22996617669077454, -0.24951827311216357, 0.016751326483989054, 0.09634195563031864, 0.11678118930818017, -0.013916113967275955, 0.04731557973369842, -0.0025743723609118175, -0.12749413746777546, -0.042953976156025614, -0.010663663252838788, 0.014027919039134633, -0.0003676662660250236, -0.017605610888367623, -0.006641447944414825, -0.008207710980951887, 0.012380136811407753, 0.030541290994981173, -0.021192970647420848, -0.04225362425097222, 0.007376625154186474, -0.10544181932507936, -0.027437694469250148, 0.007876704814324426, -0.11623350171553362, -0.188709708472024, 0.032642192659129224, -0.16912366078297286, -0.199767447427083, -0.33310774953578304, 0.037824817509307704, 0.1981486542441601, 0.10606037612892663, 0.006055697929204546, 0.03966136509219262, -0.058604237379818284, -0.08479380525124566, -0.05259925615107161, -0.013991990451704546, -0.0009411185194743284, -0.005631812597835353, 0.019785273116556194, -0.005277150021944386, 0.013392148833180479, 0.02869714545616214, 0.05438990390321541, 0.012963676515818194, 0.0017870248457011293, 0.09078430092652953, 0.05226621971514755, 0.005732310065709914, -0.03640601828902834, -0.023277038869161527, -0.11309929643117289, 0.0252117547751947, 0.03734935764227115, -0.2535670703157326, -0.23412145170607052, 0.030487096917164988, 0.03463816668643666, 0.0022397947343526584, -0.01821117641690574, 0.02359861157468094, -0.023470257864718125, -0.094387693766766, -0.020295177939035163, -0.0063282481199739985, 0.0020092321032271305, 0.015613463925098, 0.009324073278849399, 0.027144243343891473, -0.006808958815799982, 0.008280954563472148, 0.011881547258044016, 0.04239514434416844, 0.05776113299142608, 0.0481699583240349, 0.09618094508294954, 0.09792792575667277, 0.03235218460513819, -0.005634780784876667, 0.029039801580558678, 0.06901233409478094, -0.04446111617114608, -0.2211271115848551, -0.28260998743436067, -0.28332254863392337, -0.09480263188590828, -0.0454124084553463, -0.025693570461943933, -0.026063951029899765, 0.002751608545909808, -0.018795368912658282, -0.0005070613885137015, 0.011139884653938252, -0.002469245888871882, -0.016602874160477232, -0.011170308284907693, 0.0015131092210377785, -0.004527743230111721, -0.0005405703293312312, 0.01710080251828475, -0.0140386991306499, -0.00398239326032209, -0.0013861630234448005, -0.03748272341559111, -0.05736233035736053, -0.05359140740569081, -0.052396588911306434, -0.14198979904263065, -0.14531699067539622, -0.14262238874644212, -0.11184085979125782, -0.15087892819937712, -0.1423830447391127, -0.06036809605175162, -0.061286985673898876, -0.082028911592483, -0.08172810157619144, 0.001325569740526022, -0.010492091682174574, 0.0005795476501066414, -0.005934216359562295, -0.003212115415875286, -0.002114608494418491, -0.01005797052625797, -0.012888745109293978, 0.003325297756461259, 0.006264316515947931, -0.012796653796643239, -0.001104460635640478, 0.018597052979922153, -0.02935258105318311, 0.00480982170329313, -0.001676364261587258, -0.011707864474133543, -0.00864836047272218, -0.019009942333035573, -0.016042923926489643, -0.024149927099038328, -0.018729696499228853, -0.004839701617482707, 0.0026921350794373434, 0.008626272057893646, -0.034483648083584624, 0.018939053909445697, 0.016648382812350846, 0.019489618368410903, 0.00467253143335419, -0.018914726612133958, -0.003442211234057766, 0.01474101058406294, -0.009675209244009391], [0.004702425851148343, 0.001539207417285769, -0.011118400817003958, -0.01222218545154848, 0.014461644087032561, 0.012238588438467415, 0.014801672870538391, -0.011273547394787815, 0.00012025762561354179, 0.011186246167975715, -0.01748596252724908, -0.006069659334862591, 0.0070015320797086585, 0.000752822587748551, 0.0035160241405655353, 0.0009256440906731982, 0.012170662666054117, -0.0008175276634053173, 0.012550248558037108, -0.0016619222549098308, -0.007832446048656343, -0.009092674486778541, 0.003119752493815723, -0.012399624962354429, 0.003908424465760787, 0.004569151106142041, 0.005023121657687046, -0.007127709612732568, 0.008633107901008807, 0.013678438689835527, 0.017499140499388006, -0.00018866587569522174, 0.0019125606923971444, -0.0005697731140447321, -0.003512251360725198, -0.0006471613957555162, 0.00269262255013692, 0.002040071156793021, -0.012073722445958527, -0.0031388912510566702, 0.017309805372008637, -0.0039557628605192035, 0.018951181957554256, 0.02102520057021097, -0.017409484110932502, -0.0033780196042048766, 0.006686409308011265, -0.003970497096573699, 0.01139094685476449, -0.007759884177041943, -0.002851876956063419, 0.023418178391862818, -0.0029777691157817773, 0.0001292494282379132, -0.009761102009147116, 0.007364925467791941, -0.015461646975938699, 0.004206593125559323, -0.004274344074969484, 0.0004532380046409659, 0.005241324980699925, -0.002410051017132442, -0.0014379438587211598, -0.004778651506208738, -0.01373416226273848, -0.012287516073358255, -0.011995290831717317, -0.007777052664715803, 0.0007793654117890704, -0.008399241096746854, -0.021298058787409375, -0.010578099935338483, -0.005508201113851834, -0.015365657001181698, -0.005325645798675175, -0.019454344613528452, -0.012833376357623815, -0.0064290435853319545, -0.0019127658332837578, 0.009598020657847733, 0.0032742248224543287, 0.0007563598844507811, 0.008836989861349683, -0.013383437602113357, 0.0018452334543060094, -0.006589825349115959, 0.002007377617243849, 0.009290916339408171, -0.008857170284888359, -0.00887364170115143, -0.0079772439649878, -0.012501730295744891, -0.024769245029567816, -0.021298376218618575, -0.0063567043723321195, -0.027997573456938662, -0.02730989883114008, -0.06840557187376299, -0.07909274708074424, -0.06972164622782788, -0.08356992540023485, -0.06316996644445355, -0.060638591621137515, -0.039056990324549144, -0.035372709162898995, -0.043908313330147004, -0.03178695686982724, -0.01529843860321837, -0.014989036784486565, -0.0025885874925971213, 0.00663360927767056, -0.0014634386218463017, 0.01220213519613586, 0.006724043279971568, 0.0011507907720759896, 0.005737870321464073, 0.004935091885446242, -0.019500593543657473, -0.020335172387602966, -0.009040401148761316, -0.007468871119008257, -0.04393606355809876, -0.038588716283293654, -0.07482251366307648, -0.0770729636804966, -0.08610660972567091, -0.08398710150877785, -0.07481996497847049, -0.09805174401977125, -0.07128177821296416, -0.0463559125689202, 0.02196266494961887, 0.019303544304830632, -0.0264938612752781, -0.031141118981057706, 0.011719190153553594, -0.039730996688348626, -0.02307325064153405, -0.023701048554326712, -0.027086899243558428, -0.0027511318392663213, -0.03415066047308959, -0.0026291389162331467, 0.0028099587556850393, 0.011693294383253672, 0.00822808449064562, -0.023706330264726353, -0.0006261114239340321, -0.032280037974520996, -0.05277478291758375, -0.10415462342777519, -0.11962130665119372, -0.10890351170273745, -0.13816614172617855, -0.15216549554387804, -0.17440920306681232, -0.1750360320452618, -0.14469962850499304, -0.08258166397452324, -0.06009186098291201, -0.03772480418334602, 0.01583471973581354, -0.0019119205002653598, 0.0061788796984176275, -0.013954919182356437, -0.036210028226570955, -0.0357377242653847, -0.014481302997037837, 0.0012018233466822167, -0.013869985431306303, -0.0031207967550345665, -0.0010335274568645531, 0.006616583864914621, -0.011475726273632995, -0.001083805459644941, -0.024948837689964302, -0.060526603976045014, -0.042662649291907495, -0.06494841957804147, -0.09195469978258182, -0.11145831929721689, -0.19806047383781558, -0.20554048780199724, -0.26479246324730105, -0.14578179502927904, -0.10414744720576095, 0.007508784927566838, -0.045776620449710724, -0.000557601176448897, -0.03690227430285718, 0.012478503115411585, 0.003379143601714463, -0.013129923188512957, -0.04447280352107701, 0.005337822449885956, -0.002410429145061597, 0.0071877347579777, 0.007100578063093454, -0.018327115866855273, 0.00719396660704208, 0.01581232754195868, 0.001906096738102525, -0.04040081560605968, -0.034709330723336276, -0.06656570768318974, -0.055006576199393996, -0.07070076130611393, -0.10644308268642753, -0.13209408541439804, -0.18190875584909613, -0.20137168254791843, -0.2401020719017374, -0.07410330922592252, 0.006973800525162375, -0.03249804717446004, -0.05283876883867697, 0.0208828419721931, 0.009686826258313349, 0.04795334928278394, 0.03834264805194341, -0.07108685522395615, -0.06052801466597066, 0.01810397704165966, -0.004343358776062098, 0.010438609065469116, 0.005744325592961724, 0.005615709664509597, 0.007414180574329939, 0.0013351055942875415, -0.007659684835720887, -0.035224558416116124, -0.058342702691656825, -0.06946723972202186, -0.06754215585785847, -0.1110788924833253, -0.12563529339749901, -0.19248113334204744, -0.2644373495023127, -0.26402062482391747, -0.17052586071118842, -0.03817299860254614, 0.11520023813000484, 0.06601685502314876, -0.0046066494895963496, 0.04015121329909107, 0.04464298461643072, 0.03446191168870384, 0.0016277575278240885, -0.04319411918338893, 0.005528582864176963, -0.0007913661455860257, -0.018280330239321782, 0.014306483027845684, 0.012781255621643426, 0.009456934717523208, 0.0022513814196142403, 0.014929067355623186, -0.003021497899358747, -0.03265542533719276, -0.03506043956734851, -0.06976417754671511, -0.08233996984341915, -0.09780109953407727, -0.17066757453337852, -0.23846529466308378, -0.3061717187105021, -0.3143802577271766, -0.08796191786112836, 0.23438377537985108, 0.21638154951093094, 0.12133698303246078, 0.048224414427353875, 0.01935874261496987, 0.050709351056762206, 0.04467917160008242, 0.015170767800041085, 0.032726713161114716, 0.0012076856572701198, 0.017236469308550648, -0.009223954115712635, -0.025413409977290913, -0.014716843544961599, 0.027304354018357832, -0.0026546315660967747, 0.004732823740499149, 0.00046104186844828917, -0.0490527467499089, -0.051875312384485596, -0.05396562393278639, -0.0796105333657913, -0.08183387163158065, -0.1429280208012757, -0.24569820490941394, -0.32909260909247157, -0.2543133311036084, 0.14039162545279907, 0.277824704053606, 0.1913853760124482, 0.1506925400896626, 0.14345130583401294, 0.11909361915222873, 0.11506257842245499, 0.04810241756421547, 0.059308871545473645, 0.11178798563359892, 0.09968204891232918, 0.02158347852452879, -0.00046431354957364055, -0.0004841861293919552, 0.004049062647137485, 0.00612543339245863, 0.02146276184696239, 0.006646765339318212, -0.0036994701411187194, -0.03688663832960841, -0.08266486984360338, -0.07034227579900598, -0.07849969125174336, -0.09561221193500151, -0.12716285698424423, -0.21564180034805258, -0.25046918552465824, -0.0651536834219718, 0.24959939966486877, 0.21299158611475658, 0.1776227461643358, 0.18430138061544338, 0.11382303871256355, 0.0964542016083607, 0.07691592422194303, 0.049631302218919184, 0.07026505885476571, 0.0884861102354865, 0.05757584393676857, 0.013089684524055815, -0.0056455284842733214, -0.0040552485096287194, 0.002665943680645017, 0.023780565386272975, 0.008305575654195459, 0.005344602184947311, -0.04998850013205293, -0.06178363473999824, -0.03546578523320607, -0.04860731271256892, -0.03422143835623755, -0.07280726940382003, -0.10747015045769943, -0.16908309082759035, -0.16802660059530994, 0.11841070729204795, 0.14343238424391355, 0.06849049623397456, 0.0579974371070005, 0.019755740891524064, -0.03550311974557509, -0.07606805277072316, -0.03647789170265596, -0.056164450225603665, -0.03572906614902804, -0.0038656448588548814, 0.01554418637490537, -0.005615618892659861, -0.009616272105082879, -0.009110766735580431, 0.009117816897925205, 0.010000631895829386, 0.00031157259423768025, 0.008114028732311259, -0.04300838558348057, -0.03410004650538321, -0.03794426228659803, -0.02172967752129211, -0.03490611432037338, -0.03589916565437045, -0.10314693428626967, -0.14897373270213818, -0.025679313374909675, 0.03451903852415799, -0.04568638350048379, -0.0524639800252236, -0.0178405308858894, -0.08259182518289385, -0.06262982963837707, -0.11139857662435008, -0.08400002734467295, -0.07412852199820923, -0.07179474498601184, -0.020660761809357876, -0.009216792779801761, 0.0034805482879390753, -0.010884286042201912, 0.0029261904425801105, -0.014746109456988869, 0.0035970342650867896, -0.008389635809938189, -0.028534416160710438, -0.02078521104425554, -0.05562180711148251, -0.05023887266288398, 0.007919946521874895, -0.008613196416009196, 0.00990499380238582, -0.07023588932500693, -0.14967125978948914, -0.07548945124529922, -0.016406929754539026, -0.039072384405636915, 0.010020723664022686, -0.1042368140172691, -0.1282765689188661, -0.12088947276298688, -0.10744939879911575, -0.052020924083722844, -0.07597030903899575, -0.03785210677292309, -0.033651068280904944, -0.010849109540226944, -0.0021036864572250374, 0.006667031085995248, -0.006009494762839882, -0.007180967886873766, 0.02576463102904536, -0.012390978190918809, -0.023008383567060302, -0.028123230620847595, -0.007921530527238216, 0.016099245300351426, 0.022339681181615754, 0.029926862740192954, -0.03836794784174709, -0.08117437804493695, -0.0944259668634212, -0.03286004515523372, -0.06844291143759523, -0.07074689119438612, -0.05022779068216634, -0.15701093651408113, -0.11970043383287443, -0.12336226628986872, -0.09888400331282352, -0.03468567993404582, -0.04174756099276294, -0.031118813808059326, -0.042400921965061476, -0.015014055015739642, 0.01106782913359905, 0.005173269989068475, -0.004979938395986299, -0.023276528858623195, 0.0011111567867486596, 0.0031089619200284726, 0.009815207353622566, 0.02088715538816321, 0.02441192180712213, -0.011995200465231014, -0.030988745284282436, -0.05659883097434217, -0.11933005884569434, -0.09034779257078715, -0.029104074258408396, 0.04953141265469169, -0.021919102071914994, -0.036620806889899604, -0.08938759451520174, -0.15120785176999327, -0.10057603744910983, -0.09799974101190907, -0.05659753265152363, -0.05893505630432269, -0.05334451920936618, -0.024013150163622765, -0.0032310251999003938, -0.012138719932448043, 0.003000822816228236, -0.01823785781441512, -0.0033830199649983, 0.02879911959630444, -0.0025708177003592415, 0.028260594540574748, 0.007201707486198182, 0.017234827914987535, 0.0269941589844637, -0.04320372713821528, -0.10244697406168653, -0.05542802451660435, -0.026420523493908953, 0.0631816708073267, 0.0761502757323661, -0.0008275342938016165, 0.0023883554754546552, -0.10478144806922426, -0.13078659700716685, -0.15700551218868453, -0.12689477268358162, -0.07789969825601037, -0.07864800541738758, -0.01805327923319582, -0.022647842587528087, -0.014002074970313676, -7.406355044837872e-05, -0.0011409837384163892, -0.004823835224229082, 0.015857138078330477, 0.002674802787670524, -6.091918968855063e-05, 0.008724273860624146, 0.01678578942160969, -0.005903065294207952, -0.005673929621740325, -0.035173371649434404, -0.05190510631990773, -0.015746147466776404, -5.726103557698263e-05, 0.09644312687630763, 0.18549190066592644, 0.1174968089142399, -0.012224046740346042, -0.13864896796764414, -0.19717737133003532, -0.23499547883708363, -0.1669271695430171, -0.11008489555109074, -0.07571892523689362, -0.05999530240756379, -0.03802984881190198, -0.02705036692957539, -0.006925082477251722, 0.01010581064148271, 0.012702695904947743, -0.014989987277159719, -0.0012710492901613479, -0.0028285517292270853, 0.01228032097039428, -0.01784575881065617, -0.017692361290220473, -0.021500692449337444, -0.04646698289675966, -0.038940188724214585, -0.007750926752149971, 0.0025955707647172606, 0.057123820028503296, 0.13272765489639649, 0.11583582972423005, -0.008573854906355859, -0.11377497214982857, -0.27746134938679834, -0.27219444436804685, -0.20778750572355903, -0.1603133284073137, -0.13407769101750397, -0.06087981705644835, -0.06756827836572539, -0.06290082279703986, -0.04411414004458077, 0.001523360037681668, 0.02015210524575595, 0.018654734506025367, -0.0026599806632751264, 0.006623392609370256, -0.009415130077143915, 0.0014208395013678213, -0.002713162269684006, -0.019942512207733454, 0.018748309882687223, -0.027980469364415828, 0.02024144274229274, -0.06940102989242067, -0.02612086678884437, 0.002261362390376068, 0.029027552837733044, 0.005383979134047352, -0.09019679413574473, -0.196731819980814, -0.2415475818784635, -0.27984777442199527, -0.19945927210914496, -0.1779671295371172, -0.11784323213594916, -0.0950422181626376, -0.045565268930396724, -0.05134408824258279, -0.02469044786764352, 0.0058692087486905435, 0.013880310741627766, 0.007970008140861289, -0.009605953181328723, 0.009024693839878499, -0.009603135898409316, -0.0006065053578562122, 0.012082075641816117, 0.008330601649878077, -0.007781919955351031, 0.026401169305202844, -0.014717189019001932, -0.04899303662967955, -0.0580675455581865, -0.03743312519835682, -0.048546920707134726, -0.12514461901567772, -0.14581174104734243, -0.19402608327176168, -0.2311882173090411, -0.24498017363445435, -0.19762783299001419, -0.13565130099511838, -0.09368212110767506, -0.07769204810655066, -0.04172566696396068, -0.008304357535251808, -0.014746978917470153, 0.018626937394791473, 0.01582324635680062, -0.008426479583023769, 0.009341154945341604, 0.0006195579736519838, 0.002282082456303602, 0.005761524069582043, 0.0018521257925252059, -0.005689809437121996, 0.014003616941804662, 0.08958438123790591, 0.04372507094073734, -0.016278732977902076, -0.0257127939720088, -0.012049433730008094, -0.12738220492104804, -0.11999555937742383, -0.10275966841216115, -0.11729036593502162, -0.14349194464512832, -0.19511386904149308, -0.13152444453539622, -0.07197294050601923, -0.04379509133900501, -0.024016843122966276, -0.010904460565380629, -0.006746734900985003, -0.005062445337711396, -0.014401274153735186, -0.011597365927704145, 0.007340013626001036, -0.004921415996868292, -0.013678195457135485, 0.00672204707766515, 0.0017782977103269597, -0.0076923003605274855, 0.0019143949287885012, 0.0003567948218799159, 0.057412758681870964, 0.028605210046442023, 0.04391446839653319, 0.044906890240731176, 0.05869134217993971, -0.000813222023894194, -0.0341343138345755, -0.014672376422902969, -0.0414766900784072, -0.11800527807769416, -0.10963216753006412, -0.07399916223054412, -0.026507757499793706, -0.027260447202851878, -0.043996882549736376, -0.02415151363458553, -0.006999152953982705, -0.028609389703440527, -0.003963075210772721, -0.02367775882302849, -0.011657879667968527, -0.00853257606155925, 0.012471187720700163, 0.021377859533696576, -0.007090676771945006, 0.004630858729836697, -0.008805214728159821, 0.006381350813865967, 0.014492191436637452, -0.004136984569931596, 0.017691830785526136, 0.040181508625155404, 0.05415095425082142, -0.018017975886148802, -0.047112602623192244, 0.0002263739939864077, -0.009695883470137097, -0.06510453826322757, -0.0889284012484601, -0.08768444245767998, -0.025615003494926045, -0.03654187625891023, -0.029198950744509906, -0.016550330615605017, -0.026249546941032847, -0.00579202189904518, -0.014271960690195075, 0.0030032698705965296, 0.0016248814463428196, 0.012291725814818456, 4.163079304961592e-05, 0.012006535306883948, -0.004371570269313639, 0.004151582625575553, -0.0077148741773817855, 0.012626997266183616, 0.003034792191779278, -0.02415545480506445, 0.01248889122713854, 0.05394435126354495, 0.04008848569858772, -0.041668199591489714, -0.021126202446541564, 0.010239440585924218, -0.006331579316676681, -0.02607669159004108, -0.0510609425180365, -0.027978340990507063, -0.021511448245936208, -0.021453545589878237, -0.0069255528659838885, -0.014618431248616406, -0.01979942219492162, 0.0018198454152151715, -0.0022652255208847525, 0.00615346240688623, 0.015619504496973512, 0.011923751767562408, -0.0065781645121147725, -0.018633837490144065, -0.00762986469153323, -0.015260570384269269, 0.0033601388943103284, 0.005552522402066456, -0.0039812485183159515, -0.019679987241504618, 0.003212027568839073, 0.011589386535411613, -0.012875036308798464, -0.009695669030882913, 0.004772787222861243, -0.021263194578733897, -0.007094931687832087, -0.017873043540770076, -0.011436991851273596, -0.002033064244735578, 0.0023703012612856845, -0.0027341664006876715, -0.0040027211579689295, -0.009468882245015943, -0.01655981669979444, -0.019632523415004176, 0.0008362282739793925, -0.010046438581979594, 0.008706831066398798, 0.0049416179925516855, 0.007911551041132428, 0.002897386770784403, -0.011820363551447789, 0.015087639200654186, 0.003517339142955772, -0.009516419048055096, 0.005173252388347072, -0.0075057512778446325, 0.00896903293857836, 0.0029575289807437333, 0.0032716010016964905, 0.019473960187450578, -0.0018211364882410176, 0.013569383865334093, 0.0017333257282661678, -0.018271252654675017, -0.00048614950197516365, 0.00813436610987877, 0.01761192818186386, -0.005507516406848906, 0.009128877650260646, -0.008513214087459243, 0.0063013095571091155, 0.004175868404806456, 0.018417196394131613, -0.02814367453045574, 0.0043131912911486695, -0.00026854799882466843, 0.006245893870756218], [-0.0017228299178223445, 0.005977360464417844, -0.01681259363123753, -0.005019671354290336, -0.013924671077461427, -0.01654145283268439, 0.005234880159719829, 0.006822743356234344, -0.0063113995314412474, -0.003927750949615108, 0.010683175003269643, 0.010749108814715561, -0.012570925188045496, -0.004507583312626116, -0.005401920660853949, 0.0015895175603521906, -0.005732145557017623, -0.0034939822754848603, -0.0006999351155561131, 0.000312977034004878, -0.01556729333762411, -0.005388678108156035, 0.018690380213808203, 0.008546030799052909, -0.003028215316195406, -0.008280690165462344, -0.019061746687694645, -0.008673170659915531, -0.00274841140681622, -0.00038433941778758153, -0.003006167239350736, -0.011138119251435577, -0.007108481687741428, 0.002512953233532583, -0.009455776313083501, -0.012228176769408072, -0.013875721637520495, -0.026153209554042534, -0.007702144749578065, -0.01366689881465849, -0.014029775429115227, -0.010297711547803984, 0.009879247965378013, -0.011674031565454965, -0.001388044685033285, -0.025047290037823203, 0.008190205691006851, 0.00919349451792168, 0.01261900211174529, -0.017420606097644533, -0.012988738089738949, -0.008387061845550513, -0.005913481844451436, -0.008086998451453125, 0.0074920110887081014, -0.005407877820129288, 0.009269633456932116, -0.011747238723185392, -0.00830734661270741, 0.0063419384232001755, 0.007769145863968312, 0.006402577606053544, -0.012161669095386874, -0.0203991833148105, -0.030118699493332683, -0.0167800289694689, -0.042386704113616905, -0.04429639943371186, -0.04419183560652949, -0.026265326380538027, -0.03543224728010983, -0.04611470326862064, -0.07341577270956186, -0.028861114584392746, -0.005932437309706884, -0.023590073927117563, 0.002731992643788517, -0.013764077588086286, -0.012912433614217879, -0.009806898756436958, -0.01708451066785605, 0.003554446493642661, 0.0076178603756770075, -0.016524243484145912, -0.008995089767367053, 0.004432725128585708, -0.002598988809845206, -0.003477319310025932, 0.018820907516946744, -0.0032875741435080333, -0.0019299069664687255, -0.03802547486503067, -0.043643054281013935, -0.10488683107895777, -0.08281975444961535, -0.12277788718493048, -0.1241956467700999, -0.16077199303674367, -0.17766682672542092, -0.1788690224070654, -0.19491606838273726, -0.12276839024660566, -0.045480739355679846, -0.001770058830354455, -0.03245916094775358, -0.004700618718144146, -0.0034214905858916344, -0.013767540119841406, -0.01308866823218879, 0.017473795186726787, -0.014371511627661902, 0.012142486088801183, 0.006190225999073246, 0.007943964281067372, -0.0019528593726298262, 0.005349303443948234, 0.014361477888411382, -0.018328397526822346, -0.003470008186188182, -0.030951735217491547, -0.10326978556583225, -0.1747984751437417, -0.1598473227454799, -0.13275263520505096, -0.1320452566003546, -0.18505582659724273, -0.16274251078742105, -0.16085094226427468, -0.12344547467765606, -0.06968657873927388, -0.015266465095816325, 0.008318920817891482, 0.00462646823784551, 0.05001989812295058, 0.07335309026545447, 0.06162338799800239, 0.06481513007933443, 0.01268974187929335, -0.005300126417544404, 0.006294218729663967, 0.012118593576265472, 0.013475225412865801, -0.013786257631687556, 0.0022502476291505476, 0.023149158340445484, 0.005881208263048714, 0.007977210217616859, -0.025499246614191878, -0.14507584921298822, -0.13460008761131717, -0.11377949654525465, 0.0737040403711557, 0.061300613566737376, -0.17712215620056268, -0.17887427018043775, -0.047708583811046215, 0.022590884250738373, 0.03444609565083707, -0.1360198856702265, -0.04458902895983897, 0.02874138836459684, -0.023849116966085295, 0.0254271782640437, 0.02102524109778043, 0.05472907785052462, 0.044756309603554985, -0.012260626502434634, -0.029243204423394495, 0.005700494326637185, 0.006053977373307868, 0.014295739804376466, -0.021513706658415867, 0.011970096767311984, 0.09654115483209993, 0.12109302429535464, 0.08331684924996921, 0.051340933329360405, 0.006222524551141318, -0.036897025552074025, 0.01560349603365551, -0.07113467091792232, -0.1486086618793812, -0.09337091099661417, -0.07130692016622879, 0.04335544284880814, 0.01836753306962037, -0.1166814287893438, -0.04255061638495472, 0.003450599298635428, -0.07368165988336255, -0.02990135471137305, 0.07970566387791372, 0.06942935592934145, 0.06548490167333462, 0.010305925272457281, 0.005039537392072382, -0.007002569851833143, -0.005757096846744803, 0.006041838757572977, -0.010069261446113005, -0.008081534041844729, 0.05614555214401354, 0.11626287261887076, 0.09658960793135767, 0.18301766400217173, -0.0012872532324660483, -0.09797181850238276, -0.0997071046362666, -0.12906580137663434, -0.07962141862334039, -0.16244635847838781, -0.09451790129927116, -0.08955321747761297, -0.10330721748505031, -0.1407572866737827, -0.06473153571221582, -0.11466368874062856, -0.12951032944559468, -0.10471193281366649, 0.04398217467382127, 0.09601813163113951, 0.06350305756658256, 0.032944687252648625, -5.9805169460390464e-05, -0.011723476762994733, 0.0077432136826134, -0.0025969211585295197, -0.00884984031381325, -0.04261737582591044, -0.007164316164269176, 0.05181728239443497, 0.152072480138046, 0.09079665216210944, -0.040967775899458374, -0.13284325929411922, -0.14839334687057712, -0.08890077637581266, -0.05252218917197413, -0.08283530954266942, -0.047198326561031255, 0.06923479975989313, -0.050412724369614005, -0.0831274627073694, -0.1177495660964091, -0.13607472192903228, -0.10593762564484187, -0.08776551102409418, 0.043567174684470085, 0.18484573594070663, 0.09303228106573112, 0.03380242833188771, -0.0019775861345569046, 0.008405864564374728, 0.00018636674129564188, -0.018918623742937415, -0.013787856940468322, -0.025204144310037896, -0.040058178811776625, 0.0695009801151539, 0.14869013692159186, 0.09350550557959036, 0.08457895658616131, -0.05298341381928314, 0.03622813926737732, 0.05136644485988822, -0.0209157777246376, -0.1540766981511544, 0.043116303563502247, 0.16324943719569346, 0.1659877345352535, -0.08629838712559812, -0.08711378125661762, -0.022134567533431668, -9.7723524480426e-05, 0.06921712305063182, 0.15975862563332036, 0.1311282431407244, 0.07600045966454462, 0.026743399265099384, 0.001674070839985739, -0.013344406404444644, -0.0017891073458635406, -0.046203931359116386, 0.00957302004425916, 0.026832142151433102, 0.006333227740657213, 0.09287354019043774, 0.10119335983670869, 0.04281449828280848, 0.09763250242059217, 0.05953319966009006, 0.00338242493288028, 0.0018344288161062912, -0.3161804450915613, -0.39303324471545026, -0.24897068736561856, -0.18925836688018913, -0.1279201125047273, -0.14019356453419327, -0.10701989511338876, -0.0038504187610085123, 0.01511275020454134, 0.13862289297828764, 0.1597061657480266, 0.148651264101868, 0.06549192828127329, 0.03753890305285152, 0.0116522888257217, 0.011816438187165598, -0.01390696834510869, -0.04076034017088525, -0.024890957204871077, 0.07120310721982046, 0.16104235061851999, 0.14332154073801154, 0.11486882971974254, 0.21482509383570866, 0.2379615547510577, 0.06097613534365549, 0.025080110108131316, -0.09786650644841313, -0.36283869161229576, -0.4408216504575929, -0.39907515289612566, -0.3212729865628626, -0.24318843436330034, -0.1796444514632748, -0.04408824494034016, 0.0264333187114291, -0.014782298367721462, 0.11501142380696733, 0.1049566643858472, 0.11343232171632686, 0.07575728064207533, 0.0791561082274073, -0.01895820871694095, -0.0017858613248035512, 0.0033952869824744507, -0.0374024415145867, -0.055196900043534516, 0.07187252659816751, 0.2642663217183709, 0.20424582369077443, 0.1560263380451813, 0.10806776201999609, 0.0851865467129281, 0.2655464308943881, 0.2085673391054836, 0.12501920508232342, -0.06308894683584702, -0.28974318992019304, -0.3645653846530669, -0.4556950076358795, -0.2021859511487068, -0.041992180092645194, 0.029749215138981974, 0.05985154120966697, 0.1164019283249497, 0.09556161029281626, 0.1430981590100745, 0.05816807718888512, 0.02095966555789868, 0.047007358448201565, -0.011887669156644557, 0.016112542201324024, 0.0008426001385982961, -0.02728497620896448, -0.01712866299656626, 0.11630434846945312, 0.19702383012021144, 0.10644794028426986, 0.2106433292427374, 0.23069322402492043, 0.1824669572201637, 0.15739535452862657, 0.4099203001478065, 0.40694571661198403, 0.15808533694012977, -0.13872375010193086, -0.15839137783941248, -0.270569531731806, -0.010776939767271733, 0.018516389955659886, -0.019085959454402203, 0.004541964212293638, 0.03337472783513518, 0.053589842912090936, -0.07186940701860867, -0.08590001868072888, -0.03126097245890911, 0.006923996331308208, -0.007740103226537228, -0.0007026555855693466, 0.001901779072037587, -0.004680849194161716, -0.00701806816178256, 0.07109830803201386, 0.03774345933085198, 0.050422934350706335, 0.13710637177399077, 0.274349841696886, 0.13149329028965823, 0.1462593648793634, 0.24030418742768941, 0.36319478552388945, 0.2819323919615814, 0.08729894591629292, -0.01972048332744676, 0.08989289780986082, 0.15588277588599198, -0.11177342747630037, -0.06780688757827645, -0.14631883781407426, -0.06982317439588835, -0.13301144692934067, -0.18569284972072458, -0.15568412805969012, -0.06276546207037606, -0.006277139031042341, 0.005638132694493695, 0.01327116056163742, -0.018906413194002464, 0.009480120091932078, -0.02419751903696244, -0.028462552826948973, -0.04432836870294215, 0.024803164128120555, 0.05516263467223275, 0.15201930201945899, 0.15998036230902707, 0.19665587415345376, 0.3483349927269954, 0.40464991570060815, 0.34333082559210676, 0.42373198049431676, 0.2936065340174009, 0.3140679515844713, 0.0782046091418264, -0.09871077439934363, -0.1488610062204747, -0.2633751423369095, -0.10127617703940085, -0.09591723902258822, -0.18568836262425584, -0.18167201932385377, -0.07959643403239437, 0.010418770026305282, -0.026319777532340535, -0.00952569600750908, -0.0025569141224639704, -0.007848546426948924, -0.03538144749059821, -0.152066710330177, -0.17927682669034994, -0.09830552810120533, -0.10898873769622247, -0.04923131879894293, 0.10926516071385281, 0.2020953682791484, 0.30625854955173787, 0.556901513261531, 0.6194907262297489, 0.4217427576440136, 0.30790459030663664, 0.07848121489104742, -0.06783280045635062, -0.1204279571922226, -0.29413991430931186, -0.29584875808742434, -0.09091505180359478, -0.051518142783848336, -0.16846847014748867, -0.12269673360761588, -0.07846459538041754, -0.04397117987530144, -0.025369464973651588, 0.015413638194638184, 0.008768819526307665, -0.006658261582971483, -0.04693128990577225, -0.22115812027160317, -0.24612553416700048, -0.1531755053980382, -0.12632696165938448, -0.21191671770922071, -0.13756583297121136, -0.06390030414930876, 0.1949903822458019, 0.34975630073738057, 0.5740617635655503, 0.40852564784974454, 0.11452538130664158, 0.015127216312016425, -0.17903622403348587, -0.2539158103833877, -0.23833057872586338, -0.2453184782619547, -0.07631906474860971, -0.06131490668085613, -0.1582848154030693, -0.13587634308509547, -0.134095399439273, -0.016870546645543976, -0.018388460148770863, 0.0059926691241945, -0.031777768839809914, -0.005637130811299048, -0.06821895993909413, -0.20790509847076633, -0.16932210210991688, -0.17505515579696496, -0.3026388638789292, -0.4005964619488818, -0.41586480870827947, -0.22173944074023813, 0.004973165257604779, 0.10035944804467249, 0.15136180165766422, 0.02538982972399027, -0.08418640849030291, -0.15923314721818616, -0.2254873609219601, -0.18333006330382734, -0.07922789216227959, 0.009237851034008404, -0.04564154044343785, -0.08322572551233122, -0.12969522890306442, -0.10173390370182513, -0.08004265085288066, 0.008287190079795148, -0.008714739269515177, -0.01393062145868759, -0.013509274180673585, -0.005868999184940825, -0.09991656360339178, -0.19343990404270023, -0.09483082614726432, -0.1758831814260422, -0.3218818621760243, -0.3662666000256952, -0.37747682678689254, -0.36420865403755154, -0.5043110178002532, -0.47496359310441644, -0.21921360377620064, -0.21703107813108052, -0.11512007571122887, -0.11836347826177651, -0.045817277728820084, 0.08221347675656675, 0.1403628262313376, 0.06293200449957626, 0.019166731542585597, 0.004296773029801315, -0.04138161226724416, -0.025295112270680393, -0.04722898756704679, -0.01597403308649883, -0.019869251540717656, -0.010871549022845572, -0.010025220925220697, 0.00364637080729643, -0.06322580293119288, -0.11588673613083399, -0.04976936645023672, -0.08292840028833844, -0.1317955762193171, -0.1331026756885843, -0.1538732800138758, -0.30633998200510326, -0.4376585935235314, -0.5478610466596852, -0.17680734954112243, -0.14614245053419136, -0.017753872494826958, 0.028120346252803085, 0.14560793991534468, 0.14056975030574523, 0.13248691612069416, 0.031037318811746813, 0.059373036744579055, 0.08227682745510397, 0.0599255360238991, -0.006274421434724257, 0.02042994626040034, -0.005871088123769919, -0.0035465071409404355, 0.022244035323023416, 0.01191082621435282, -0.017859348788972808, -0.008064250290614465, -0.022302985122867297, 0.009098856138936094, 0.008800585698476075, 0.07723289859099212, -0.016949436183943276, -0.006456772009381865, -0.09338008688763895, -0.09519537439250747, -0.26369269345369234, -0.1965423500061954, -0.1918384638607982, -0.007127542425796141, -0.01316252191836848, 0.08995366340362523, 0.09144503282461026, -0.02637715509760825, 0.045718423623297366, 0.13359875411517486, 0.10505791805837436, -0.01429387421598386, -0.0072508068359084495, 0.044411010648260404, -0.00217503202986703, 0.007513581984236333, 0.0006096972667208861, -0.00016565902057197286, -0.019567169583523187, -0.00966701651569622, 0.03395945964573036, 0.012179642671993925, 0.020451617476926955, 0.06076099240794619, -0.00930104726354279, 0.0006686259493279435, -0.03187233595869718, 0.01620879946605348, -0.10140555091658376, -0.12717428948440931, -0.16947234315705936, -0.22283660324004126, -0.15677906496761393, -0.03368594739734326, 0.06161228911381646, 0.013695822747325717, 0.12178553980129418, 0.11400006588200215, 0.09242112222353771, 0.026379095032228385, 0.0389228224497243, 0.051626300671592615, 0.028169208942790815, -0.009544085348310312, -0.002000631642857115, 0.0006721168080559138, 0.006537240727167613, 0.02635154400784227, 0.04161436273930782, 0.05565254706108984, 0.041197409368472444, 0.07183286656168043, 0.1523195228013784, 0.02589490856969525, 0.08912034005321767, -0.026326421041657444, -0.20300622873668966, -0.06031817704370608, -0.09790911261708302, -0.2094022294134264, -0.15855736528769127, -0.08672539650876865, 0.019057012137604183, 0.041502524053603364, 0.06957782408966719, 0.1074126458822956, 0.10586893034581174, 0.08704871469860047, 0.03156000415636913, 0.04763258660571304, 0.023965115375770205, -0.0053411218915125885, -0.015290538710745611, 0.014372504506707262, -0.003877926829762435, 0.05180900664564354, 0.06310326651003462, 0.07009889470368717, 0.0921726213966796, 0.06389340752276837, 0.10892395592195572, 0.11893630282044056, 0.1674513764195368, 0.11003642632496881, -0.04385444406235405, -0.037041327548840965, -0.04122759545154154, -0.17091998801448718, -0.036022643585217465, -0.056851846373435835, 0.04249210562049587, 0.13708777286032886, 0.1425149752003755, 0.11740321922541083, 0.058744738864397426, 0.051634869083231394, -0.007033281852085278, -0.020577122039869028, 0.0014940879429903226, 0.004030244223127843, 0.017771803238044236, 0.012387353511040445, -0.012437468824336429, -0.0026951175633646864, -0.005630324433203559, 0.01108977235438152, 0.048780304431666165, 0.03625557186613328, 0.0373531993043197, 0.044700562173374175, 0.055270576258315184, -0.0003271585754376999, 0.05127687984286713, 0.14789037220643383, -0.0008305620862090586, -0.024509081235948613, 0.03834048400405208, 0.07183805412981101, 0.09101865170860397, 0.13065289921597725, 0.10512819851117373, 0.07393267845156662, 0.017717274772047112, 0.019278880634936116, 0.003666695628638154, 0.00268712606012458, -0.017192556324156928, -0.009323801806292688, -0.0019851208931995885, 0.004471365473866182, 0.01606189884212513, -0.015188670303367497, 0.02302556346069796, 0.011857805622337557, -0.0012909518538776676, 0.00780127702208703, -0.030906472002340438, -0.0012300249793884594, -0.005656345819720144, 0.019284864951865023, 0.09139321842155922, 0.03578016912216256, 0.016803473455782272, -0.0016572336284268352, 0.015944414137373582, 0.055109925978951875, 0.014998892974668445, -0.0359239148396849, 0.0251005138828932, 0.020200234176568375, -0.0048655163552441495, -0.009354936477645353, -0.009457714178186603, -0.006577626139637861, 0.00656170702874277, -0.01118913752308799, -0.005434324152199568, 0.009264434793194685, -0.009882226346318515, 0.01079390158804371, -0.006500421913903123, 0.007745579827533574, -0.005140669358052045, -0.0047248090962678695, -0.01425322283796585, -0.01962924049297053, -0.01946412948295414, 0.002029110000165863, 0.0020765737733418476, 0.0054001181775006355, -0.004642019611220453, 0.005011129293757243, -0.012563966947450338, -0.03087947778409959, 0.009331733689896515, 0.009525841302273132, -0.003472174393106798, 0.001187655253268738, 0.01379839153819478, 0.001820146149110255, -0.0014636125041165462, -0.013934604210314741, 0.003876362286995333, -0.018005971052115665], [-0.026888049021854377, -0.015188122499226698, -0.0017499600055504436, 0.004419593618720995, -0.002106948406356399, 0.008137394528436384, -0.003076853095644511, 0.00528694855824064, 0.0028742558894884326, -0.004472809075038896, -0.0009420472317990149, 0.0015332668415265907, 0.017643158239311188, -0.0011049007973652086, 0.013465555292909312, 0.006622194007378842, -0.007767725199092651, 0.0023106090439760393, 0.0004465319772771901, -0.01959388990469711, 0.020172246973575624, -0.016650691542597594, 0.0004356247286436358, 0.0031777843437086695, 0.002351623716888863, 0.006578741745738814, 0.008067686116716537, -0.006254903991860158, 0.01680500395233892, -0.010247751511774076, -0.009601707176413064, 0.001522116517442854, -0.004225579429693715, 0.013964106158506457, 0.004516632089453187, 0.0006868701908847276, 0.024295155449604693, 0.00018975943434827375, 0.007878113371592721, 0.02637208543262717, 0.02718112254761186, 0.00805786384974404, 0.004514198904186669, 0.021082101111441032, 0.006746408378038216, 0.016225492665326916, -0.0035809084351783654, 0.03564910528783193, 0.02492479960738136, 0.022616788017130452, -0.003034949250220744, 0.017613385409349078, 0.005829531503102669, 0.005645322434517061, -0.004900148332220267, -0.003741432402199329, 0.020788541664629907, -0.0030547988908386317, 0.0024352147145604817, 0.0012004178162846979, 0.010299573762036697, 0.009873724983478938, 0.01080793549562492, 0.025420055102141514, 0.04884016927348554, 0.040122745437268424, 0.06591066620836951, 0.11527717985621294, 0.09261035984266237, 0.12800905820378874, 0.1455003122206214, 0.1720074289678693, 0.14781798516357994, 0.10880899747396368, 0.09382624511568936, 0.08697783433959279, 0.05469501355709801, 0.04307859505875774, 0.03184538273577803, -0.003005731664064005, 0.0032741267755434598, 0.007518955831022023, 0.007569422402234354, -0.005842829050466798, 0.0014567948827459835, -0.014025816118770467, -0.01000993343925891, 0.004794246923343877, -0.012036381045377628, 0.01264089300799115, 0.03047690092451513, 0.04325685804328955, 0.07512287586530922, 0.14434629927231132, 0.10989911971707651, 0.009460732082840217, -0.0013937540729748153, 0.10197071594388911, 0.13882363899294597, 0.07187195731163486, 0.07535272883080406, 0.03656684891648698, 0.021565642840038576, 0.02478778645042285, -0.03945392193086574, -0.0038494734624422446, -0.031076623922107756, -0.0025858401420429844, -0.00044974975908605074, 0.014053518079891669, 0.015150861955728893, 0.007644788154366351, -0.006630483270266997, -0.025869241730794558, -0.012480604159720325, -0.006959422211906344, 0.02357085278636714, 0.026859934910780946, 0.03393128103269766, 0.04792321132301696, 0.08204855309305369, 0.13638564096581818, 0.1309096921182991, -0.031121506224278204, -0.009247947347907006, 0.02776785163649406, -0.02049327387972702, -0.13267830273479359, -0.033455921593907166, 0.0003944329814414885, -0.07279103121900832, -0.06502130305696438, -0.1108977235257379, -0.13759790047941864, -0.14941101155189054, -0.13144964190749447, -0.10568814226158602, -0.030109016356197324, -0.006193667317854953, 0.010133831008889604, -0.011326549662901484, -0.004117762408227903, 0.019844314962752792, 0.00350849287949406, 0.06578847760821654, -0.0098630771729444, 0.04121433796696734, 0.02178752083672261, 0.009797089908580794, -0.014383565732631989, -0.06615276481692849, -0.16594707961436642, -0.058084825329406675, -0.0988188369496838, -0.15838311409056674, -0.12930349256033025, -0.17500065909703144, -0.06861604702005418, -0.06197833867676599, -0.12067084275918787, -0.20675420376318795, -0.1819118981426335, -0.19672237288006478, -0.12664406443416476, -0.12324487361593929, -0.03844147155009943, 0.00383877142420792, 0.009620888503681231, 0.004510637662622131, -0.009917741243264527, -0.014182703630940494, -0.013971081159975625, 0.03898062095323468, -0.08422911140009844, -0.10292192436078651, -0.11434705293269123, -0.13844439321297092, -0.19831712919908626, -0.18481461001245617, -0.06774249178556883, -0.12053095966526532, -0.16062792004037052, -0.1414698229007085, -0.128415268996213, -0.26506106882047936, -0.2478207077455906, -0.24049838509599836, -0.28240818947751267, -0.29320608706283907, -0.2273059254036403, -0.19786286596673466, -0.10664414992549837, -0.08042465637054663, -0.05049183054414913, -0.015377204216815477, 2.2468810391119505e-05, -0.006434453097389984, -0.009865604098874842, -0.01748788097186129, -0.026647291078477114, -0.0017245235874074533, -0.09598009257979222, -0.1621834514533463, -0.12712999037433614, -0.08207394163447553, -0.0785251960283722, 0.02436363073889053, 0.04098038305265087, -0.04338487643435251, -0.12685337228429078, -0.000617463794319177, 0.025296922561115782, -0.29717315323676896, -0.3729735303296181, -0.35609396041199526, -0.3687681874023502, -0.258162409040004, -0.1850735989142662, -0.2536062475338214, -0.1996529359799787, -0.07744017248435979, -0.029730175969168677, -0.02818131937512772, -2.2640339192467293e-05, -0.005793838314366613, -0.008506169888805952, -0.008572273680175095, -0.036883901080229695, -0.014646005470579867, -0.02921959413509807, -0.09673724923170685, -0.05804967894476625, 0.04547182707752504, 0.10183773178929996, 0.015357313359789229, -0.14625849921762119, -0.11165027895333593, 0.08314210194857174, -0.01685402576527259, -0.17804296941053524, -0.24232757731257437, -0.32598636532593456, -0.36685942350933715, -0.20259408743361335, -0.11551833180746789, -0.15110508958494073, -0.21845471791654383, -0.20646104952734742, -0.13058464800330447, -0.07167260898989804, -0.03122559886150731, -0.015563422156979048, 0.0172387005756038, -0.008852274906344302, 0.0006497853600581066, -0.025656004960031474, 0.010010874619193495, 0.0028383350292388535, -0.09425927806694533, 0.007367709558942194, 0.05964438297358423, -0.012532942627575374, -0.14983344730520057, -0.16818721043339754, -0.09984815762006076, -0.031127076415631873, -0.04221505253713229, -0.19114735799432803, -0.31323494460711465, -0.2491056216228985, -0.2360282045283676, -0.11234079853620209, -0.07397761597805193, -0.06749697554714502, -0.0887235464066539, -0.16238400684669943, -0.16269060282820305, -0.08764126810772921, -0.06052094336278472, -0.02740400060070911, -0.011705684085754517, 0.008894599883139752, -0.027724398140983736, -0.046248228742153494, -0.019207250162523073, 0.003394075643210798, -0.058957748697115946, 0.014512644656450859, 0.04969588450227409, -0.18624513275456223, -0.17915405598268078, -0.06081546358192418, -0.03879618122251486, -0.04357346710922403, -0.13367883247518061, -0.25261014302667467, -0.27284058419452706, -0.16233642303741205, -0.14342476632708615, -0.14282333317428803, -0.09180273613421239, -0.02580635400166282, -0.08072532209619665, -0.18335324644875253, -0.17806094718073237, -0.16001868729507532, -0.04535908009831436, -0.040075662266934695, -0.0023021179213458375, -0.00846047493915838, -0.01080558377624831, -0.05595702068098465, -0.016802658316506094, 0.00408277045532148, -0.0665711723824624, 0.004002433951040983, -0.06426108106710329, -0.0667251941526274, -0.11086357020766836, 0.00878691522990807, -0.03362837185428178, -0.14759543454558607, -0.1223542861409803, -0.20472214884213255, -0.015959244313113987, -0.05241849917791621, -0.019913123390701035, -0.010383469779843946, 0.09528139847984296, -0.015360715422088608, -0.0884429121988795, -0.08689307838017127, -0.16015078782662143, -0.09853313334032385, -0.049849856191206875, -0.005103409275010913, -0.0007350059107699495, 0.00024115270368273435, -0.0022443344427328987, -0.02390076309232561, 0.010206535210931159, 0.0115853872640022, -0.02917879255645191, 0.01143820170022076, -0.010300042228234881, -0.03102176922344806, -0.08243587079243014, 0.10403388780151263, -0.16923680533250687, -0.2661547311589122, -0.09792953379417774, -0.017332050633022445, 0.16523600541384667, 0.06486725304264297, 0.09126034475226853, 0.048574257126268755, 0.07981538049026923, 0.06879865766341921, 0.039265261394488514, 0.07615414474730028, 0.028942629653711652, -0.022590451682377086, -0.02600391666894782, -0.005605092524565207, 0.0044572608215194855, -0.004933944311727249, 0.0020031346402639098, -0.014996106998922341, -0.007050762299247768, 0.01856395692080787, -0.01858509154051066, -0.03175808288001138, -0.0505753983818825, -0.15394087853429153, -0.07295066358281861, -0.07592267464349126, -0.29760760683623777, -0.16422399798545942, 0.10124947129132543, 0.2655098294122081, 0.23451483567533352, -0.03354620577077475, 0.10055670733449618, 0.19128284737353113, 0.04805278121105395, 0.14083947687704526, 0.10348185596276532, 0.24561280811670572, 0.06737833861465754, -0.03659623872896067, -0.023337790689670963, -0.010908114919139938, 0.0007973714688427645, -0.0027411498757666584, -0.009650897384092303, -0.005517964364474752, -0.027843412221895784, -0.046641023308099765, -0.027475589601488215, -0.04051967674903731, -0.03769248662832479, -0.04844813247818129, 0.0025329942638375636, -0.12725275000680786, -0.32903333019491576, 0.030935624985743985, 0.2888445935524378, 0.2599302704905848, 0.13960830954838013, -0.19815559979272504, 0.02840961796879938, 0.054792409590303445, 0.09176745973781608, 0.11820752849982193, 0.20348263403085345, 0.21526291523766755, 0.014252592651545631, 0.009779583512245596, -0.0074664811766064895, 0.0007358573827068581, 0.0015313374577420888, 0.0006431654193922161, 0.011853978136521259, -0.010899006303044639, -0.052207367607512184, -0.07419237998202328, -0.02948550456670046, -0.04269168045121085, -0.052084880575591415, -0.06814480975279034, -0.11744373525170054, -0.10585111296990277, -0.04859257034918657, 0.24296033415500035, 0.3435505269960739, 0.06333528878201186, -0.007691023085261279, -0.24208321466187754, -0.0753929835441788, 0.01688514703773031, 0.05580779301512616, 0.045952888587392514, 0.14704283449691744, 0.07822269536209514, -0.0010457416610114671, 0.07739515598543292, -0.022507921388519925, 0.011624403093300097, -0.016298813524402794, 0.002097701035717995, 0.003080994234035155, -0.004347332075295785, -0.046840638480419264, -0.07658095410760969, 0.014843220112125693, -0.03897080013041411, -0.10506520780525166, -0.1326604078497796, -0.048635641810990685, 0.15543893016517774, -0.030004878474544062, 0.10229874819984751, 0.4304223304663532, 0.13590351622511565, 0.06867599416197775, -0.19863488013034772, -0.058761489570547144, -0.028770722619930845, -0.005169076754916205, 0.09091976776955757, 0.0917649993758294, 0.019508914780258263, 0.06348535766615938, 0.11524781088403813, 0.01739044137881808, -0.0013908353399869457, -0.0015673522254561773, 0.006564894320787035, -0.013636541715867187, -0.016308483527972255, -0.06118969441394415, -0.12423598833571034, -0.08655779343281533, -0.11485268236011488, -0.10558433633443083, -0.22813413692928108, 0.02270976977178558, 0.049771241946884134, 0.02584704942974436, 0.07414845321051633, 0.22422276315666576, 0.12841193360457684, 0.06955116461936006, -0.056741420242019676, 0.017743538542240176, -0.057885715278563836, 0.08014985680702602, 0.165094495251567, 0.034393438566796664, 0.007650989464502871, 0.054113962550018324, 0.0701272632223317, 0.006277196644814946, -0.008275421773981637, -0.0023289252133970664, 0.014942791944925812, -0.0020633586780498636, -0.01641512673167027, -0.07039202865295902, -0.1426935234194205, -0.18674371713674778, -0.1055956687007402, -0.1007471208805078, -0.19790958438236123, -0.04635990953443622, -0.15240823999137593, 0.08822774455994437, 0.1245898555476408, 0.20918428474731662, 0.251826315322695, 0.10881889559410925, 0.1413887231490437, 0.1350682720958582, -0.0630946564897869, -0.03223439771137041, 0.02417482863585687, 0.00953466283339869, 0.04202031309516316, 0.02982302860665599, 0.05598754393073361, -0.014915888066587545, 0.023341166563260903, 0.0011289447905546502, 0.0007918533612303398, -0.016029273018016134, -0.027402791029986877, -0.07099573248696359, -0.12918214587022234, -0.15150456971401494, -0.1700032677766709, -0.20453183917067874, -0.04249006304767786, 0.047143949852155, 0.20780393681770903, 0.15912921606972433, 0.1182671625786134, 0.22033285663347243, 0.19816665695088737, 0.14630151951816317, 0.09970950747147345, 0.10428273774394911, -0.10277373119924126, -0.044965764473782865, -0.054750179876015506, -0.02244608851681685, 0.07295312354049878, 0.02010208052196422, 0.012532785257721777, 0.004515083619556346, -0.004941169842685059, -0.0031904331428443023, -0.005269593761584685, -0.004550034336800469, -0.025227463749793542, -0.04568408777778545, -0.1075371703939824, -0.15121663567133903, -0.15561487811520477, -0.23488957805637728, -0.1949399424511203, 0.05564429592968971, 0.14764695109593926, 0.18792739802949504, 0.16432767644291318, 0.29291890584142455, 0.20490209654176683, 0.04191141223243905, 0.14692082880834098, 0.20118600405486178, -0.02266680304763666, 0.013346630808363291, -0.08005697119118318, -0.0955777202584542, -0.0063614119248181925, 0.03124777583441955, 0.006161960159001505, 0.017541879866118, 0.0013899428369987677, -0.005858173705520254, 0.0039584187480844945, -0.010887960542065868, -0.012679850830250595, -0.03069882727063987, -0.11373222174325354, -0.11907186656576355, -0.17667186357395745, -0.14863584892535597, -0.15723999723405738, -0.05913176441950938, -0.10636420076758522, 0.005307686540851525, 0.2546554531429366, 0.21802300871811708, 0.013376228994116219, -0.1028179927479726, 0.044520406449796796, 0.04824979429663197, -0.016281354232052844, -0.017744360279004546, -0.12998444080697089, -0.06075362192873795, -0.014416612155576929, -0.020408211433080328, -0.0014120118734441635, -0.011345442678356882, -0.004970269456035506, 0.00969635096979781, 0.003638595254340087, -0.008501596888989911, -0.025512127443226906, -0.021226790771019813, -0.039913574670033064, -0.08694072604337391, -0.14000078143983968, -0.12620530832068616, -0.17966480624757666, -0.17453507211001157, -0.36784729479956346, -0.24515395221844338, -0.11023276817746509, -0.1337823756706145, -0.06721110661562131, -0.15141745631443743, -0.07925510995243516, -0.09748887250714151, -0.03719544668693805, 0.0018685518216185074, -0.056842184115711784, -0.024774573728107784, -0.03385028301417526, -0.049261922058865974, -0.027612699239446082, 0.003532913360275512, 0.0008868476460670817, -0.001562780932711871, -0.013803177059702604, -0.00503545223750187, 0.004681900582164823, -0.016137538224251496, -0.043838650574693244, -0.06298148575229344, -0.15357861523158986, -0.16155066121919145, -0.18761365748737263, -0.23242895107133366, -0.2673060448374032, -0.15666691095418156, -0.24704686716120813, -0.22030654886877793, -0.14884882145329692, -0.1508954503421967, -0.13163632865823066, -0.08937538693770358, 0.020716462565384133, 0.05570684623479184, 0.01160960172147824, 0.00993118308189765, -0.0232054003881904, -0.03449825151600546, -0.01040124358606503, -0.014648078271887369, 0.006338330734098919, 0.001429268684467461, -0.01460814966696173, 0.006091973509027597, -0.003487127151066598, -0.026102971764257514, -0.031205012250170496, -0.0519787809498166, -0.09087145929696065, -0.10700474166769733, -0.16771592315947015, -0.161726397253164, -0.22959339292828895, -0.2460596310817255, -0.3311012467303135, -0.2669558833385497, -0.15420661987744683, -0.1659367230795426, -0.14933492124403988, -0.0462769384438775, -0.015820972251483552, -0.020704605352044745, -0.00720521392079002, -0.013305329982431367, 0.006997075558418404, 0.005842055042414891, 0.008437197744920124, 0.0050767652385203515, -0.009629843065712965, 0.013004472960236504, -0.00218694076269229, 0.0059542496501778855, -0.004007537805421722, -0.015187718659041121, -0.012659345423762356, -0.023182558729360394, -0.026475318983882508, -0.05752837025007425, -0.10807464244126533, -0.13701482501688866, -0.1253753810718228, -0.11007157426990567, -0.17387032325655324, -0.11180878178671434, -0.13477715967536705, -0.09867207996249854, -0.05444686012661481, -0.06605424894063747, -0.07184593059695611, -0.013440817501677721, -0.002924267821643179, 0.010999005081669889, 0.0035586176694278686, 0.005632182512029292, -0.006096780937016834, 0.00991584100451589, -0.0022009859827782714, 0.0023061556125561146, -0.006511077233160123, 0.0163753466632094, 0.0015196055914263335, 0.016681295432028686, 0.012669176100950558, 0.007644597187678357, -0.011494597165498503, -0.0071320867171418565, -0.01918714013090439, -0.02920514240828812, -0.035373138799461266, -0.023028199630728302, -0.03734731510252799, -0.025266699996216974, -0.02935602697410787, -0.019551298584709997, -0.010490795353269956, -0.0002333115844195044, -0.0033323117174112694, -0.00804747759155961, 0.013820328263178515, 0.00812321414870245, -0.01401585010130179, 0.007421744443396861, 0.002703760862902379, 0.00014755128174580979, -0.0019778408905120194, 0.006178256381502068, 0.0061724335636184355, -0.0021496352765495784, 0.008396914380551273, -0.0006851858936180761, -0.014822240310700896, -0.001659218194357321, -0.011456150659653235, -0.006369076290343624, -0.003711231981474441, -0.007817179354360555, -0.007776584799342976, -0.0004593440338766668, 0.0065412666434261305, 0.012643681770003164, -0.005955632314196937, -0.005733357437109506, 0.01354543394054897, -0.005886218021466569, -0.002328857589533299, 0.0072272194976249265, 0.009275759934055973, 0.006625377627015151, -0.008122759604634943, 0.0028075712693220478, 0.0018306509553675453, 0.0031853033366722574, -0.015148648227206666], [-0.006456187001969879, 0.01811782249554387, 0.001246840370352523, -0.006271282983084634, -0.011558306249469921, 0.00901175060196883, -0.0014925026699419538, -0.003251764754557073, -0.004925469268199575, 0.003388334421681645, 0.00946733669717553, -0.013667216025965798, -0.005571865783000382, -0.008379831904179985, -0.011182961580502221, 0.007599778737692948, -0.010341045194801014, -0.0077152416890997845, 0.004105808164244701, -0.004985849700221564, 0.0019726957135413666, -0.00469761202520686, -0.0072318365782050595, -0.00031728660419892425, -0.002606455664667014, 0.004508496567144753, 8.417937965447207e-05, 0.004869758640695702, 0.007925141710981904, 0.006312670788972632, -0.0011529818752177455, 0.007982608094562433, -0.005388520347320075, 0.0007739575004485188, 0.015918787301084144, -0.0008003842141369802, 0.0074318469335009915, 0.007512196021431471, 0.0025360639219726114, 0.01568910970125185, 0.008001196102177914, -0.001720475081761816, 0.014093239155533357, -0.0029666182384459282, -0.040509412066961736, 0.0001792185459557429, 0.004674873692526844, 0.02028266919225193, 0.01438805535854169, 0.005447393600540755, 0.0030754635391227, 0.003736138188146241, 0.00033753564086336056, 0.008030387588633277, -0.007138537843644623, 0.017858148863054934, -0.010089118948968781, -0.002659467125152141, 0.011177061505061661, -0.010069648954243606, 0.004237088398623471, 0.007572388580737692, -0.009884304005357723, 0.008055594804415896, 0.0018395629670621152, -0.0017768835700856004, 0.005963642613882598, 0.029914027712380765, 0.014841253153228786, 0.026147734099130945, 0.007530827016379422, 0.04075919094194825, 0.03286181792137661, 0.034525532801764694, 0.054577570568444374, 0.0588530308450715, 0.019707014849740773, 0.03635086567965611, 0.007090090001083899, 0.006191806837983777, 0.005875984252538948, 0.01107298268677826, -0.01040712964978841, -0.006446071643534469, 0.011737545094366282, -8.954463486557046e-05, -1.6381199501788914e-05, -0.006958815391433611, 0.011727447929889803, 0.015101031784708301, 0.004368799469606813, 0.018946629547231884, -0.012023815276589148, -0.003039784388193292, -0.0436758367484513, -0.11146384117489136, -0.20960865187854358, -0.1338065891247586, -0.15836412185720275, -0.14361124280298554, -0.17990074525679925, -0.04517276100239587, 0.06419322107061048, 0.0790027641968945, 0.05958274196931297, 0.1010734093684361, 0.13260320456881192, 0.09903648276347796, 0.03816038360963138, -0.004461457341399302, 0.006150899073263704, 0.009214446785350246, -0.017240055987545747, -0.026153985128687503, -0.0020660628616668178, 0.006277543382794497, 0.020808032416097712, 0.0038763449516379636, -0.024871688656395864, -0.029445502005004332, -0.05486020820770963, -0.13164361217587595, -0.1764206341220445, -0.2548263374538272, -0.21482914826362323, -0.19697535617394912, -0.11212241917012399, -0.2146255772899212, -0.06806849331630922, -0.15933009611124968, -0.12095512376486468, -0.006909524313962807, 0.10017741721699924, 0.1949869505596129, 0.19271446003881595, 0.17786332942224994, 0.08399258618028209, -0.005633410812751175, 0.005176672526411409, 0.004955417969389208, 0.0005999873624634026, 0.0011782772188327223, 0.011071046837837212, -0.011662008040449824, -0.009618230483457892, -0.015517897909466869, -0.025133997150550515, -0.011744532008362, -0.07290079185207247, -0.07826624100375301, -0.12023395579837622, -0.12152801650432889, -0.04693532693002273, -0.12215862409903942, -0.09633331165589208, -0.21323388460908396, -0.24541514400643993, -0.06899023993571687, -0.18851595635350202, 0.028029941252773995, 0.14031143889544662, 0.06676985908494612, 0.06036604774166166, 0.15254565608115667, 0.112747632515931, 0.01924739365662592, 0.04210985920531607, 0.003373386921708723, 0.005644811573440291, 0.010743904007624814, 0.011444205859307383, -0.017456722856142803, -0.021273651118909293, -0.07371221810342952, -0.07792827214535797, -0.052502109971825826, -0.05659086120748595, -0.0911303448271577, -0.0756029090716691, -0.11614741837007053, -0.08606963918341377, -0.24894462765968553, -0.20937154754204115, -0.15775995487074446, -0.26939177706726103, -0.06451930680238482, -0.26234492528765446, -0.009704893393590146, 0.0070619635693281, -0.11461245032969995, -0.03420359896316714, 0.1323440644993422, 0.11870155306842331, 0.04921318136612051, 0.021533196067467227, 0.016927981572346488, -0.0074875073553401636, -0.006171163962025307, -0.017493604237635966, -0.05023629612596694, -0.04248243312517535, -0.026716129904653798, -0.09089525882832865, -0.08579548366912829, -0.08506471505137793, -0.0024277153500557517, -0.06773992600848677, -0.13616929983737516, -0.16886105235270799, -0.15614780665649905, -0.05652116286935945, 0.013381515908428778, -0.12778890747112492, -0.013508738709726544, -0.18671191874599852, -0.12211281176871899, -0.1541770466713229, -0.08269112845134632, -0.05794144636105677, 0.008105558920008714, 0.10633936157666758, 0.05954288303773126, 0.036380236457440776, 0.01030560992590015, -0.0031926116195494596, -0.011263104717601963, -0.01716019763056899, -0.02470132764889158, -0.024807783700853885, -0.007996075127486282, 0.05700322475026083, 0.03308328932593071, 0.0007378431960282506, 0.04640928028013426, -0.11298067652353048, -0.03831108820455023, -0.07132426417009075, 0.029055439913833706, -0.22136116767570613, -0.33680910592216556, -0.22766386908328362, -0.1689098842712197, -0.25819989515688807, -0.12596322696069034, -0.1931568753236711, -0.14606002599322404, -0.16083941526424145, -0.04726866158295801, 0.09535950400542387, 0.04335415014642159, -0.01078014037548852, 0.007425620007517263, -0.007739704154906729, -0.019033618004059637, -0.0003868743802682404, -0.044301121086494276, 0.010025711002751717, 0.010181434270810731, 0.10044605369469824, 0.08320608944173874, 0.14742788097612375, 0.11054787434677449, 0.020531201297952228, 0.1983545017248507, -0.0016557175343759661, -0.1781022267237668, -0.4956302204072701, -0.6591280082543949, -0.4728675436586629, -0.32862484085325244, -0.319196297734736, -0.24248846581247638, -0.21711329567870424, -0.11743853997801099, -0.12462692140208852, 0.04672960092737143, 0.04573601520507668, 0.012671487836233838, 0.016007175130577315, -0.002798899031934487, -0.020055713797315237, -0.006471953878738462, -0.025194313611743638, -0.038057871627806224, 0.07041951831909476, 0.11143847171982897, 0.09093373490524394, 0.2285261977314051, 0.23950486786558722, 0.18671722226720053, 0.2122889105049428, 0.23377424076415917, 0.3261569957715878, 0.012549891060227853, -0.31879140764221, -0.5401262973036592, -0.5435986399015426, -0.30064903071172955, -0.18372976668228813, -0.09028402419799825, -0.15390645062093672, -0.15872663133381537, -0.09836093386216467, 0.08438876171404606, 0.09290519775036327, 0.0037525305845677423, 0.006771083166522375, -0.009527651887050058, -0.01247963030180728, 0.005048770051425968, -0.012172594243416523, 0.02011085832559468, 0.15309636958222986, 0.2744664511111673, 0.20735912848100496, 0.2666508904868273, 0.31987073983954045, 0.30359290689916124, 0.26505424824729534, 0.23637400212913387, 0.5904828572611661, 0.5550170839975523, 0.2784307898217845, -0.17052386725265084, -0.1089635273208433, -0.07183024847308521, -0.10178820367582637, -0.10196984947649342, -0.13334255193002775, -0.033753042520632166, -0.04307265231670437, 0.14278518269694795, 0.14598020830414046, -0.014850602450457072, 0.018856845873314782, -0.008094652387400375, 0.005302963338556531, 0.007823599605345411, -0.001998930742602079, 0.03873808859957149, 0.18687883224465182, 0.36289662497872727, 0.2537291168062546, 0.23864763773247197, 0.1523006498730762, 0.18204792936456754, 0.16837109675746878, 0.3557849190593351, 0.5799522781019448, 0.6955038844434565, 0.31596504416524845, 0.12487068026130269, 0.08543642306818705, 0.06908978675390819, -0.11516386623603245, -0.1478562381514662, -0.07892664409542026, 0.08367509753995613, 0.12417360632411135, 0.30427239587995586, 0.15758043720624193, 0.038284026983565624, -0.002884025868525765, -0.006472110020587837, -0.011699424681913392, -0.020225067409104052, -0.0032978496613970554, 0.039046851575333906, 0.14876023318462697, 0.2949028943614234, 0.25066599136983136, 0.1388436381901626, 0.14609816724602384, 0.10100230596431538, 0.19470865367946075, 0.3245738533570982, 0.43967733079971083, 0.39393696374258397, 0.13125277132821203, 0.17934257561368347, 0.17221392800742766, 0.027243017412923957, -0.17596676397377528, -0.029778679960000658, 0.021205905561707233, 0.035094881473939125, 0.11987394972982474, 0.22628213097099553, 0.09142029053804512, -0.014904483428614418, -0.019652741506940734, -0.005396752072362595, 0.0010761587708990978, 0.0071125334800996925, -0.021208725353280215, 0.01604376577280348, 0.07609391185861283, 0.18143037833902756, 0.17506224784614424, -0.07028275065751377, 0.16792039793313898, 0.1543653497286737, 0.062013235668598524, 0.13163267394752318, 0.02611568532798508, 0.12592567068106408, -0.10739428593880772, -0.07085632072836284, 0.16761372103192937, 0.16176991962957374, -0.14598463663493658, -0.0775432325961942, -0.05259014497253076, -0.010777598551482102, 0.14377780382644376, 0.08687579415959823, -0.0118891876836908, -0.04880885314844493, -0.050163526382439406, -0.006465783106201649, 0.021724496617438974, -0.007716713227522266, -0.017106592080440883, -0.005554434514290316, -0.009675326910102153, 0.02121075176956029, 0.10570274329975916, 0.01982465872788728, 0.20565546049903752, 0.07918681409190502, 0.023884220751710025, 0.07972128480606283, 0.11598144227063308, 0.2737051552099363, 0.21883438542068095, -0.10497411686164061, 0.1789964056128345, 0.15583232286765736, 0.025869772004879034, 0.030470113440735122, -0.09192130265124915, -0.005006913953369022, 0.12226316175595241, 0.08059454210530405, -0.05650787091549905, -0.04497943692904754, -0.07602629113895668, -0.0175653558830265, -6.618675172510808e-05, -0.006890152350887103, -0.012846198652732253, 0.004517569694266855, -0.07324242129111097, 0.03833574124118309, 0.10881044024519586, 0.12115105291906214, 0.1520048072523079, 0.19855471055752394, 0.18559281767087168, 0.12021829418363086, 0.14095942999867125, 0.26790375097548924, 0.1692582792316878, -0.06570799909464281, -0.03840199701883621, -0.042490308399577216, 0.1083123714499755, 0.12385123571354874, -0.08445109114960832, -0.03415889406933102, 0.044419469342318406, 0.06677145460070455, -0.0345808552167848, -0.07630359365833818, -0.06827287583003007, -0.029494247187395763, 0.0025481403996591647, 0.003511200926679358, -0.003099349296068277, -0.03567628265343494, -0.1676681076279901, -0.01665160068505725, 0.08913106811000021, 0.15043210655221081, 0.2229410119453486, 0.29717691993882517, 0.3027061320716195, 0.2536440020593014, 0.1842947231194034, 0.29941226560458256, 0.19129123443616244, -0.09429462929252838, -0.06954226031060087, -0.028399084463876, 0.16312213328155115, 0.13620625538044906, 0.1166852373527666, 0.21450089569447603, 0.0944959554284412, 0.07446161608340955, -0.03848945524029308, -0.11977010549018494, -0.04059298834275326, 0.009365057408277689, 0.010583307794747091, 0.0017710501334386674, -0.016036256563819243, -0.050330440599664045, -0.17367419135947204, -0.12847297776815367, 0.05843912396985906, 0.041957924349776375, 0.08963419817119542, 0.2334885863912043, 0.16993340478263852, 0.15881854149693725, 0.28361658762790914, 0.23453954679329786, 0.004613708768027107, -0.1904260612522568, -0.14211700149849282, -0.06531224734918534, 0.037809292555441416, -0.002822182204414094, 0.16801036170231443, 0.11705335920884706, -0.05523825724847955, -0.016066415284478684, -0.04762472508040989, -0.03169004476599113, -0.023998626643614546, -0.003598194037978726, 0.006301447556486784, -0.005245218589013458, -0.0007607922241657187, -0.03793647513835631, -0.2103780927993328, -0.12135888848719745, -0.04697343670844711, -0.11165832119158169, 0.011737843272132294, 0.01730234051987484, -0.10406828804099547, -0.08713263884227333, -0.16357104964560698, -0.11661544139716937, -0.20998809181471695, -0.18390314083596995, -0.12869620306615692, -0.20612940151310402, -0.12075193266690995, -0.10014467882891372, 0.004515348208183287, 0.07316265341295321, -0.04922666209413178, -0.04870381822062275, -0.018903047743078626, -0.04496699107755831, -0.02930727747429585, -0.00023747857547382582, -0.005271759858413958, 0.0041110951223672955, -0.019574856651235414, -0.06136328823191176, -0.18956805930540635, -0.1981303797849254, -0.12284077560698109, -0.1353248993863462, -0.13827046174004884, 0.010772681247756764, -0.22696457179474674, -0.3419933307005328, -0.30931534821785883, -0.2733775394267191, -0.11673621742179734, -0.12150739666117977, -0.2447434173700987, -0.18576964754750305, -0.0967088199487977, -0.010032160042397854, 0.04562070606063591, 0.008797979893955159, -0.015683966698716096, -0.046161478478716766, -0.025483761210338206, -0.029403927879838167, -0.005932930038305159, 0.010482753089855251, -0.00721342026188671, -0.007943361263849303, -0.014404837454494984, -0.049521957665470746, -0.09364800366657096, -0.16024279731495336, -0.17955488429822122, -0.19365597157931097, -0.055175352018147376, 0.03909474997864341, -0.21587644494593033, -0.2483001480025071, -0.29920354240911046, -0.13529684335561298, -0.13513020290973, -0.15990681722820102, -0.23370504320099597, -0.01654224481386866, 0.02253186089684839, 0.0610163207766892, 0.15854570723937328, 0.10326309450470089, 0.010983490906417691, -0.061740216568394374, -0.037944478189787204, -0.027607670061245114, -0.015625225282145456, 0.006524294898283837, 0.017910931179583686, -0.008745636273157761, -0.01183593036326233, -0.04515121356337809, -0.03229192412834001, -0.08744905677186074, -0.2624413399542022, 