{"layer_sizes": [784, 100, 10], "weights": [[[-0.007183216722423684, 0.002815364142665444, 0.00789243926699191, 0.01880884702296396, -0.00385148514247174, -0.0005967509322637806, -0.014155698448847526, 0.02666911181124218, -0.0046101456697593335, 0.0012727359461845414, -0.004043258956545873, 0.0014991157778600594, 0.004661855946423721, 0.019495995168190238, 0.00497541591359529, -0.012073770574175677, 0.012872665774186878, -0.008867950134228541, -0.014717496330822078, 0.006404272247514013, 0.0048191770255475224, 0.014513737498169726, -0.0072236175305072595, 0.004782920393363546, 0.002781717171334911, 0.004036757504447214, 0.0011041717567883572, 0.0007200854296632864, 0.014647551843921839, -0.014719605610020841, 0.001168443659292418, -0.00015063075722288516, -0.0012816618110464716, 0.0025401793633270595, 0.0021049244987523578, 0.003990279371217191, -0.007980378184655076, 0.010107224584626026, 0.007859730020822514, -0.0014251539366510802, 0.0012817526037880915, -0.016699472060624183, -0.015249745697959118, -0.0005644567694034144, -0.009284021858508698, -0.0008509072298238504, -0.0071108581905104775, 0.0037793317668429467, 0.0036017676677756877, 9.161845466766551e-05, -0.0049309056792281375, -2.501409528171084e-05, -0.0034820703303784324, -0.018065093635192195, -0.00422281696129318, 0.0061084828451936826, -0.004912804724666517, -0.02278306612392825, -0.00017025539559052555, 4.1656884717063596e-05, -0.003161610178561215, -0.0019040047439688882, 0.002881995288237644, -0.006723053580233628, 0.0005134229122329193, 0.008314707139901035, 0.02082174981427307, 0.016315367712369203, 0.012104140644587971, 0.014541000470982005, 0.021000934171368082, 0.016917497807424183, 0.014268547635608092, -0.010550739535984852, -0.03903399185978006, -0.016106219743753508, -0.006946307651724429, 0.0247465901960006, -0.02049008965353239, 0.00425307497298546, -0.010743115367330644, -0.011154316409117382, -0.016267908915062305, 0.002838390598105511, 0.006724771289986173, -0.001021231502629573, 0.002907848931589376, -0.01386450323282974, 0.006315899583655368, 0.009824500432828984, 0.021210175938094683, 0.016434567718035434, 0.02568718911237565, -0.0043060843734401425, 0.023329055132751946, 0.0900418518204293, 0.06747218673170521, 0.003531051641203512, 0.014774384913708099, -0.013491955190301864, -0.025773328078147126, -0.04419570650178812, -0.060386561892069174, 0.008412709266948723, -0.002363892716986618, -0.03416925311130016, -0.0293930736019862, -0.009454467001399213, 0.002776190597121294, -0.027380988282854703, -0.0017766899011095211, -0.028848842009885026, -0.007952906094002456, -0.024709975061046472, 0.0004848802632109795, 0.01080249614147465, -0.005847853347956528, 0.04676679177310771, 0.05395258277802527, 0.04400769507535349, 0.057686206414927645, 0.02168006004121238, 0.09706524672923215, 0.08731174121331572, 0.03856446630349251, -0.06997949706933476, -0.11376722263077309, -0.11686461109086263, -0.047291849891891106, -0.0630778448110271, -0.03661538486045306, 0.07602361836456256, 0.03935349147133919, 0.012869130917660333, 0.001612658961332287, -0.018332544124495566, -0.006041737428009872, -0.019831007969437466, 0.005307821168387741, 0.023737353060602952, -0.01895311443957988, 0.0048007655762518356, 0.0027368576080770645, 0.007013013993437446, 0.004346104518119915, 0.06990867854921266, 0.08569655787743108, 0.12551725157774118, 0.1164745333904129, 0.07909419170775013, 0.07117951819855799, -0.03318429829269464, 0.028512520605783475, -0.26460447978976737, -0.3736924255758654, -0.18780123630682377, 0.02045289882881646, 0.03017121266120314, 0.07326399587971938, 0.00523040600394464, -0.03435764067022026, 0.0042452678275061405, 0.0058465946105924335, 0.033203725548274894, 0.027244314927349206, 0.0034927208592352528, 0.013037934712685283, 0.012515411409981707, -0.008195190497316835, 0.006121588594629568, -0.002469450294373332, 0.027881991382889194, 0.04831852170834678, 0.1053414191054496, 0.11762930416866843, 0.06206302130268823, 0.025989754699603292, 0.09588070205895614, -0.03610023832388923, -0.07419788485024911, -0.1759820041860776, -0.4332162127700486, -0.5358420530409352, -0.2580326957181737, 0.038807460388836305, 0.11228882856595102, 0.27751207267546907, 0.3291413880097415, -0.025335192537888844, -0.048826307360142915, -0.03685378579582774, -0.023426300046180713, -0.010070683086977002, -0.027765249421890785, -0.016081755063327093, -0.013480243354220869, -0.006779605931334734, -0.022455128578359553, -0.0024533182881729737, 0.022013267019749698, 0.08920819848169714, 0.13620582085720911, 0.11207220080834912, 0.04171181025249907, -0.07141485724950586, 0.051342049448765324, -0.004435366474445764, -0.007840236381590196, -0.1405566499518769, -0.4096412269371901, -0.4136604837470168, -0.22928233132603204, 0.06471470472707173, 0.4609703126431516, 0.5245079346594963, 0.44922183864459164, 0.06287158403998172, -0.04824802465820082, -0.024924199038154547, -0.13063200022945723, -0.11842520334698799, -0.06678668059755725, -0.003873659050431513, -0.008381654284610414, 0.010862810885612468, 0.007198185973499244, 0.0010555110451223662, 0.04697117196266657, 0.10777127341233408, 0.148803733178061, 0.0318267180915432, -0.06484750786806377, -0.17630168538458119, 0.056047738689922855, 0.030146491328100104, 0.09153022361301187, -0.17519793309531576, -0.44267076169509173, -0.3153554177411631, -0.01987746280341457, 0.28635827536837066, 0.5212963955365875, 0.39490477156976544, 0.15870648353845326, -0.18339872834053725, -0.22427928552895118, -0.21428459350392964, -0.21208147864131652, -0.20555804584240778, -0.07510857254070472, -0.009645677216300625, 0.012538621451736598, 0.011714587320494218, 0.014370216237911057, 0.010864818360767744, 0.005182178859806272, 0.06136104300313712, 0.06937721296434309, -0.1126729087764355, -0.12570772220732537, -0.02676491412918053, -0.06272271727504258, -0.1987583900951297, -0.19012677269510023, -0.31948541069863934, -0.5578638995383446, -0.4690408623855216, 0.07843776761176553, 0.4423636311032254, 0.26803175405662927, 0.08059812613573102, -0.18132910296025598, -0.3332752562601579, -0.28328209625835166, -0.2235336295376458, -0.28514216181386726, -0.22534388869197622, -0.08462899619957916, -0.006022280082989386, -0.0005240080745901183, 0.00962007086931943, 0.009775560882570658, -0.004098915581398876, -0.020035804835731252, -0.04566327399669763, -0.07984334615480493, -0.23329575299827945, -0.18689005264945713, -0.04857475232854188, -0.1097334508355297, -0.20908584211514727, -0.38734022119671896, -0.5678976543536852, -0.5699581578918642, -0.3992735710425196, 0.2063502529801046, 0.3087625516824767, 0.31730451279681576, 0.027374283739549646, -0.2385101950629378, -0.3452807706775532, -0.3204685401547662, -0.2879566882020662, -0.2579196264645606, -0.14926016173727555, -0.040748435973279824, -0.028787873757514383, 0.014045463395716178, -0.00017045526360900118, -0.012947827535182277, 0.01992338978423909, 0.00036510815582561657, -0.12903419030549626, -0.16439450308168918, -0.3222455815515404, -0.22014289375950646, -0.15207276673907938, -0.20148659485102646, -0.268233108348598, -0.5307506408427031, -0.46012569124067326, -0.1973100632645798, 0.06966885177984106, 0.19891210526959566, 0.21923796750229085, 0.02364944094272049, -0.1803824072980322, -0.32957532487212476, -0.3738248871392238, -0.25568843941099734, -0.26644421740630364, -0.2229243010351059, -0.13357147871941683, -0.03925751229019146, -0.011765568553148519, -0.001711860315203197, -0.010821333490990535, 0.007453502534776526, 0.001962558545301786, -0.05906152647078667, -0.22499140157124342, -0.18150392556130404, -0.3428983089458085, -0.2604602367560874, -0.2790185289355042, -0.40598497245246823, -0.16860882450528925, -0.2850452981156229, 0.045302417697720795, 0.08290150276900977, 0.014672760795677513, 0.019815744418525606, 0.17863890479513736, -0.05344848255584049, -0.24251057912986804, -0.45381896910208114, -0.21065363768478929, -0.06748349542539975, -0.08368721521071656, -0.11028980280027699, -0.018065846364377806, 0.01993058054394466, 0.0012976356619939671, 0.01089718742541934, 0.0031060036910888883, -0.022514033298594877, 0.006163754565414785, -0.05837024599999483, -0.18235725349310603, -0.15159697407601883, -0.25141489600239053, -0.37822211002872586, -0.28579957922985527, -0.279985896900043, -0.07856624938746942, -0.12318583213125163, 0.08776740024509551, 0.0374462834708326, -0.12100150436152289, -0.08168357363834995, 0.0874930229334609, -0.010040580777579725, -0.0980812224634487, -0.22689254579429335, 4.7653704674385256e-05, 0.14332164225791913, 0.03611900234398201, 0.052917660944556064, 0.07042835101160248, 0.031878307977437466, 0.03710174033985589, 0.0031249802484258557, -0.02011341934132653, -0.00040551256127616375, 0.0021588346146874707, -0.010799600068236088, -0.09093544942752434, -0.038281871360907035, -0.198930210192799, -0.20538592013229928, -0.10343718338174578, 0.01826566232319095, -0.01000299139696305, 0.09271012123133188, 0.24449969949800218, 0.030538696045624085, 0.07101462786790606, -0.07404621134081024, 0.0768408258058607, 0.09118717050172623, -0.004539619939190448, 0.1484897055549137, 0.08129529782485802, 0.20256617047651562, 0.07718685183490959, 0.07845429645342697, 0.08309555398921672, 0.020879451534962082, 0.017329425369546434, 0.00871599431527324, 0.01996715137955821, -0.005195452070810656, 0.007792285741235143, 0.03211895898949642, -0.003943549034810354, 0.056639160285770464, 0.00191421687100221, 0.05135320674003001, 0.051792188932344725, 0.02433499356890246, -0.019659127815188172, 0.1727047251593898, 0.24555333218319292, 0.25494865314297904, 0.015558443498264164, -0.061914726313957745, -0.10222820582102977, 0.04510413365006013, 0.08972241379191243, 0.2501912408349665, 0.10872592466687728, 0.19428964286932032, 0.13504797859852352, 0.12376482820887946, 0.07278769200331141, 0.030368761033381583, 0.044958429315869596, -0.0025974896532941017, -0.011458809005848338, -0.01116417465589696, 0.011376611543419688, 0.0402004870668052, 0.022675120847422445, 0.07642472386158344, 0.0756689271326825, 0.24434562197273318, 0.18117458550412135, 0.17883533584098235, -0.06976840575687066, -8.69053358527765e-05, 0.2425511306308109, 0.1721537719843566, 0.11236529813660447, 0.09274230740208127, -0.025420259642996927, 0.028749567421417002, 0.1649818638221966, 0.3713818905526706, 0.17975031711402478, 0.30967479295441375, 0.14649149990973656, 0.1215494039125819, 0.12596879426991756, 0.07838390053400249, 0.002900149581473287, 0.005301690442754507, 0.025143581127903755, 0.007241762309118335, 0.031697388511996966, 0.0730036008516398, 0.08954631797976938, 0.06400403250026979, 0.07184156840554376, 0.1093333188505037, -0.0009077534750546438, 0.0020341782682129707, -0.10987416207091366, -0.023100576869424023, -0.0009416402264056453, 0.00844335132568457, 0.1133680049728535, 0.013784995464988568, 0.01115030148878762, 0.002449892327752304, 0.2307781359760425, 0.1347722103735996, 0.08153515050964057, 0.30181526388215923, 0.185626662292568, 0.15335668360648713, 0.12647419277449495, 0.08623130118181645, 0.019388911915465625, 0.0012755904505766724, -0.0020484551465359837, 0.007961813788214343, 0.026996824966824474, 0.08923955503027481, 0.08574518638046329, 0.03954342567685521, 0.07179988311585389, 0.06665911726079808, -0.017196300021998782, 0.014669153221553202, -0.19745310303982422, -0.23591820233542318, 0.07955623388545029, 0.097745949906146, -0.010563190226764937, -0.04119658542216861, 0.06316899433631, 0.12046841566933374, 0.16892883766419434, -0.03970396231992466, 0.007884104788910603, 0.2270498015867483, 0.07973413972898458, 0.0745169848380678, 0.12081251465769123, 0.032470520585340445, -0.0027224306898079352, 0.00964388795208452, 0.005091859975032965, -0.008175668059976294, 0.0033109053418967915, 0.07275350003881006, 0.0646649032504899, 0.05185937403887015, 0.080236801563939, 0.0962117344228125, -0.05424191614163302, -0.02356679753142475, -0.22135299469731054, -0.17473753064162018, -0.2029321279195059, 0.09638931567188554, 0.22668812524580098, 0.18982487684643007, 0.2324166356017234, 0.2039409801851609, 0.004448207273814327, -0.08783225008442412, -0.025968324160946642, 0.11356498540462465, 0.03498725417876015, -0.005849713986653989, 0.007557277621177889, 0.032488500908632416, 0.02091168166597184, -0.010697709222627874, -0.0055251707491980155, 0.0021564474790307115, 0.00609663985187417, 0.07435570094034953, 0.022201066033711803, -0.017286068511392902, 0.05355268223834825, 0.14440054320262424, 0.07002854160860798, -0.076106532156017, -0.2536859563356527, -0.2282474576535747, -0.0645711069120995, 0.12663791424722282, 0.24788156484688453, 0.2810472219373838, 0.21227534370064033, 0.16996187855426254, 0.037972721156481835, -0.11873610962393423, -0.02484972895355447, 0.039150228840165606, -0.03393039130266961, -0.013371566641945585, -0.021055053707194144, -0.0256019186239617, 0.0042333219411487604, 0.008654356945811584, -0.0010476256182588588, -0.015465109195430343, 0.010717525107492406, 0.04086924631113337, -0.027371518119427413, -0.025870723048765316, -0.05064301908985809, 0.020298936995914823, 0.10145812133573467, -0.13766304001187502, -0.21188356663879324, -0.21631870246661267, -0.07646298044033227, 0.06442299309473853, 0.08591695392737525, -0.01141192590709125, 0.14082414151899994, 0.10381753357405409, -0.07490486755607104, -0.0560585204542951, -0.0637287106999613, -0.038428968632188754, -0.05093726622167717, -0.027636531702707603, -0.059382933279701365, -0.009283738303320726, 0.00127991368510156, 0.015331366082884513, 0.006470774551944751, -0.02551677637527693, 0.0107816840257512, 0.03310388170594026, -0.0077031864547149964, -0.020417685692930246, -0.132830981969567, -0.03315334641079771, -0.06273230647138517, -0.15622655801229535, -0.13411701224368813, -0.1952732496979801, -0.18166770857372996, 0.03515905764525049, -0.0940368527284864, -0.032514880595947405, 0.06517950769350489, 0.00509290511684902, -0.15552242377006506, -0.07579007341821871, -0.0926644091007927, -0.003509202870062622, -0.0601003320865286, -0.09276027255279123, -0.05679051962717932, -0.04301751758598307, 0.003839534420169906, -0.009484242487810293, -0.033947092177852294, 0.00735919641226256, 0.011325860812073702, 0.012088966512261155, 0.021267857948886547, 0.023551920217447998, -0.027169620787034384, 0.057251644489755775, -0.04321868652023572, -0.06302955417086087, -0.09910297636869847, -0.1055008879052673, -0.05476321525080592, 0.09974903482871843, -0.08739497939008144, -0.07151574659375376, 0.05519788801132372, 0.012888589572922908, -0.06837059571279139, -0.15191549143090474, -0.12512541605413907, -0.060809045612334335, -0.08793809387795197, -0.09265195022912097, -0.045244141293218736, -0.02002951242943762, 0.007895354535863588, -0.020407697299654318, -0.007542020720088542, 0.001491637469797462, -0.015207970976998815, 0.013874485099777796, 0.01988543894292718, -0.0070471809546279055, -0.009686173241530628, -0.0008003273671544067, -0.030039771775660546, -0.03323100199174432, -0.11364125126753939, -0.01730649372096757, 0.04182660151358073, 0.10914047854090139, 0.011194234996868805, -0.16575750808732007, 0.017250904423571568, 0.10940539465277899, -0.06888102383156797, -0.2081074613677056, -0.14953644457603918, -0.1043249946452854, -0.08836292657354222, -0.06635289405053685, -0.012596327351213273, 0.005175146870053855, 0.009001963595519693, -0.024072684631150282, 0.0015741287115928696, 0.006661451496612909, -0.01832314394569858, 0.010060949525823459, 0.01658898896941335, 0.002362808030646692, -0.014162409693389612, -0.009429680791474987, -0.04113124887516936, -0.11301456373229186, -0.1009302342726251, 0.021362547802717586, 0.010641336854894108, -0.05391063665113758, -0.21850115739108392, -0.21457881119351369, -0.12629157867214574, -0.027288972306038262, -0.08608749370445005, -0.2461000740186176, -0.17600754305471106, -0.14385200144798824, -0.059852248978383496, -0.012090687487721047, 0.015241923645818872, -0.003258329266863517, -0.004049050116119148, -0.006211523440946117, 0.01128246336106316, -0.014576289714728961, 0.000986412146321407, -0.012236446675099478, -0.0023562013386214985, -0.04949926623758374, -0.028702838158313943, -0.03392521179111954, -0.06350661215759293, -0.09598711799825121, -0.10272444413318939, -0.08749468152486814, -0.12120701566797333, -0.1381402413528128, -0.21030619159197006, -0.1291870871246334, -0.11438056357992177, -0.10096713262540644, -0.131129857625666, -0.12422646560519379, -0.06329577645332586, -0.07348341982083789, -0.029292672257917186, -0.01538422245842531, -2.3756323706658184e-06, -0.007153853714580822, -0.0071234071962768195, 0.0025965247821990384, -0.0059062096271849185, -0.0062789408753238145, 0.0022417577133432547, -0.007006041521877286, 0.0038185103057659154, 0.002601409249890181, -0.011838016327200607, -0.023881374963997677, -0.011729690455312088, -0.010682772592394701, -0.011883690391440176, 0.0008600298671115893, -0.006357512504460926, -0.0065771016005572456, -0.027607782488850333, -0.00903758417432365, -0.013822889943045489, 0.002607932470228827, 0.005341069517002416, 0.002332257546822817, 0.02153863748080378, -0.014174577898901775, -0.009362898410186313, 0.010741677430978697, -0.006707374415025842, -0.017738044832655765, 0.0022167525134327505, 0.017173731742603563], [0.012732022228551522, 0.0077896796606295735, 0.000408333533297923, -0.009738347607166185, 0.0038949918168179882, 0.01287573507887531, -0.013605412526690536, 0.005102026161397378, -0.00896490326569204, -0.011441628804543705, -0.004811880833168144, -0.000727901492114008, -0.0011303431642817787, 0.0089019716942769, -0.005094306105642843, -0.003958656388792591, -0.002276643980221912, 0.005734145253426948, 0.028895268546248336, -0.005515504247841286, -0.0036426139858598376, 0.007751664572918621, -0.00690287411019766, 0.001248500328045346, -0.01149964003862651, 0.007490348999749485, -0.0026756410755225807, -0.010473933630506449, -0.0038427873879364706, -0.012307391196023912, 0.0074913326634668065, -0.015813525170351568, 0.003065183671671886, -0.014940484718789964, 0.003062527873052644, 0.0010901821636125262, 0.005838082660157584, 0.02165465433381547, 0.006044325952715458, 0.02319117259570646, 0.009706948836769683, 0.01170475757909765, 0.017510151889521253, 0.002029619763883973, 0.0012126545666112892, -0.01279518254700006, -0.0007041832798125288, -0.0009970595844688295, -0.0005550909052380597, 0.007424093646188317, -0.008616647492572004, 0.004203297965621168, 0.0005437631555764698, 0.0014132716620596673, 0.018574964135984365, 0.0018695682144414028, -0.006747773116581308, -0.001936394516369811, -0.005111761912984173, -0.0038809999700322294, -0.000784758345231577, -0.011508614350192625, -0.007932569598197688, 0.0028523115647337404, 0.014238895053196308, 0.0018991215208430368, 0.014324271593522068, 0.020906372460702736, 0.03541972446283017, 0.03535419997952239, 0.04399696124361673, 0.053683555217063604, 0.04727831514696664, 0.02781840586029586, 0.016505314027934717, 0.014689027287640176, 0.008381268912671205, 0.015741618290051027, 0.0038694125509082015, -0.021117868999073044, -0.00665246632146328, -0.010799643065923214, 0.007521913886436323, -0.004543570845389943, -0.000977861296858596, -0.017423485933683428, -0.016944174286027507, -0.0055562973642565355, 0.010485718313274354, 0.013795739739879413, -0.004364739461082887, 0.021696293319136545, 0.007463349067070467, 0.00010255253007603088, -0.02526734951493711, 0.033855059513230576, 0.017038250316078345, 0.0531391687425124, 0.009306989975278164, 0.012460950787903748, 0.042742892764882884, 0.07606314535595905, 0.052803190245362, 0.07665088916333342, 0.06099910746748324, 0.01934599673352925, 0.007575998963736171, 0.024407691881303283, -0.008128144243269826, 0.00700782437810969, 0.007649523633919251, -0.004883072709513339, -0.018823421104427026, 0.003300567840155257, -0.0018776756267720439, 0.006998556708735527, 0.004311384640833419, 0.05278763853492382, 0.07926339674208165, 0.03563661887788923, 0.0529026868070006, -0.03251748771454052, 0.0005438914946112064, -0.0046132808647537035, 0.03150960467194403, 0.10294141015231556, -0.06789487446055932, -0.06373047867216615, -0.06734834987403039, -0.16874055411913655, -0.08843828911568828, -0.029533847575880637, -0.08419529239701277, -0.06776202313465195, -0.07358229793017655, -0.026852701584560917, -0.034234700393783096, -0.0142234761511937, 0.0029856664324558538, -0.019046124942190365, -0.004396133441290965, -0.019409131127989077, 0.010176170581476731, 0.02541067376950519, 0.057636789288918945, 0.10117986296822251, 0.1382778211310579, 0.0673939799085025, 0.04034248344570756, 0.013017081579280148, -0.029424085811051374, -0.04369651788841422, 0.09091902094083835, 0.12405014850111384, -0.016156491099600455, 0.09526486492002613, -0.0410054957073601, -0.16677596837936134, -0.1908620546561388, -0.14454295210136509, -0.23008962932616608, -0.1680896907810987, -0.16302618479528072, -0.06770699932019536, -0.03853685037614655, -0.025305699239055363, -0.013325449893229192, -0.01712120139492862, -0.0012467412969953612, -0.005713662270263446, -0.00616356685924016, 0.020118000740366376, 0.09553085980016907, 0.06987963690897164, 0.07577450013774091, 0.03789081930620958, -0.0739442117265106, -0.026943788284350643, -0.09894536125471032, -0.0037988440400145286, -0.007157731565146681, -0.01917616658551068, 0.0349316375804865, 0.07512191238380134, 0.016324785774901606, -0.201056323323877, -0.24725362650692329, -0.38841929163845806, -0.3343309387842753, -0.25005615857473296, -0.19329545196589698, -0.08520833274232756, -0.019748836786570172, -0.011542640361809239, 0.01157030868768992, 0.015023612015732104, -0.0053790035365311566, 0.003025673729587726, 3.913564574699746e-05, 0.040997555731517685, 0.08492296709423068, 0.004983842095583553, 0.020233228774629918, -0.02784259597591598, -0.15701339663495512, -0.07740302022812896, -0.10797495862924977, -0.08775483430143596, -0.09546337853651946, -0.06787982753130894, 0.16901383785664806, 0.18809277387017556, -0.012049430580719006, -0.16136297409658015, -0.32350999056220703, -0.4872783676377969, -0.3615686671825076, -0.2498079997339234, -0.15383523155723322, -0.08265519759438225, -0.029091807111677408, -0.0241339269413361, -0.006273115699095499, 0.0005368022774881734, 0.004828294430958858, 0.012081642704207278, -0.016381653376596177, 0.02529849445053511, 0.04705525049391451, -0.03669683265869699, -0.09410366546951045, -0.053804580970270764, -0.11464992757891765, -0.08677295983616688, -0.10596790497773546, -0.26600891844330193, -0.1380050493545357, 0.1278785666800977, 0.2815382213073748, 0.3009162413420772, -0.06936157944311182, -0.2560863392464364, -0.4849957655758208, -0.43753928768041317, -0.35984392563216505, -0.26228616544849437, -0.15770164891889205, -0.13029845662359685, -0.061623846629562905, 4.642460319533273e-05, -0.011873280388228413, -0.008290187882469043, -0.00779807310263037, 0.014450190592079677, 0.008037967902902626, 0.026816471614606117, 0.05425290335783072, 0.0006941468145416214, -0.04767059397980111, -0.02317748253031027, -0.15175453306913317, -0.2252795885367007, -0.24778987406490338, -0.13804974485559549, 0.04146897619994435, 0.33217837361678154, 0.5041015150732404, 0.2191890454267345, -0.2219650656464667, -0.4471926151153041, -0.4814043573127512, -0.377924834658729, -0.2691301935071423, -0.19737839755264328, -0.12454166295349775, -0.09305317890624487, -0.06573540855667927, -0.024442928032031856, 0.00683902292340092, 0.009800010116465975, -0.0038808943488090443, 0.015187553656330307, 0.0020571139270334207, 0.032262987670745, 0.007622117576178918, -0.012423464150831919, -0.08751225885814642, -0.08495483517434371, -0.24703782708322602, -0.27499734174431845, -0.10061856043405298, 0.11278867208253315, 0.19733729394530897, 0.46183154324251674, 0.33009384737190606, -0.10020284673226346, -0.3782669617204747, -0.504956280285066, -0.46391105501102214, -0.2551041769805079, -0.0906753751064023, -0.09959726876548204, -0.07901786540209177, -0.08677583614716336, -0.09724531770027997, -0.017824855967118195, -0.02024855900251466, 0.0015626058082688539, 0.008863835576775838, 0.005378001419027274, -0.006736796217700165, 0.05355487626767801, 0.03555677988415124, 0.021804729224660164, -0.10228845346390263, -0.12447006171198792, -0.0689955822164531, -0.03556727858125823, 0.15387806038661905, 0.3108770432008324, 0.37510135787744325, 0.3779011132004184, 0.1922550188151417, -0.220524472158863, -0.450886749744977, -0.4717139703939612, -0.27678387345488026, -0.09730634837075203, -0.012363421537555513, -0.05168459230848973, -0.04464070425562519, -0.08879577935324187, -0.1607392954501414, -0.051100053453920206, -0.018756541566755783, 0.011199029689092168, -0.004208142115486159, -0.006160037807953234, -0.0027131609590587986, 0.008467645754788016, 0.03485595092125738, 0.024901892455792697, -0.06172610288323264, -0.06417615602768109, 0.040180013911686296, 0.18268257816574518, 0.295384398186331, 0.35313837393001524, 0.39267950581281047, 0.3138516588659803, 0.06910703802864779, -0.31777425705703666, -0.3909405952963221, -0.3876904980552854, -0.15720794980295508, 0.021682215924219206, 0.0811065318744761, 0.04038770543257026, 0.010578290419121731, -0.03451490501057343, -0.05655412286775035, -0.022937078303074836, -0.01416792683447702, 0.008358783267341977, -0.007154610050373547, 0.008359944198001004, 0.020416256277030146, 0.04479772954178467, 0.042094275616386165, 0.02062175253592811, 0.01246351583087302, -0.07776117283375591, 0.03383253563500241, 0.13697772702987332, 0.1916895006261907, 0.19367241309925107, 0.2286186335847623, 0.13653148699173212, -0.010976205894839377, -0.21310469185490744, -0.14895129448148142, -0.198307837990605, -0.04011598053403985, 0.10165565131741623, 0.16901740271768204, 0.09372178024295513, 0.06912381253880343, 0.07138229333140052, 0.005562680158096704, -0.030965790761623976, -0.007501484340198978, -0.0033999270759984546, 0.0031590861008360064, 0.022533908251871237, -0.008324087490199203, 0.028044025481583773, -0.002403530331095522, -0.002812495164329983, -0.03242455561505487, -0.14095124200101336, 0.024915290232048335, 0.06737790204756898, 0.05153958836052348, 0.005042871833480172, 0.03288885657868335, -0.0681199922586655, -0.042088712900322144, -0.06505672956730145, -0.01065195300176948, -0.09810150657362846, -0.11715169734236709, 0.07132770133380167, 0.1018636388028097, 0.1333462577239777, 0.12201927118293232, 0.09344564098541967, -0.030251325130570664, -0.03337604589409141, -0.006357896287424666, 0.014104151648109497, 0.007096996544476792, -0.004882762005340663, 0.0006983115949212991, 0.016974582943424847, -0.0323214072599086, -0.04375024745241603, -0.03341601398591006, -0.060367671537110985, 0.029740463051480703, 0.12761604696784953, 0.065800247889518, 0.10594070365711512, 0.025890359462937725, -0.05162226985098607, -0.055186432035216254, -0.046762502123707146, 0.08427965143495113, 0.07903121119063038, -0.0745429968701013, -0.0028511622545778267, 0.08261280873676154, 0.15492587865076654, 0.18520853495375592, 0.06122143803289211, -0.016724538877364924, -0.05221871288448019, -0.0006651937093378717, -0.004342906911087413, 0.01851775101157111, 0.008095102911046906, 0.003349782997959936, -0.007253821710179024, -0.03015694637287939, -0.0810005897802413, -0.07709829150532398, 0.006574683209870123, 0.07867916126401907, 0.15418925035864273, 0.06389458857720837, 0.12559738932916575, -0.07603138062889771, -0.0490315274493969, -0.02242161191361653, -0.09961293209176597, 0.06288363414421005, -0.12854268656335138, -0.048792341285334266, -0.042290049020620585, 0.022942050154803283, 0.11466221240288933, 0.16158902088535795, 0.07618023430065651, 0.027415801256576867, -0.005923093167269195, -0.00446529168843856, 0.0013741848882504694, -0.012211643442110865, -0.006685613346655511, -0.010276985684045888, 0.00559078386392724, -0.027939679811970184, -0.11946458536945913, -0.11948287178573729, -0.003769494644035423, -0.03433052199630461, -0.026166471821186033, -0.09607187308525574, -0.15468087955208024, -0.11860290590375307, -0.04530634122519804, -0.08122445844616145, -0.12114862237993396, 0.024695040711817686, -0.05593460148565466, -0.11858214556412994, -0.07017198328286016, -0.061122954167668664, 0.18374515811079992, 0.1629525700193559, 0.02173225354276725, -0.04703873620241419, -0.0069544231783084534, -0.02850301134639936, 0.005221510982981365, -0.0028860556012343867, -0.0024517314724436293, 0.00752314419216568, -0.012835197816769355, -0.028468557774770795, -0.11214497947495039, -0.09734122474432011, -0.11181378439247971, -0.09649324886680698, -0.07634300995700498, -0.181289359665328, -0.205643008159001, -0.037900359253449374, -0.03376432959429723, -0.16340117176097316, -0.10966159060587562, -0.0260582793585617, -0.023905171883733003, -0.04668300354145767, -0.07422581463379964, -0.04884268222657208, 0.2138494998662815, 0.05940542813599501, -0.05642328703883601, -0.04731512754015051, -0.0038850362450240953, -0.00032746034276798073, -0.004770489876676987, 0.0033824247328325357, -0.017449062738636598, -0.011317155862414921, -0.030528847070795506, -0.05436524253290519, -0.10082867413873468, -0.08632035709852866, -0.05016171981332325, -0.04827330408736601, 0.008981083352792123, -0.09520086445281384, -0.07472457166680078, -0.04220285628729296, -0.09792256338136662, -0.05869431285648905, -0.10600658904648284, -0.05016327540885353, -0.036010735474105764, 0.04976243591981983, -0.020423458692434143, -0.10224549379457724, 0.033119375550141016, -0.013947271104623432, -0.07655541854894955, -0.038211521928362316, -0.010875517218338175, 0.003121423747937772, 0.010743520482683724, 0.029893764152187054, -0.003448773660746024, -0.011832769241396063, -0.045353549393459855, -0.10697425074239268, -0.10426978424350931, -0.061578968878429494, -0.01727586837452541, -0.02768582624901235, 0.09337857744570821, -0.0596754585574879, -0.1012766981440869, -0.09015155414215213, -0.07024573459027962, 0.08174640827188194, 0.002828505937980524, 0.005648554790950136, -0.033291395146691646, 0.12342926700927369, -0.08582803382917126, -0.036700999242000855, -0.018165853059325696, -0.0377316445408007, -0.041035817589793425, -0.03266864333254993, -0.02562414356276345, 0.005596768617167721, 0.008278555836303122, 0.006060423844020928, -0.01386099410534755, -0.0014575137517879625, -0.02684656990449278, -0.05153185686990384, -0.11136105146692356, -0.13996241175827784, -0.16580688682772732, -0.07095518153759685, -0.055785812447578464, -0.13643536369435122, -0.1039370046593559, -0.07728581777969849, -0.16966864164712364, -0.0647892803426472, -0.03223035082873648, -0.03024899698854277, -0.11640366736265631, 0.0168133678512364, -0.054770376381773817, -0.0606536068107038, -0.10537145073972709, -0.045665130613537185, -0.03557809187012897, 0.016481485157005496, -0.014466179313065505, -0.00769334453347626, 0.025775841601632005, -0.013563273344319492, -0.0026291141227004038, -0.0093730549138513, 0.015683723475889522, -0.0014202021438476278, -0.05836747789779705, -0.0988374907967127, -0.1515759263327431, -0.11200413868955142, -0.12136895001087669, -0.21614970196687353, -0.1539190694177264, -0.08464634007011738, -0.09722637186995291, -0.16985577666467683, -0.0006314186854365353, -0.09461605322414775, -0.17006510513239215, 0.024205669718418702, -0.006293348588116613, 0.015956635685786324, -0.06623210682475583, -0.02446527088685647, -0.04528779334151025, -0.026408668653933227, -0.012578952797006169, 0.002370308744013736, 0.00889293686900775, -0.0008684577395234652, -0.0011022474793294867, -0.0006271083933663312, 0.029791078911234333, 0.009666194972397372, -0.03055537999229218, -0.03962977755946925, -0.0532304222619117, -0.11859827147480882, -0.09891494546931352, -0.16117359225055394, -0.031722935669029596, 0.02725894915548006, 0.024085174356517285, 0.016854797724804544, 0.08366484577091188, -0.09600219910739011, 0.024154819448704425, 0.004088495102169548, 0.008973334514326501, -0.010712875553561194, -0.06850490283132404, -0.04442730367372877, -0.05272540814026705, -0.01199176550012977, -0.01786732828668051, -0.007986883840693976, -0.02253180231565546, 0.002416626883152599, -0.000550333430257703, 0.0026290625321467895, 0.0005545668669988974, 0.03191664935857563, 0.015246913715580828, 0.02554568160937983, 0.05128072911717894, 0.010872774452572932, 0.004041481429972286, 0.04859943967461375, 0.1310526700752856, 0.023909053310360216, 0.06556549968742932, 0.11522874786820288, 0.06039929758208513, 0.05872817932456486, 0.08470371534045683, 0.004297952602007203, 0.021237451488742638, -0.032893898648838016, 0.005662396044485177, -0.00893202617269307, -0.011000907128522247, -0.007744870365190931, -0.002942314124115704, 0.015363614753402787, 0.027130218146575933, -0.015822197748090287, 0.0012094478900780028, 0.01006620470116502, -0.017686253951657134, 0.016617720019232212, 0.01231425000794975, 0.041170205426768275, 0.0668642425490081, 0.07714205960138612, 0.0500735450995203, 0.04046033540410187, 0.06824971000600229, 0.042596830290707356, 0.03563668272018444, -0.011579343432295405, -0.023846338296321858, -0.05701755836278767, -0.06360726071868593, -0.04256506225234173, 0.0008396361919529823, -0.019568329445931138, -0.0002396850673134206, -0.0005674741147400281, -0.01271135977945801, -0.012566995908624179, -0.011930093615672788, -0.0012979096875825684, 0.0005017104413884988, 0.002563692539331604, 0.0014214537852172127, 0.013559991600552677, 0.007873452657436785, 0.005010811382706015, 0.00643492657028472, -0.010872692365076967, -0.0030782309206023937, 0.0019288882345636358, 0.0014060040099767794, 0.016715356257290963, -0.0011933711509973816, -0.05339549985607117, -0.0014989603400415343, -0.025494262258404798, -0.011572980812054304, -0.02135771822962282, -0.04159056210077919, -0.0037589621096942127, 0.021650910905003446, 0.008584323212817505, -0.0034103499058800945, 0.026676277552521364, -0.02195264324185861, 0.0020382275931381073, 0.002018865723897584, 0.014138211373777831, -0.010719686524293597, 0.0016585029884067669, -0.009631946526348432, -0.003932701644453732, 0.011912903323432165, 0.0023533809966383573, 0.009532760678116182, 0.001839923459017531, -0.008460826768216741, 0.0023903275897298325, 0.011429430668756273, 0.008545420051673894, -0.004315723763021037, 0.0072261841927941505, -0.005919708548442547, -0.02247430519973396, -0.0011472257376880946, 0.007333924449951453, 7.576075765823736e-05, 0.008774919513258, -0.006949290738571814, 0.015347287980344921, 0.033534411605023094, -0.0005416994403592914, 0.012712968916151708, 0.009297323097071373, -0.01656759072525328, 0.018650345212477354, -0.00039530117730597603], [0.004122975084165665, -0.009745322490697362, -0.002144308600076885, -0.017342850750297935, 0.000398253152801758, 0.007931731459193092, -0.009756773713612289, -0.00880645757463198, 0.008977084129575864, 0.011394357709573944, -0.003226954651782999, 0.011593661663437229, 0.006799815474030243, 0.014570625130070796, -0.0017823332788282182, -0.013068416251003023, -0.0022723993454619004, 0.02241469639666274, -0.0033277764410465957, 0.00675858344155929, 0.011739964483377469, -0.002954229663842021, -0.01137042242698651, 0.004551738863141765, -0.004111554638160459, 0.008578431905497593, -0.009190025511724612, -0.019853014135401702, 0.0017726580511346, 0.0024513475389799813, -0.018254299142401894, 0.013239966913717273, 0.0048559487798217095, -0.02448854505283577, 0.001242296548156241, 0.010868122946354114, -0.009757987679102813, 0.010779989237208335, -0.007896718627299591, 0.018856624005479366, -0.0035519610813172084, 0.003748768909126447, -0.006437070696066019, -0.005253341753379776, -0.005508099009281694, -0.013024476178819104, -0.005581897879649832, 0.01737913528680247, 0.005755003286831774, -0.0018180703663213725, 0.0009950623791392817, 0.004225776014353636, 0.006802333294705853, 0.003643229463781705, -6.34296616886387e-05, -0.0005871845254790698, 0.0157702164280377, -0.0023083123961382588, 0.004640374998156727, -0.008414798339515467, 0.003542085427001206, -0.006587707903131745, -0.012052998173616972, -0.01027061091978295, -0.0010847745309597492, 0.005658320618163559, -0.007857466272759642, -0.0021559710749634656, -0.003118571613465577, -0.017350697569526653, -0.0030614803895677688, -0.010895240941329834, -0.020203926285266245, -0.014422314072553817, 0.011481962204067768, 0.009679677179265489, 0.0003228582010081185, -0.00222760884915578, -0.00043627783278405927, -0.015083054849012238, -0.002329485186653476, 0.0032924168197766574, 0.003685490314028207, 0.003842891159771683, 0.012719606508534825, -0.00048118285269749375, 0.0014103296998952256, -0.006669200537249997, -0.0040503289690585285, -0.0018086168096112685, 0.005603004040301166, 0.013910046770278238, -0.0013550415847836347, -0.008029125372037333, -0.024325877216924852, -0.033584175039275674, -0.047650637749382906, -0.06601806536095062, -0.126887046752071, -0.08479732756196551, -0.0848156084682608, -0.062145757208277606, -0.04989892198402936, 0.0017893685486521163, -0.009073620295782986, -0.018278950265494264, -0.0063630864229207, 7.656739225447098e-05, -0.02072222949969015, 0.007175167306957299, 0.00621332221394297, 0.009972139360424338, -0.003885886719764342, 0.004806272269775365, -0.003306453898976353, 0.0037977099369839607, -0.013295940577777955, -0.007900444328437332, -0.018059993220586767, -0.004250551684732396, -0.01254790219634698, -0.056044091764387155, -0.08575372693047054, -0.11369759014509792, -0.14882047534987056, -0.12355159022304357, -0.1071140124481175, -0.06936247170489442, -0.08621355952390088, -0.11393394117054277, -0.07601271393627305, -0.004236964265790186, -0.01565582673797989, -0.04448377883524487, -0.012983486753013222, 0.00799003773102997, -0.011007900603546667, -0.00813139645093085, 0.00675753114317736, -0.0012266722132156817, -0.004838925251839135, -0.0066338732091622745, 0.006279959321012889, 0.0030458146235847455, 0.007328513110415888, 0.004001199267568147, -0.0019386120761433982, -0.036224944228608134, -0.04353988450858222, -0.07618847541519094, -0.1282331338982859, -0.1461773675954885, -0.14296883686785153, -0.125127997596851, -0.08516343506382613, -0.07129015916806151, -0.1241794642369559, -0.15656564725984606, -0.1468353720150945, -0.15053059048341244, -0.08685398111152165, -0.06867326323401038, -0.010748921094336488, 0.0029878390829462106, -0.002267860256366976, -0.049675364509007953, 0.008728614599424075, 0.007234662970324192, 0.015124647719470138, -0.007272026856775044, 0.021494097638802123, -0.0005049575920201434, 0.006506493580818746, -0.013063785881357379, -0.014118468600977452, -0.05789470711025899, -0.06907814403761528, -0.07523427189008243, -0.11228297807369995, -0.08419383077516902, -0.1241931303070742, -0.14517793622911623, -0.0800024993513503, -0.1066818215985566, -0.08476694238156289, -0.07325330173321494, -0.05688594935566753, -0.08518862494177784, -0.05791042923746466, -0.07290480884234345, -0.010504058421699627, 0.03352877575703148, -0.015853542291387558, -0.04963643005405766, -0.004379576584927328, 0.015929614419889496, -0.015824865741737575, -0.009197595179915998, -0.021233966869694223, 0.007375538836065836, 0.019381286083555334, 0.013263750140529555, -0.04752684223100732, -0.04518067493669776, -0.1000370059844512, -0.10961601482641845, -0.09929012256097651, -0.11880938292891825, -0.1033165949381865, -0.160565688302412, -0.1049825236163035, -0.19129145218613455, -0.04605282133645227, 0.0077046621271427435, -0.04293363866600831, -0.040441169067580926, -0.024014663884298678, 0.018232397801443003, 0.04996050152110311, 0.024956939942747933, -0.0795411425992245, -0.06557792959753049, -0.005057570555942913, -0.008683553706941065, -0.004055648428915052, -0.0006993139375777962, -0.004089674460686442, 0.0026506937674316863, 0.021343161263968954, 0.01866005707528406, -0.05802910248702616, -0.0428912631472324, -0.07140287406094163, -0.06411371921600723, -0.12874976846315125, -0.16425111685793517, -0.23097637201561963, -0.2310056968397871, -0.15308725045299007, -0.09936357179344565, -0.04657163474313525, 0.11998865422895726, 0.06374590821739845, 0.06203918578805349, 0.07131019817355268, 0.03479807442976986, 0.05709120285546293, -0.0051284406403594, -0.020499096991306996, 0.0065824787346599745, 0.01156552796507522, 0.008395958163775485, 0.010084935698818177, -0.002659421769606535, -0.004688583805957712, 0.023143735293695896, 0.024514573056975412, 0.0020136866404862216, -0.006556759460073624, -0.037427748782639964, -0.057775242966703014, -0.059368609385910986, -0.1294327123371639, -0.20471496644922613, -0.2749336436951247, -0.23117481174754131, -0.09030876748296061, 0.05112740494787297, 0.21520237013568644, 0.24239706704095995, 0.18966828635777658, 0.0917776973354167, 0.05075617265225622, 0.04084288652305867, 0.027725656848760688, -0.02744210129193886, 0.04139519300357677, 0.029208571592271373, 0.026129290430209857, 0.004428163333728066, 0.007933665345458248, 0.001437220033018891, -0.001257304195882438, 0.03299646517815959, 0.026142769178973787, -0.020730116441815542, -0.026931757498998128, -0.05064140719999221, -0.06713587751632664, -0.07681846169795702, -0.12068221802890182, -0.21153153792652493, -0.29679286855158066, -0.1574603751602215, -0.0009971797150362242, 0.247209133640137, 0.2426936503053759, 0.16056050300364225, 0.19723842402714004, 0.1590330189095483, 0.1200460709386338, 0.12866432907135072, 0.04631927277521198, 0.06894698617212211, 0.12187255240221312, 0.07605851502049077, 0.030004573192344116, -0.014298754575458048, -0.012901978898686403, -0.011184840239063121, 0.01891767950153135, 0.03293571999205366, 0.03836080834497624, 0.003705044967502116, -0.032576406948378774, -0.026133630152121733, -0.01632904454138376, -0.08860860329793484, -0.09811943241859238, -0.11615367512520698, -0.2026218697694546, -0.08362890387754475, 0.09579499379270318, 0.22067274931236744, 0.10596558977360013, 0.08141906702277005, 0.14107161575044963, 0.11207752485243148, 0.10311687134480683, 0.11951460500839592, 0.06767620918710036, 0.0868930734443687, 0.08913943098650493, 0.05929268107200893, -0.003944532341080877, -0.003962115632849139, -0.022764745389175656, -0.014757478984114747, 0.00829829915193804, 0.024160441205448854, 0.0320663660453735, -0.001582243830925797, -0.03153111012826362, 0.013751997721099717, -0.020824693877766347, -0.02979777113581996, -0.07563903101420544, -0.10210581124528262, -0.10873466880259432, -0.03800322684150236, 0.15975850089522492, 0.09780562961486437, -0.023875897378361752, -0.001972280810474673, 0.023900564326915324, -0.03658491870883511, -0.03485414865113564, -0.04347792000294666, -0.04916830131903198, -0.0205680663112444, -0.01775679616790757, 0.002802487434818251, 0.009786036814475403, -6.038609983598663e-05, -0.008579569883043864, 0.007492555553382925, 0.01202606456131099, 0.012570993049261294, 0.04453204711005022, 0.011479240783719312, 0.0047981706248021285, 0.00040654986295119447, -0.012053535244160736, -0.014572283508162642, -0.00823305851002499, -0.07596102019601567, -0.0515671490262718, 0.03590763861806291, 0.06958457432447687, -0.10678594964969923, -0.11369619622154073, -0.007484603990437263, -0.09921969993092014, -0.10812540163243826, -0.10013131178354455, -0.09934392921299934, -0.09586218721933505, -0.06885888298136396, -0.014916476012112176, -0.0108657200095796, -0.020839168998447524, -0.014117606148783336, -0.017353777406061782, -0.010351325029533946, 0.00979912143842771, 0.0013711327879383961, 0.002687494265980682, 0.03709777183339652, -0.015727646973315527, -0.026976879214582597, -0.00968256381204195, 0.03339023414862558, -0.016702893076368075, -0.04309094067310158, -0.03093971909974937, -0.07823003634355678, -0.040548795126528675, -0.08657417034681673, -0.009303047207814146, -0.06047858482168995, -0.11767622181859498, -0.12869901036689738, -0.10092794306380415, -0.07908762280337293, -0.054045861334615544, -0.0347094128367313, -0.020081387011929182, -0.010311647875390366, -0.013290387020602173, -0.004423408363819195, -0.0034153562783946954, -0.00042132794932790365, 0.015450919326997834, -0.011341632282504501, -0.011786253576565046, -0.010567793795357494, 0.00011878277940763194, -0.0038352120863701447, -0.03674795157259494, -0.02102258471398843, -0.032716164361860124, -0.02271150604991959, -0.04690368167983652, -0.09744031407028332, -0.11498247238786426, -0.10594426454248738, -0.013894497073700034, -0.12310129702930259, -0.13767328280542898, -0.16726130971688946, -0.10656483704909561, -0.045514435986383654, -0.04859433345648751, -0.032000900416152694, -0.024243602440763252, -0.020676120068407338, -0.013996422396103096, -0.0180843337214129, -0.010784478865358754, 0.0053040535147874405, -0.0041382595989477135, 0.008142966463217332, -0.010195138493173661, 0.03403347673996382, 0.014185932367025542, -0.03211901288977901, -0.06338076276328078, -0.07189150460780587, -0.08141689299201117, -0.05241438597571344, -0.03967551236626758, 0.008745753110070777, -0.07569783848322495, -0.05667881680084228, 0.010278328016304121, -0.1593971081275833, -0.11867889462948242, -0.10270373549505375, -0.08219523989430318, -0.051458619468178333, -0.06905658476188814, -0.08248790007842523, -0.03917864247360444, -0.03148588669898806, -0.002062187777753499, 0.011748273840834215, 0.010049528490296496, 0.018266071819214295, 0.007306715816997707, -0.012969046486881157, -0.008707742282495396, 0.018584344166385772, 0.05029910156758608, -0.02988137800003046, -0.06717045020344709, -0.031099074827017414, 0.004464387243237297, 0.04112254424869645, 0.00023895094517959494, 0.011899953912224365, 0.009698674142581076, -0.03602322047947686, -0.1191953226722542, -0.18809252414646976, -0.10587404260209511, -0.09323943217067127, -0.05698509959417872, -0.021183440600843807, -0.04184709927556973, -0.04662583426261061, -0.015189018673349982, -0.008531269326651358, 0.012996066707075836, -0.002101885575068158, 0.009423362104173542, -0.009243774016746554, 0.002392387310314267, -0.022699894280186032, -0.03701006014764419, -0.07090252914507193, -0.07271345303267981, -0.05132228866822891, 0.00792800292146356, 0.03226737640633397, 0.10163959709749742, 0.09566198504760282, 0.09810033620767973, 0.06455170537886527, -0.05639437104936621, -0.12310228262537311, -0.2285163679831475, -0.12759176458407448, -0.09934682595105156, -0.05594292749891312, -0.05766490073085142, -0.07186355201957735, -0.07124297162848145, -0.04373413887316339, -0.036043000204907916, -0.006266793247369754, 0.011065669563588908, 0.00993489125964655, 0.004618963695611968, -0.0007645765134913873, -0.009392242286340427, -0.02560179345459126, -0.06121804731783281, -0.08885568813611837, -0.08304249426652377, -0.04347695996852177, -0.05047278153785996, 0.01184532873510474, 0.07185999365079151, 0.08799459532705675, 0.09348556762723031, 0.030379543628075014, -0.12494343935019117, -0.21215689186393596, -0.19401175450950184, -0.15132261016615384, -0.11284881287309811, -0.08619130095242696, -0.08693463345362581, -0.10050965041277181, -0.06140403138421806, -0.033703698244568106, 0.0036387194590948115, -0.0035813025674713826, -0.01632253664960819, -0.002687455598156594, 0.007615419880929863, 0.013903380057008984, -0.016407238224008427, -0.01465060640298599, -0.05573107571868304, -0.0572437530501165, -0.01032842537602475, -0.07974891183227283, -0.060803512241210535, -0.024058191428626287, 0.028224766313801428, 0.010688075318663934, 0.03548720939644925, -0.04414633877746378, -0.08015013501150886, -0.2275361973667842, -0.20094281695281252, -0.1731677441322914, -0.13474340984525912, -0.09885215308972155, -0.08152676284732413, -0.0718989121190482, -0.04296280682973436, -0.018737597697219326, 0.006864865772298367, -0.0057961121134098995, 0.0031474518432014673, -0.01341279504949558, -0.008920368466319535, 0.021505157093764826, -0.009562487098201008, -0.021033929078298253, -0.037681145564261484, -0.0344168532537976, -0.029409508971930114, -0.07416994676750231, -0.08737855284332108, -0.04193706767519303, -0.007279968644791729, -0.08393618270113647, -0.03425099087407466, -0.06104777513170759, -0.09162443416235522, -0.20447469746969615, -0.2517547621952746, -0.19243812858263037, -0.1428943780969242, -0.12547829851319953, -0.06608687556326875, -0.017363628121839128, -0.042318343331041994, -0.02686740478971981, 0.00857562158859468, 0.013974619711088468, 0.010379957012185333, -0.0018869454403284388, 0.006343318974976417, 0.0071891859920549805, -0.0029078505129826477, 0.00582813063399683, 0.002465116107993447, 0.048318539051795575, 0.01369863249031044, -0.027538522375293823, -0.055718616979035275, -0.022642694185712617, -0.11203478635375277, -0.15504573739935765, -0.06075651437027312, -0.014198309295481213, -0.057874252912999, -0.170122678313219, -0.19655078245404933, -0.14181242510149164, -0.1037901076164158, -0.08741563466573748, -0.06281460254295262, -0.036494261704888044, -0.01675770657655663, -0.01672881791854155, -0.010121135974696402, -0.0070968552855597365, -0.004668821723640145, 0.005221790977428085, 0.009143998518489254, 0.00040448071861058486, -0.00018381205421744493, -0.0047104604370747745, 0.033337577173042046, 0.09492039453007296, 0.0561341498679616, 0.0031526801720654133, -0.022719617350313543, -0.017464295074205327, -0.05854847303889468, -0.04349671648363171, 0.02156034534263537, 0.01562274426680486, -0.08428089343036715, -0.10372313457517736, -0.12353584537176483, -0.07579968003858498, -0.09101914475987952, -0.06770074138807686, -0.05657373397216545, -0.07079714188906062, 0.0016903432739367912, 8.528502344010001e-05, 0.003602444570867006, -0.002163310940364641, 0.004235932874247246, -0.0015236966142592166, 0.0033544782911290607, 0.007559940599404021, 0.0047156861857188545, -0.004444975611918242, 0.022270227652949552, 0.052288162047025265, 0.042665357105484025, 4.0883859767449693e-05, -0.0020652540513703566, -0.008555262327259039, -0.021907391796465822, -0.03955677051934498, -0.016102187473139542, 0.004607426086369035, -0.07141427158242084, -0.08057238359827064, -0.1015311587338659, -0.07050090809022777, -0.05508222669646773, -0.05362921415086996, -0.058789276208509995, -0.038779550794163724, -0.014800176496804117, 0.014065431533899704, -0.0017474874794876658, -0.00018502635864799485, 0.017245114867814503, 0.016520804031684207, 0.008913545496128718, -0.006674602908144516, 0.012103708536786403, 0.02012839847151334, 0.014481840943146756, 0.017257118858384574, -0.0011052811269447135, 0.0029862832907266885, 0.0713477296619022, 0.03683102605304123, -0.028805890481648878, -0.005642935605058841, 0.054215485824138175, -0.013826582305995374, -0.020194616836899056, -0.05559696046757158, -0.03380935249204262, -0.02020150733974427, -0.024155711422724803, -0.03754544021814659, -0.01832868022903033, -0.00211480964810243, -0.02249793577099322, -0.003692020233448293, -0.006843389816389422, -0.0036553458023430158, -0.006514290241363783, 0.005220335472825426, -0.010726823588806864, 0.006737077229318976, 0.0177578502775007, -0.019263983544001374, -0.004781124007140011, 0.001646589578098171, -0.014207042041052522, 0.020741092744953313, 0.01917515437157567, -0.009454377481255891, 0.022320895598196906, 0.03923830174072704, 0.002046902628985349, 0.014729504577441327, 0.03962734801841778, 0.0361585781552218, 0.004449264482022861, 0.027680006329622833, 0.00718364292994617, 0.01611549497290006, 0.014807661788356866, 0.009128006151762654, 0.0003476227852012909, 0.005790159845292047, -0.02074127901475901, 0.004437435501119506, -0.0064074937098432495, -0.00986754287515018, 0.0013903922179676488, -0.008972827640826473, 0.007382843634616334, 0.007446110749901666, -0.0042999091755129325, -0.005591811423440552, 0.002648595833644578, -0.0030361401069328425, -0.0155760233616324, 0.02140033848560683, 0.010958609019945434, 0.006950566096174026, -0.009125733746402007, 0.0025930863713059657, 0.013432094326953838, 0.0036647764956091546, -0.006668914168580452, 0.003625744137362755, 0.019124680891580367, 0.0044157097513652, 0.013936589906945832, 0.005009393204001519, -0.0066587055018210795, 0.0011605608348961157, 0.012381080522488508, 0.010471973056642018, -0.006122879293139323, -0.009965217899701548], [0.00972221917570636, 0.00021840103972699002, 0.008024237850375768, -0.011998266177837936, -0.008512183863779619, -0.004842760910264641, 0.008957793945219129, 0.007926190324404527, 0.008411086710308262, 0.01400393117279834, 0.0025304267637678486, 0.01513438534023897, 0.009136811940790667, 0.01732967584430726, -0.0031734947583526053, -0.013725142155840548, -0.02134608382942393, -0.010296926024468528, 0.003782812395169159, 0.0006874403173494687, -0.010189015623837039, 0.003016080436954708, 0.007314473620067145, 0.0048526413947535575, 0.008471130323644046, 0.0049327372970964225, 0.0010220663727612497, -0.00291625256382366, 0.008241877658726193, 0.009511570154607456, -0.006463741814190293, 0.010932076613554642, 0.011124360971970667, 0.0043759852001128245, 0.02031652664963997, -0.0012726424103980827, 0.005632868406555801, -0.015508198380987197, 0.008712144617479994, -0.004735657339906138, -0.005042070635042872, -0.001970266572423235, 0.0008225691069236978, 0.010723148092581864, 0.006699405830509846, -0.014802407323710595, -0.012874512414192803, 0.0028692775330329554, -0.004379539819621385, 0.003939818682526148, -0.009847329766186304, 0.005509740171466747, -0.014976252760733664, 0.005103787837377048, -0.005126849655990627, -0.010003911163351049, 0.004564901340439415, 0.009587249969433262, 0.0018080658809115954, -0.012014674064169796, 0.0007843494518339539, 0.0003585401644677482, 0.0019653249904069835, 0.0033595146578016774, 0.012780279086662185, 0.0019851294968967854, 0.022897190586480754, -0.002095693815143341, -0.023140043284743377, -0.007756135422725607, -0.0030979890468819577, -0.0006317749008196325, -0.020714842404911876, -0.010263372859611413, 0.019587510487631778, 0.03821289679753998, 0.017458213429332868, 0.018141873536097135, -0.001304831080875773, -0.010221644497714575, -1.862830702097396e-05, 0.009189871246102465, 0.015470670471469883, 0.0026737331482740395, 0.005891490671324731, 0.000525932420569774, -0.006127187348049513, 0.007536840200718599, -0.006203796842780929, -0.0068840099681373055, 0.0028293371021776044, -0.0008493021461893237, 0.004528545038302194, -0.009658340884391159, -0.01641556350099888, -0.02937127145158769, -0.028537189384098365, -0.041705444369310715, -0.0727045872986293, -0.06038223393548929, -0.05398409343764587, -0.013428939933783064, 0.03318572549787369, 0.04471803243836789, 0.06514637106714607, 0.031593363959553, 0.013769993438282582, -0.015450012665442717, -0.017295124932598032, 0.01005169863660223, 0.005355000950667206, -0.01608508393120505, 0.022337176071588687, 0.008817765773175971, -0.006962927718923866, 0.014363014333514893, -0.016228057132285503, 0.01444718801649489, -0.0014354176475542555, -0.01871423426045002, -0.017755235372990428, -0.042145986848788675, -0.062001971373831795, -0.07320000222748521, -0.08738624146106591, -0.11684831542504533, -0.08873407824007883, -0.09530219756568606, -0.09830180878831478, -0.09573386187959762, -0.042616740264120906, -0.002435111298510135, -0.0376786646747449, -0.03187733802597899, -0.03345088819863251, 0.04195310723803524, -0.00831333118785025, 0.002292508773091462, 0.010776528831365116, -0.007915166674468498, 0.008153829223164943, -0.0006240745102353994, 0.009262925819623699, 0.008805792229373412, -1.7348668070442748e-05, 0.01096923706757758, -0.002682035040592299, -0.03395993880267555, -0.037021132059994744, -0.07964522071816915, -0.10740958943263383, -0.11239294588585469, -0.1482463919174125, -0.13311781078646007, -0.12359361845970666, -0.11547900434688083, -0.14927886187252548, -0.11992486647811955, -0.12316944599293535, -0.09626214391175653, -0.06856809176718842, -0.0998254410103555, -0.05230463963718595, 0.00693923145059787, 0.027460784397351067, 0.00012813501608928188, 0.01733149182099447, -0.0013799187233173844, 0.0014057900315777483, -0.009603689749057953, -0.003351617018384236, -0.007274082296248512, 0.0074735799440662585, -0.03216544325189282, -0.03451356589088444, -0.04500914983403692, -0.07575287763146021, -0.12822104761342915, -0.11889249307608032, -0.09273419950790768, -0.140702590051843, -0.125853863416088, -0.08611713857151333, -0.08984072449986298, -0.11143758946895609, -0.09424544746155179, -0.06345431089195971, -0.11876630367503346, -0.08329691488395978, -0.09838558797051393, -0.06612713629843664, 0.02340078466578282, 0.04813262350596394, 0.02218255117445533, 0.018854935276974957, -0.006321240117949365, -0.0016270732563881637, -0.00032429631479072806, -0.016125720396467185, -0.01993887056129906, -0.005307686740254082, -0.015745397427376226, -0.02837057022512077, -0.07944889180453038, -0.06959731689302462, -0.1102204952705411, -0.11203250158860531, -0.10143503041944674, -0.06144204737838398, -0.11079278795311645, -0.07663601137637685, -0.11696341734170623, -0.026565534670185284, 0.035670945761002264, -0.0251688875506739, -0.10544037091638186, -0.04158865503382513, 0.013354018701477482, 0.028805291738865566, 0.0457635851738141, 0.01378937963508166, 0.020296641996003124, 0.02415375740003521, 0.005485043595516027, 0.023072413262662496, -0.0057264663752005915, 0.0018823024687995616, -0.002424539172493501, -0.004818368283370631, -0.0026118538565400883, -0.058191883462705374, -0.055215621444298535, -0.08000494574605652, -0.13524656634465074, -0.14233197152860808, -0.10447665393231852, -0.12130518531938597, -0.13662859479171785, -0.1188101559676577, -0.08555775340750726, 0.06934126213604035, 0.16734929857689257, 0.12263729339152449, 0.07001937685759707, 0.14012488137294543, 0.1208196144065106, 0.08961778595847694, 0.07739694799434574, 0.11401303244166287, 0.050509882705755155, 0.004724289387308355, 0.011253487214534832, -0.006674751854261885, -0.010635692631213493, -0.007491164603671483, 0.007783935406834225, 0.003044454540784606, -0.01632262149838653, -0.030909128287465767, -0.06154801305765155, -0.07479381902301725, -0.09424471779948118, -0.08888152390208198, -0.09160994642946116, -0.1086108023378726, -0.06694985667749276, 0.009275552084973231, 0.06859034458379824, 0.18376417995244648, 0.2652753324875502, 0.22465109668295463, 0.18254609133017202, 0.1225822765992777, 0.08578346268480033, 0.10524004478079986, 0.06583191051060235, 0.1299819759447515, 0.09318536479206495, 0.023616007484599386, 0.003520516111820012, -0.006038810135764204, 0.01822147489293067, -0.005927202165102213, 0.023627513909139572, 0.007304038670813716, -0.019097207433474553, -0.022330727322481266, -0.07756761391676223, -0.04836813561828848, -0.09049091640484265, -0.09080599418665183, -0.10669348938093597, -0.12628456615867556, 0.015697628332144182, 0.12652161936294282, 0.19117126378852115, 0.18280567813175214, 0.11564206846081726, 0.13006216857498043, 0.13182977614368738, 0.10969742476153274, 0.1317950097129843, 0.13284347157919796, 0.14456576097170315, 0.1469046198836483, 0.09325555419154367, 0.017393965620537563, 0.002722440563994695, 0.008187931174632611, 0.007562928466747477, -0.0009230032945013236, -0.0042578581098594295, 0.05066248215626105, 0.011242176135139136, -0.051736655031313604, -0.021065403400127233, -0.033305700324947694, -0.13504404704545533, -0.11268206517202056, -0.04300365210559618, -0.15479841471641312, -0.012573916851775856, 0.08280098774939489, 0.12378543298050507, 0.06255362624630835, 0.01413512285828231, 0.010585613842650407, -0.001753559974988461, 0.04483620613732888, 0.11410276260102761, 0.12118700635190881, 0.12371600376692739, 0.12338595275775001, 0.07421299520962049, -0.0083045645124077, 0.0014125483106660337, 0.007367797762530258, 0.0033601960254428325, -0.004761612839331079, 0.0035223419555924732, 0.037387051539215885, 0.0034301956589815005, 0.001290851558283027, 0.016150011299221816, -0.03434341204884121, -0.025412621650743886, -0.1059542247955135, -0.14215090420612445, -0.2010265680077155, -0.06267229385384945, 0.10407590611761681, 0.04297153413085192, -0.09447917685816705, -0.10977911662419668, -0.051667343578597286, -0.06409717259427776, -0.08222093583143406, -0.05278238971590148, -0.0033986373208273325, 0.008495117094624681, -0.024549646513731243, 0.01466258702519507, 0.013723796884705833, 0.0007688239017595173, -0.0005166158961339404, 0.0188112254809118, -0.004995278100746154, 0.01333520024849643, 0.05341556488726608, 0.06227438308218241, 0.06455180014319938, 0.023739484325689078, -0.018834542503957722, -0.04026911108032485, -0.0388835959986819, -0.06558225032525304, -0.0677463688116513, 0.059198536647022064, 0.08699008430253667, -0.0500116875005626, -0.08818092818276778, -0.1244507785961498, -0.1545616788199912, -0.08659218879343253, -0.1342727636581984, -0.08748806751826212, -0.04491491018197399, -0.023633119209278713, -0.03193532633948744, -0.009044433448185988, -0.018623681226521256, 0.004790821443066102, 0.0016856954425477114, -0.0004978082456487211, -0.012595276135668099, 0.006157954761222296, 0.0404401390095145, 0.073978273255109, 0.08032565471264559, -0.009195780768896692, -0.04666659944923318, -0.017399361744512152, -0.056007702556939556, -0.06924079737431775, -0.033892947530699595, 0.026665009821339476, -0.05560420666301477, -0.04779009417731741, -0.0478010393189926, -0.10737794309996701, -0.1046191310150412, -0.10895726940701565, -0.07583439267688469, -0.07679808106613085, -0.056258239630819044, -0.025348664668733138, -0.0007634251905168015, -0.023376429885084964, -0.007173024367807611, 0.005285057598584607, 0.0013213812272744852, 0.002910182929738293, 0.010880323112836295, -0.00027469111680307993, 0.038144234838279945, 0.08612518492609647, 0.13560951239446814, -0.002202034966130966, -0.039974178382702806, -0.0490251223082604, -0.05284273563449999, -0.02914059785129036, -0.0165553751389244, -0.06374155661593606, -0.096982250378613, -0.05238829440940017, -0.020943508625735532, -0.0538439903352317, -0.04274212145803101, -0.15013767027532665, -0.1019367271860612, -0.06961621239694886, -0.06162812577832322, -0.05387818373164267, -0.016102698392158395, -0.03804286957563156, -0.004799452749420805, -0.012377736218166187, -0.002816170174182817, -0.002078762213211876, 0.007771708190592416, -0.000449022571381707, 0.05061698870039915, 0.08856200205956212, 0.09265674151439708, -0.004273403424653428, 0.002125443130850397, -0.06594924702347522, -0.06073755720137675, -0.06179488157487212, -0.09089767470512568, -0.09358105166917971, -0.10195903896185045, 0.012773024689845652, 0.07064231184871703, -0.02133714250628824, -0.046864363295259844, -0.1581512993042978, -0.12092005467154872, -0.11624173567697137, -0.09586124681803773, -0.07933564463956999, -0.04887619537505965, -0.018097061570283606, -0.021687918180314514, -0.02018431133336949, -0.0003321360656912602, -0.003346785004066005, -0.020692202704765964, -0.01782771756372691, -0.0079378000380299, 0.08276870276085382, 0.0860122957431216, 0.06470675715128578, 0.035764143285736835, 0.052897020674398755, 0.015531456778255391, -0.07559703063361205, -0.14548440438453963, -0.10957883683596777, 0.010655968291416656, 0.09962476253402378, 0.11265325695216413, 0.06021129547349968, -0.06449950995259482, -0.17219834369270795, -0.13575503966823152, -0.17443391932708552, -0.11139950283471708, -0.06490708144107749, -0.03660226264445085, -0.0314602189348259, -0.012893820705475473, 0.009138674437526785, 0.0060352638905230285, 0.002884942801564225, -0.007571799575931625, -0.021045935477569284, -0.038316297249426826, 0.019397868408031683, 0.03174153804324154, 0.04901569783153026, 0.07776440617434831, 0.08456856008315743, 0.08925605610228235, 0.009973616888161846, -0.06068311397777134, 0.023045905945288436, 0.07665363405802614, 0.12104638553342119, 0.06042130749211757, 0.033423476771341325, -0.050209028049950144, -0.1637415719669997, -0.168538551129667, -0.14236490899160598, -0.12528014466016132, -0.052488009787380926, -0.053028033221905815, -0.013067047224384017, -0.004020656120532917, 0.00231187638720529, -0.007568180036693339, -0.0004495834914751225, 0.012861649106125174, -0.0479321311085205, -0.06244223454379503, -0.028600176172552144, 0.0027867880350026628, 0.02552893693411717, 0.019544482776271643, 0.014476130944739995, 0.04123240703093109, 0.022089145358411357, 0.07628796136876811, 0.06975510825403983, 0.07931276013739677, 0.09070249490642955, 0.023493131558626, -0.028324355606526803, -0.0921038650435883, -0.12345717462719533, -0.14460579900542914, -0.1524047815099096, -0.09540105038068766, -0.03025816112636825, -0.0025408700322512912, -0.0060600742205787735, -0.0019411477632686003, 0.023996450022408054, 0.0011951217115193074, 0.0002928972241237771, -0.009038351809644697, -0.0655702321561249, -0.06949269347920785, -0.029637132126758007, -0.010204585741906214, -0.0202890922702555, 0.01459389104278447, 0.016302134405998137, 0.06420809154168496, 0.04104034588844675, 0.056882152682131246, 0.08262794124257866, 0.09690469787665311, -0.006055707505649416, -0.0052376438539711, -0.03378465784676288, -0.11967014167182617, -0.13350417739424067, -0.1385895869132501, -0.12568542248316592, -0.08704081062814659, -0.04117236460124765, -0.002200354164240799, -0.013783402848545059, -0.007394202901838071, 0.011966792921595326, 0.01681163047036986, 0.019637422574700327, -0.018772242278797455, -0.04937180705808804, -0.047814523446293396, -0.037721079677855256, -0.03288298774436223, -0.02177398497592746, -0.06265087297052131, 0.03527752948923538, 0.047500427263956674, 0.03148414944655036, 0.07109994078261776, 0.07161184346924085, 0.07120937296570434, -0.007909871141903644, -0.09489579579446356, -0.09476674403301531, -0.12969968603897541, -0.13891911012610625, -0.10183033372384698, -0.08307155860132313, -0.057296536193766026, -0.030963881683892924, -0.011145676338030546, -0.019645552627853242, 0.0003103699893014783, 0.037992585568173476, 0.007927796880311455, -0.01033764228553345, -0.021825980224278587, 0.0013027387395959115, -0.012469884413469638, -0.050283575050488326, -0.040848039941609106, -0.04775951730366592, -0.011423115924367875, 0.06586971827058591, -0.0057503727391423265, -0.04679468048548427, 0.05440875579815728, 0.00040934524870736203, 0.009807851389702877, -0.035777964769479746, -0.10677256309098193, -0.1296444621763618, -0.10778716690394174, -0.1348051875390577, -0.0786344499966256, -0.06769758258601956, -0.06139046196340141, -0.008936873573922945, 0.03597841101862958, -0.003077249447440493, 0.016699746181650175, 0.011446871491473876, 0.001975268141709959, -0.005493120378443615, -0.013790258310876016, -0.007646437715077723, -0.016662971545946415, 0.01913794470167887, -0.016785382146085145, -0.05445780841892371, -0.03623817203281252, 0.0036044481730929446, -0.021541343046057308, -0.03987229053335031, -0.044018588256513363, -0.08627101246576065, -0.14225380161280302, -0.11632980098928436, -0.14260060634750188, -0.1268113828537899, -0.10942176825206529, -0.0855409970468505, -0.0796813219516698, -0.07356024557043525, -0.0067933741334282975, -0.005107192796636208, -0.008002655770353704, 0.000516928824133788, -0.007156096065755545, 0.0015404674746411398, 0.0010757517257264705, 0.011358252194959846, 0.0028876989645832763, -0.015210881648557524, 0.002144314423083738, 0.04334233383129559, -0.007397552224096878, -0.02969389900176169, -0.005333396983919561, -0.02117501922013981, -0.0045794949449524435, -0.05765687075470576, -0.028444678392764447, -0.04580713008007849, -0.13052086377885486, -0.0793870852700302, -0.11087332593448854, -0.03632938939397837, -0.06492223630559199, -0.04482565033763026, -0.03997598196962005, -0.05086420613190863, -0.010505790438696878, -5.259104959399172e-05, -0.0005696100135173636, -0.0236020769459881, 0.0018143944967710134, 0.00846001949881163, -0.005370986439050123, -0.0020798531045630917, -0.009751316440127677, 0.0110323700661885, 0.0026237967906701477, 0.006755360413357332, 0.007820918498456907, 0.026681986036731328, 0.020882551103730766, 0.028191768548472683, -0.020904331093173235, 0.008402379499247338, 0.0072666411879954195, -0.02650970172534501, -0.02778075752170847, -0.03958279861570988, 0.014210172054183628, 0.02558199627672153, -0.005096401831289578, 0.018644969987516496, -0.005244986694093086, 0.017707700249895358, 0.01723670950815512, 0.0011804298189246553, -0.017728384797842032, 0.00042276655011564177, -0.0018609059003925458, -0.001875648980050304, -0.006989448034561104, 0.00021348112410854921, -0.006233651999898662, 0.016608930178674538, 0.0046950479623205366, 0.008429215827418079, 0.001908744312225627, 0.013514207035614182, 0.024592790407782592, 0.002127024011212617, 0.02754530992018505, 0.05520233456159501, 0.09223384276328812, 0.056878926450544584, 0.041342846895252035, 0.05031744885185844, 0.037835066736094415, 0.03433797734535525, 0.0028307483095849797, 0.019647670617958718, 0.023281782998517794, -0.00445456439479217, 0.006570106001165329, 0.0030062792991169245, 0.015367577233596134, -0.012974009763386507, 0.01728575217759333, -0.0005682341962353228, -0.017137915593430517, -0.00427640012835315, -0.0020152318509243385, -0.007448177187909785, 0.0037575915428975024, 0.0026230009994860533, -0.003020624261513574, -0.008445583401314011, 0.0048106216234553535, 0.006694339048275358, 0.009244215335600478, 0.0062642706684608645, -0.00043625682155522716, -0.0027909655681924877, 0.01729892899674353, 0.02390787389859694, 0.009146230009352748, 0.006126974076518098, -0.008680647146527802, -0.006049305374725642, -0.002608884273602242, 0.005447503379478122, 0.003243663087694749, 0.014151168528801742, 0.0036913520583822653, 0.004605800870042457, -0.00021579506857311704, -0.006504584759983861], [0.022907569132883176, -0.010680012280346539, 0.005850974540523511, -0.009077351792681392, 0.0063879006936511055, -0.0012298053268710062, -0.01203548600883799, -0.01256596220183795, 0.003174533410830878, 0.0108676329959665, -0.015348128280037478, -0.0023532701995146316, 0.008878060684644393, 0.027730083487159784, -0.003439590809416027, -0.004649084418141232, 0.0015799754596724158, -0.028640071137057164, 0.006911001622288464, -0.00026711453963017897, 0.0073645862029755186, -0.01480549596732323, -0.0011854458788119497, -0.01163788601686015, 0.005496507088058803, -0.015546154286808679, 0.0027298532891473354, 0.014081246125368875, 0.0037133460642768475, -0.004018477087193989, 0.024890706086768327, 0.013536330814591678, 0.0041996053458580075, -0.007148125925667175, 0.0036678955940819746, 0.01081498349455422, 0.0025232282279375744, 0.004162341243137936, -0.00440754222013678, 0.0075588668334497615, 0.01569011406533834, 0.026993121144016242, -0.0039946205135669675, -0.010175260307886798, 0.0157880324105665, -0.000154947077704874, -0.004102824788345694, 0.0053816887235939226, -0.0017871448389134444, -0.01135861233661469, -0.003202504689104819, 0.0035391042436804764, -0.02043715293420905, -0.0024695949998857205, -0.009681183939409983, -0.008155596608926115, 0.0008472134543758859, -0.020035589890637712, 0.006171780113304971, 2.7643592707564926e-05, -0.007393773577188323, -0.00582154482642886, 0.021028466084164654, 0.01636049134582306, 0.028088311437161017, 0.05376948363681655, 0.07918233609385572, 0.08356668065179407, 0.08323874086145569, 0.05645411723073749, 0.06384173327333593, 0.02347789627877639, 0.026204481833938656, 0.045483836556178596, 0.0204224174295943, -0.015277156189728547, -0.008749586056970751, -0.01732430380906169, 0.013348161407184343, -0.0005433702397697443, -0.0002909628146957191, -0.016959124590017624, -0.011131251248407817, -0.0102341837581552, -0.01898641148143735, 0.00013468478442405047, -0.010569432633902729, 0.009738977606904706, 0.0050009576888554634, 0.011530637439784355, -0.002919685712947124, -0.011436231035082631, -0.019883759767739897, 0.05320340735828917, 0.00498050370171303, 0.05136537068185302, 0.014390831384003407, 0.07363076496588643, 0.042563851337288544, -0.031076974411309462, 0.03537651144704109, -0.0280358860917025, -0.09311313622276915, -0.04312588788215152, -0.08578515585385839, -0.05966395513701867, -0.05293780417355326, -0.03276625520209784, -0.007849399620778193, -0.014233418781363806, 0.018046190780515278, 0.0019373373322421465, 0.004392246055400921, 0.006116292479355796, -0.004437595787687612, -0.006301040932295073, -0.0105657229086374, 0.004716859914415343, -0.010107663100053113, -0.035191686774146046, -0.04992508168679257, -0.020386320898517322, 0.010605424932598114, -0.040262202519867354, -0.03755431257294055, -0.08538629668277965, -0.058371025250198605, -0.10363698255750062, -0.04899395272080971, 0.011829444277744421, -0.07420440643045506, -0.1449556402000239, -0.10790131407255754, -0.09673863225769343, -0.13991350110269696, -0.12581410312715802, -0.06163652849173982, -0.014780582340341344, 0.009172585637082243, 0.003853936302969442, -0.012330063431156831, -0.020369730509044733, -0.009097235105449696, 0.008703184448418543, -0.013312229973534982, -0.02561430721827419, -0.00947313611080741, 0.0025935718255830605, 0.1965585506467912, 0.1967641088305848, 0.22084976385067434, 0.22529535313599183, 0.10622566041908188, 0.11177397124650364, -0.05724253736028974, -0.0921983967503421, 0.06380843785641509, -0.05158942194564491, -0.07083760642413474, -0.1580969429445673, -0.15232677625966787, -0.1403202743475775, -0.1518715421714747, -0.085808933648588, -0.09503221848623268, -0.008106141102311625, 0.028128449224520884, 0.03435757821344568, 0.005491270889287807, 0.0031094946822943573, -0.008626192619322702, -0.0008927076006452491, -0.009126828214750275, -0.05956390571359234, -0.003640812987965385, 0.06448844766803578, 0.09542067851704963, 0.19371888917226157, 0.2888905677609788, 0.30462180648060855, 0.28688917725380486, 0.21990181081857424, 0.1713670734234004, 0.08385131538852393, 0.1272563836127062, 0.0070607593643065986, -0.05939618873371604, -0.029493393567449625, -0.17678584354064925, -0.19865014577889467, -0.12775201911028325, -0.1576755361793433, -0.09334898844595443, -0.026567812510304212, -0.0058130812184677945, 0.011437791832163648, -0.016430298961519398, 0.020595660067440864, 0.01640445389262509, -0.0032122598710117227, -0.021096974430263583, -0.004283909827102417, 0.09009550119592553, 0.053314761244386714, 0.18185170779340595, 0.23710286593244578, 0.21355095933675605, 0.25584032474163265, 0.09850240885088857, 0.16104314866929473, 0.10151159062767645, 0.05965610201219241, 0.0774126122019054, -0.07367203444918691, -0.14172177599336647, -0.028907884340171996, -0.10671736399863817, -0.14481578416649613, -0.20063540932570015, -0.21627059283326738, -0.09344562451957159, -0.06589162979853495, 0.011424462845183735, 0.011398369901513829, 0.013193823189362484, -0.002072270771142242, -0.010037233345687098, -0.002414357430460751, 0.030255876981557163, 0.02186366744678811, 0.017529912065831273, -0.0217287517261139, 0.11345156616842611, 0.24970696925616487, 0.3454901553906325, 0.20642574911573836, -0.09805279820620333, -0.2643859860330102, -0.02811044477460757, -0.0603553927800871, -0.06693939890660436, -0.118185871189319, -0.21140036501274478, 0.021134901885900607, -0.09422139108337976, -0.22288406131562258, -0.20247935408763765, -0.21594973210916388, -0.19017476972024736, -0.09457305053039848, -0.04348923434078374, -0.009085679850984808, 0.003419693643975163, -0.0008628116190252361, -0.02900677365755714, -0.02595415298823106, -0.04099469720105271, -0.00900411074935513, -0.09008846067093734, -0.09106822604863248, -0.06796308009264249, 0.12985272145640397, 0.1272480206259834, 0.04349167141972174, -0.13428092241497588, -0.3084720797601985, -0.31509306559717964, -0.21043406888857236, -0.17222584399252774, -0.10771910120298821, -0.044328831070612584, -0.0635064033862906, -0.20332534187482626, -0.2820449003747567, -0.1748843568209213, -0.20651982748712736, -0.18165397437569217, -0.03760172582620661, -0.0015430220527314588, 0.03168656779125963, 0.0057006127479819375, -0.01366755469607511, 0.0037501865403938295, -0.032865625030606326, -0.09880186009396927, -0.050780056013759, -0.048041845153411866, -0.06815218410686137, -0.049778245320163964, -0.00591375219412405, 0.028644774180179838, -0.21745801750228075, -0.44763358744441695, -0.4265843159308764, -0.3945260966142573, -0.275615170991281, -0.15075931332613413, -0.1051264893185181, -0.06410281894371385, -0.13435183053996633, -0.1779858762643345, -0.11596439541750889, -0.19530998837920097, -0.15038802180212454, -0.09826537269468849, -0.032283392680800584, 0.001846398376739982, -0.005703124911898889, 0.0017873938746634074, 0.00044140939398581573, -0.009388273361591669, -0.03786481912939241, -0.14201279141091125, -0.07941065261014713, -0.06520338085419432, -0.15193630221551033, -0.11520495526881569, -0.10286977991785551, -0.2672880579453447, -0.39253171457684244, -0.6269660526674872, -0.5198313914860576, -0.2956956222800678, -0.22364367624706993, -0.009108022969548345, -0.17673796967726696, -0.05582413130788235, -0.05335710402072712, -0.046638866119766656, -0.04967117832068655, -0.13905413036260714, -0.11196551129425467, -0.10621729289383902, -0.06781322691845355, -0.05681202141145405, 0.004138137699706915, -0.004404349617474462, 0.0036775967629630304, 0.010765589281498884, -0.024355710833395033, -0.134917791413751, -0.23158879666077853, -0.2362919301485501, -0.2586008024978263, -0.2230132548632745, -0.3281841998071249, -0.4472109450439203, -0.46208604727654445, -0.4432782580090995, -0.2885946148061668, -0.17320261520187766, -0.12296058145272148, -0.08935939862330032, -0.06450850509539205, -0.02431403429905577, -0.10498886887008356, -0.07470216822107519, -0.03336964576174256, -0.09313314863571567, -0.10267694287246659, 0.03230758860998357, 0.02080741524089671, -0.010715263116214808, 0.021572347304660726, -0.02328112926987679, 0.0032125231993587267, 0.006031884618901184, -0.03844424071236079, -0.15568848689936624, -0.2686208333857621, -0.29263431627793374, -0.3554301698078948, -0.3346027734824897, -0.2659390773380223, -0.26032423079214306, -0.3371763861061236, -0.09443432921925768, 0.128355657860537, -0.051906829629573555, -0.12376607010856519, -0.07196956418664584, -0.12749636142471088, -0.16309535112740225, -0.02205359774050872, -0.06162838133531836, 0.0025967595662836794, -0.04664331320655699, 0.047093455492906805, 0.13784182496448608, 0.10565636267917809, 0.017213078093704825, 0.010903205443376798, 0.006914769582598564, 0.014315660673241273, 0.00033985160865023813, -0.02845067671736265, -0.11723328129838265, -0.2730252405900382, -0.21407256212738898, -0.14280164551670094, -0.14814848958563304, -0.023602476665253235, 0.021397789483929397, 0.10727824580103178, 0.25803517735485526, 0.21016675421885883, 0.03069299158614581, -0.1372328104394425, -0.1029594098006243, -0.12573588115601025, -0.037620413424012976, -0.0711561254547374, 0.03549337597657752, -0.01032615986653589, -0.034072833597838977, 0.023778216158256323, 0.1475567265756045, 0.13612181599942447, 0.049653740823248756, 0.00385968236500724, 0.011918886378396238, -0.020442888604339005, -0.016717615400618373, -0.01698186019101239, -0.13411993913701725, -0.19258098965572468, -0.03637264853149941, 0.017320631854101595, 0.031421277235692616, 0.03438038201676908, 0.08401703165146772, 0.11904236362332556, 0.10459404507367338, 0.11765295873068837, -0.14547289499372662, -0.20008209205072142, -0.19868307292752344, -0.15557454980362145, -0.06569827762414626, -0.02706457692312873, -0.01692597187830163, -0.009120771924046466, -0.1263860524440205, -0.010233980953462183, 0.17667997601103008, 0.18523920155576018, 0.0364885351000499, 0.017066644723738172, 0.006782033398974182, -0.011895187289271775, -0.008575833289649221, -0.03387012586284621, -0.1537091408128288, -0.11526969681681903, 0.017766605548304084, 0.009281374241911146, 0.04314988460037735, 0.07489945336990125, 0.04718448293334133, 0.12894341770213363, 0.017972811894075263, 0.0014835845525921253, -0.2902115135375699, -0.28637245864236077, -0.08636746714506677, -0.03574246919190253, -0.11616003737410954, -0.03097788765128175, -0.1391316694092215, -0.01566658442365014, -0.08908904710864109, 0.041674847801509006, 0.1258058272135722, 0.21549134891606414, 0.06650361271007463, 0.020823754809018127, 0.0016232742056442582, -0.009909748501354277, 0.010521283778679185, -0.038950261990434554, -0.07985877623842738, -0.11538791343190102, 0.009634752635743192, 0.012742351766096095, 0.1239325328126326, 0.02549429237934555, 0.10916854803212538, 0.10912311730631702, 0.08006648384313209, -0.06494808029597093, -0.1562731330441582, -0.07833232970741315, -0.12827748480049456, -0.1541231264619506, -0.10291505221221892, -0.23167975148774408, -0.16972047222238507, -0.07318589800356869, -0.03541260270161499, 0.011638996332618091, 0.13063217457812712, 0.25095099305306023, 0.0699492747066079, 0.006734002762356256, -0.002684625197852063, -0.0041947922830069834, -0.012127038662868133, -0.02052932287552529, -0.07035942069813317, -0.13301226370920158, -0.06285983833316743, 0.14996224699480223, 0.2562476821692866, 0.14537972692791337, 0.042466994463671075, -0.0225496887108217, 0.22492530126113144, 0.10781265255702738, 0.04464948607613585, -0.06296819821682731, -0.1289609072520826, 0.009526219692697279, -0.022363332347717257, -0.14921293964242718, -0.15160740840534462, -0.03727339268012377, 0.08180537765267538, 0.13169296992789728, 0.12831133695645852, 0.17343915401511495, 0.02774478030530609, -0.004213242965225837, -0.007064293847668475, -0.01487523833042669, 0.006024618626132572, -0.030835640008043886, -0.061475455083786705, -0.1633031207237078, -0.09512574802455102, 0.007920541111269384, 0.14110265836584002, 0.13738091727971016, 0.055003801615721104, 0.2436230838757343, 0.23382142501062378, 0.2037164554567091, 0.16834423468861626, -0.09889271837827793, -0.17185658016785485, -0.03627021422716437, -0.07075134586922095, -0.1635208401521126, 0.012522516536217502, -0.02698168315646479, 0.04381124354406598, 0.09786229612232207, 0.0722236942366498, 0.08261772129644941, 0.013884717146034637, 4.017057976960751e-05, -0.00618293434399609, 0.0035919178858523286, 0.01648020713821118, 0.01007613596000706, 0.021338796097991986, -0.054702911882226674, -0.10471176300128002, -0.07166338567808374, 0.06432312555011191, -0.05662300852574953, 0.052765409527110445, 0.30334806505368334, 0.4732377625756257, 0.36000185147263086, 0.24311416855986254, 0.05920123355921395, -0.08122710359344744, -0.012219034999563522, -0.07672683911619807, -0.0913026407914224, 0.022539161413018087, 0.07579350524861295, 0.04778052734480301, 0.10500204751723345, 0.10992916460108411, 0.0500688375415144, 0.004120966961154563, -0.0034678356435198987, -0.010600764537379806, 0.0061730039541049025, 0.04044673444206829, 0.04346633815998666, 0.0033319246251423385, -0.0012901639688552883, -0.16867716557981954, -0.16210252116816742, -0.06461226205549842, 0.005664936014416189, 0.0678316228677625, 0.15294582140439367, 0.36527657507678307, 0.34280931713828927, 0.1902886076518648, -0.10458000683748615, -0.05052134498976039, -0.00041888537549006143, -0.004079666004468596, 0.10781923188214124, 0.0744241920401489, 0.08047592638671944, 0.1441013744849529, 0.21414258710002948, 0.13535557530213752, 0.026456982110952067, 0.0016269406039776827, -0.00015911834306852392, 0.01547889448339654, -0.01360270770043434, 0.04626262562640254, 0.026162901725247007, -0.021364968473529387, -0.014286858872961548, -0.11299674498269413, -0.07015965081524193, 0.006700252081360805, 0.08327954712626923, 0.15645998354345292, 0.1435292475519767, 0.1620096197960809, 0.11757279750115075, -0.002276039208957286, -0.1654343263703476, -0.11092088375925176, -0.19665455270622864, -0.0471883102311639, 0.024833273180812222, 0.07724335946398991, 0.16672851196412986, 0.17018787412324554, 0.11637074329676712, 0.0707549211117294, 0.023228877341810568, 0.003337580977581284, 0.014255931171721558, -0.005078729458044377, 0.007730842261505137, -0.008563303169731829, -0.05359714713863242, -0.08522895998636691, -0.1130138372150019, -0.15444700421797689, -0.05184484826189104, -0.0764145573158562, 0.03124452895176301, 0.009295598274390108, 0.15654375644311502, 0.2537214610067223, 0.0784859380174244, 0.002860225408285195, -0.09517515405718326, -0.24363907619559239, -0.28165183910300445, -0.13058304923052408, 0.008643298905001588, 0.061538676727050774, 0.1295364550472465, 0.12332649102372076, 0.0507054856924934, 0.02930249983608576, 0.006339880418356036, 0.008565183788243906, 0.013007154695816078, 0.01206462198974904, -0.005688310501553973, 0.0030976783715562983, -0.05260687550628904, -0.08771363339541652, -0.09563826661828437, -0.16191091474998007, -0.18558007809451854, -0.11211333861912627, -0.05613875363372997, -0.06767704703949723, -0.010438601887196563, 0.10242545042993924, -0.009348065663323845, 0.04978660452538394, 0.019334726773653374, -0.21040219576036598, -0.11368057175511882, -0.07466574213404199, -0.11422513792943123, -0.06274447259492022, 0.00861026572243254, 0.02497998329230118, 0.009960601503449386, 0.06347140806624578, 0.020081108591138763, 0.004046103358273244, -0.008811063254452828, -0.012944366187538192, 0.012673684402469616, -0.021483918786286797, -0.004528804168486043, -0.0023531128979779343, -0.013141410949114963, -0.043471279947950255, -0.025009515736341845, -0.052751256493152425, -0.06291311463026679, -0.07814060302524399, -0.0193225494511169, -0.05257958003543336, -0.1589762026475154, -0.05354786359854095, -0.03293626110727805, -0.08913833999615649, -0.13763945823860893, -0.1993300399430305, -0.23471191590201615, -0.08548451164629203, -0.008409760465053841, -0.012264510763539464, 0.0002748551000265696, -0.009178823694946273, 0.012957061634294621, 0.00967691569132474, 0.011042864146880872, 0.010916320196005126, -0.001679344434938929, -0.002754421090802267, -0.006185554634721114, 0.002372377896958271, -0.016014091367476783, -0.004202072929188739, 0.01717716124893822, 0.01825039673439338, 0.028688492010646, 0.04598184083107055, 0.005148042624680245, -0.008718661485550045, -0.012244197641562414, -0.013434104784199765, -0.015761168259050766, -0.028955298037910398, -0.047345009929247034, -0.01011626164823916, -0.015920137064232502, 0.005095818439074096, -0.015830936166185566, 0.006547112548101679, -0.01614707958144298, 0.02321999525523855, -0.0014341668886103272, -0.0021360508544418177, 0.018477367887353272, 0.009469250308857775, 0.005185209737581833, -0.0032258556576573987, -0.0003979969812067206, 0.0007738724620927282, 0.010547455437477213, -0.0186213335377628, -6.417459556732399e-05, -0.014586347970451644, -0.013733255032021347, 0.023663203180671416, -0.0018355177403200178, -0.0021566462577251107, 0.00507148241604587, -0.004362911469613903, 0.00017157516467720854, -0.007630051626779342, 0.02415122118803498, -0.008861521255056275, 0.0010409017410685877, 0.00022053057629605193, 0.019682750674163103, 0.004414618550734449, 0.009499000308603671, -0.017783859071204892, -0.012545041617153571, 0.00975518148193586, -0.009108923312692061], [0.003146440683340882, 0.002044907659789021, 0.0018981531229036517, -0.001011547794098735, 0.005329756902932675, -0.000251545771843868, 0.001947849314538479, 0.002549815811013735, 0.010756557481711122, 0.004612183513867514, -0.009538597822120427, -0.004852289108830705, 0.011115845593318638, 0.005082526134155473, -0.0142768321551579, 0.012871359196445416, -0.005465126129004217, -0.014410707678660366, 0.004903103017219452, 0.0029495830120544876, 0.004912874413725759, 0.01645837501356808, -0.003337829697751953, -0.00018134923797230885, 0.015026730262273571, -0.005489530271238032, 0.0037675268732783947, 0.017679903490407167, 0.011004701714556551, 0.009552599216274597, 0.0014506541037586087, 0.00024728754256095174, -0.0013162163272397484, -0.01565083816795965, -0.0077121951401906245, -0.012042325162826684, 0.0006489118146815663, 0.0020647715197173503, 0.013521607996869103, -0.018210197903090992, 0.002846202890845226, 0.009220054460026968, 0.00904229357432999, -0.006611845477024079, -0.03862034458274138, 0.001994703358398431, 0.011759454329301302, 0.00029235174941585304, 0.005131675150750313, 0.02216821929727482, 0.009576944797306697, 0.011262413068724832, -0.009433959020992215, -0.00025828115850627545, -0.005298496840280469, 0.012926089617772613, 0.012075849669937782, 0.01257356116437067, -0.004946203919242887, 0.006837647076068644, -0.013033537107139665, -0.008756578531985745, 0.015037602491938988, -0.009423464567212714, -0.009329064439188125, 0.0010980961961896483, -0.010194093433394807, -0.006666928483763373, -0.02687175969003785, -0.006417009230809421, -0.01744329816801786, -0.01724480942849446, -0.013050407233152428, -0.0015977378649788612, 0.01841677265278421, 0.01202358074640268, 0.013211517017755695, 0.005992223852590258, 0.01412558915284673, 0.010676069325067155, 0.0033011939347107693, -0.008106453810738061, 0.004130891220346043, -0.008835920973426512, 0.0012934409204494784, -0.004019086433414468, 0.0037953455947563985, -0.0027869279996254356, -0.013254107330585723, -0.028972641850711658, -0.010575687850085712, -0.02217081817828201, -0.026391032644923294, -0.040037934729505585, -0.043996546570986554, -0.10714686990748236, -0.10284679182929729, -0.10757860985729982, -0.12999188175765947, -0.08989802269895708, -0.11263399335911299, -0.06971115061642154, 0.033683725035549845, 0.04300827654971705, 0.004404595872035546, 0.04756302963550106, 0.04114735538747002, 0.01713724222367929, -0.002171511700301616, 0.006692126235526629, 0.010855704604869867, -0.0034530591528971516, 0.02120216067471874, -0.01388431600418325, 0.006897530666644137, 0.005590573749971878, -0.004870184020248507, -0.025537849478608023, -0.02227127872676955, -0.04481398760518003, -0.07737101977569211, -0.13174861311985717, -0.16632690915238926, -0.1784683752581959, -0.26889161612286805, -0.2951323886318136, -0.2678807185288088, -0.22533344204226044, -0.12234687656484115, -0.023556986817457572, -0.05703303381541441, -0.029687918145111798, -0.01655510325245222, 0.08488792660018475, 0.08654533643811961, 0.04923039810299746, 0.04826428666291261, 0.027916610950352055, 0.018288022646243803, 0.009265137724566727, 0.001719816172648351, -0.0016658891803110795, 0.011541477728859918, -0.0038545693622746044, -0.006080630875173733, 0.041489899879722375, 0.024493291982102837, 0.007282236342424917, 0.00768116841712771, -0.03786210553384841, -0.10385442271546276, -0.10845016548091142, -0.0666838109686339, -0.054272044707310285, -0.15056744341897513, -0.26689923195678633, -0.3469596938335172, -0.1648310660835924, -0.1426502238796272, -0.14239383709199158, -0.1172456305041682, -0.12082840442023725, -0.06352881429695113, -0.027469513144538323, 0.023198100409718807, 0.01922004129919263, 0.010730399348282628, -0.002210686786367732, -0.005906978677923778, -0.002506739122181587, -0.0033437286805877947, -0.009839227625274153, -0.01653577027813972, 0.025482391314433375, 0.027290024087263807, 0.04787647838127127, 0.006247983823146978, -0.05944989068312844, -0.08029639159333288, -0.03250315620601112, 0.03183928653835396, -0.14450525504287642, -0.08671863585941418, -0.027917481442473507, -0.09390529156005689, 0.08468105643563693, 0.11538961710034897, 0.09590139460704289, 0.09216575966485671, -0.0029408177113241347, -0.03387591915086347, 0.04576385878835007, 0.006101954628694812, -0.004246623051538545, 0.011618668898581553, -0.013062751528659017, 0.011632758648729908, -0.010710993476149209, 0.008296178755735335, 0.024778518281813065, -0.04735668267241882, -0.07632027235783641, -0.011382027023726822, -0.0007898218181338068, -0.12072888783124913, -0.04907711438954221, 0.007541199867280214, 0.02342969567796035, 0.04575415474510827, -0.005955226017587719, -0.11794304065030681, 0.03071412624850558, 0.02256061988389261, 0.1092809454185495, 0.1809195138636572, 0.2728407989910885, 0.1604430431821482, 0.15658662372673474, 0.08071823128650642, 0.1484746766351164, 0.018790512405277775, -0.03361338933146915, 0.010675852144314572, 0.005244163135851013, -0.0026294317995137076, -0.00871539657682799, -0.007131818702743115, 0.014445355530784349, -0.08256161222929838, -0.09279275127080137, -0.025458061316256626, -0.011133679013609557, 0.009953534263427231, 0.09660776141813587, 0.018541901461845398, 0.006345909981205125, 0.06588087777306985, 0.029083879281343275, 0.0200724502721279, 0.062356191305903176, -0.03107608677823553, 0.029245942227896005, 0.13171428958841802, 0.05998589419347913, 0.029881249325346984, 0.13673678673770517, 0.1559187399716948, 0.1280691896319645, 0.07398773525976546, 0.021170156095390188, 0.0175291060940628, -0.007121287595422367, -0.014792005560555673, 3.10622109276036e-05, -0.019445537937328235, -0.01639535380066368, -0.058576019307059655, -0.08936523020141979, -0.057641621020793864, -0.11922232620831419, -0.07586870165036065, -0.016769328474975025, -0.1250696456521799, -0.0035008174696978048, 0.09586484124389498, 0.08659290024667606, -0.006546774362952939, -0.04599218084583527, -0.15203898973445298, -0.03020206291058179, -0.1290320685618048, -0.08577802615360465, -0.03155006307772272, 0.137454726217241, 0.08926935160715302, 0.07597717321728088, 0.09121872090792603, 0.050473947668277695, 0.009054820208776918, 0.010350440286271462, -0.011248059941108331, -0.0009384550735713329, 0.0014380440838671433, -0.008456417315378918, -0.0164872996050738, -0.09945143262883052, -0.16815165369380972, -0.22728137055262426, -0.14192545424027103, -0.050766732097417694, -0.06880006921887484, -0.03474230835877402, 0.025825880007309454, -0.11952389714699027, -0.14065657868593504, -0.3001517459299754, -0.1527220202733235, -0.20971848219221692, -0.16150598292314125, -0.09698175094733819, -0.017982154210347313, 0.052776155789841926, 0.07707409161815952, 0.038865818606834295, 0.06017651529443006, 0.050540084702275306, 0.027677434497688853, 0.017724772671966888, 0.005655111496632024, 0.005938684220378684, 0.015607620437037291, 0.013822465647476224, 0.012058177654020962, -0.0491196007836408, -0.13474830258685508, -0.11362275171382771, -0.023569803655484625, 0.052238581684586005, 0.16754183069045644, 0.08852629353241014, 0.02854091001657238, -0.11345071909088879, -0.11576544142328263, -0.1369906164128563, -0.11627432649460138, -0.18387392330868624, 0.03846807349023813, -0.020129512669799753, 0.009059116699751834, 0.12453921637033648, 0.1537816628766205, 0.16309941321583535, 0.14811508393539136, 0.037213295396151855, 0.05256013765022934, 0.022976489013200097, 0.0025250583755478066, -0.012740471889252281, 0.0024616375983484598, 0.03262724892396491, 0.04121414732892675, -0.0067926974360049625, -0.10353244204932986, -0.12006640480907066, -0.15228301972352917, -0.029818105184501304, 0.037177934449555805, 0.10530809902701989, -0.20621700927346903, -0.2711963037965859, -0.1782018658418996, 0.08086737147569058, -0.21805635091311504, -0.16871086140612315, 0.0009407316701511669, -0.025142863962720734, 0.22318046343537493, 0.24041785815089708, 0.14593219270285515, 0.18274488594700528, 0.08425067081991743, 0.029834835162078736, 0.0026750820927409066, 0.006668176332987829, 0.007043733222337607, -0.001184574906551252, 0.028421021903194604, 0.014724004117503808, 0.029892040499802215, -0.04916584482877306, -0.12113613526490824, -0.16154486452448213, -0.15386886810782693, 0.09176177624416221, 0.1464525715109141, 0.03165890686796448, -0.30747495598881697, -0.2737918115150977, 0.07902079740359932, 0.3369432033191354, -0.11431676820392878, -0.19178317538361353, -0.2033597693590416, 0.10190464277233005, 0.24071431640174634, 0.17114384797343477, 0.06393072284695654, -0.023010609733165904, -0.03286025847824769, 0.0019461155944617498, -0.01495491668617684, -0.014691497136082548, -0.015425571386909538, 0.014054307065334348, 0.012674533882320175, -0.0022181398199236937, 0.010666028957313776, -0.05969053961421907, -0.1390254204193268, -0.13976662547564717, -0.11497272761862917, -0.054189711721107064, -0.0009236254078379856, -0.1645172481963169, -0.1362167850861944, 0.15186019647499147, 0.49868743730693954, 0.2221640027941375, -0.11830478051069968, -0.2507827705854646, -0.1844131796812256, 0.17229383821353006, 0.08429794529515043, -0.01103195626974534, -0.11058216303217207, -0.11008103680299862, -0.109375488862407, -0.04234331752400632, -0.03774536290200738, -0.007894686576046112, 0.0018160235495578677, 0.0009166905410185011, 0.0015711181657357765, 0.0012063742967257454, -0.02349570267895542, -0.11677289363157504, -0.13627534521357118, -0.13349144749062256, -0.09250037050367317, -0.13642182892036586, -0.07599890974569283, -0.17720965823289267, -0.0350276690129181, 0.30944336744148315, 0.4541135496787786, 0.33390517447806917, -0.026410137322730787, -0.06737668072588465, -0.05117219383374163, -0.13025253476642576, -0.13738963129996504, -0.16200897264953948, -0.10981856480332516, -0.11385177850702448, -0.14744281748584775, -0.10401847075894965, -0.031971636623993924, 0.01944498865994147, 0.016064469490947267, 0.006422561256393787, -0.014406233398085718, -0.02290776106202055, -0.07774853723782725, -0.06897011545438915, -0.06750449849261937, -0.15172553560658214, -0.12402367828424864, -0.14425837546564688, -0.10846302567962443, -0.146431452668376, 0.10974395489396892, 0.31903064006239096, 0.21654509236656982, 0.21714978351271313, 0.04157970748702768, -0.10419148188604549, -0.1843314111775099, -0.24517717198296582, -0.265444387914839, -0.24529156180502043, -0.22013873420858274, -0.2104790299257049, -0.16832090976549524, -0.10076389516745601, -0.048335608180668385, -0.02065859255406264, -0.010742470415698398, 0.01542576783231235, -0.017054855211326415, -0.05253044065150486, -0.12484394378990404, -0.1536843961913644, -0.10695254779120959, -0.04555761950364019, 0.005012602002450752, -0.0217141915203536, -0.06710692836585862, -0.024808028939530175, 0.028619497103643855, 0.11877690294108796, 0.1760602838437405, 0.13502335784331335, -0.14514560531838125, -0.23821804698278973, -0.21310035053739557, -0.25301047767373513, -0.17083647534464988, -0.1296951806355743, -0.15794742956889798, -0.10782452068117658, -0.05343719968941913, -0.04528498962476753, -0.011419082260997271, 0.011260213104720718, -0.012940753654018209, -0.018880817895010404, -0.00477727370002961, -0.07489024995072045, -0.21578876592281812, -0.21363706261014898, -0.1426594436827788, -0.035149773286806484, -0.1065745707663407, -0.15435054455598912, -0.11272195450816536, 0.021845423219683285, 0.06825564572702911, 0.14358662195527863, 0.17341256476509218, 0.07219582277153729, -0.13117329943473213, -0.13409580681555228, -0.18249825752595705, -0.2745555012969272, -0.1497639152726193, -0.22004713815842528, -0.22484575496026368, -0.17921148334075457, -0.0910022632966005, -0.02620025851374162, 0.0021056185080391737, -0.002762671348739606, 0.002580844021745594, 0.013381081110097367, -0.008112733917728989, -0.10864176425510438, -0.24922957413537294, -0.2805691081275229, -0.22469565633644648, -0.16454421482293438, -0.1713469688343051, -0.09185544445300348, 0.05250071775205971, 0.0036370324222397645, 0.2426654117246271, 0.12562749533771322, 0.11437919482899832, -0.027959942782641824, -0.13354954723544057, -0.12620513673153747, -0.2408494909753192, -0.3077670879150909, -0.2298000069715453, -0.21984174639648535, -0.2339707885543559, -0.19169492142928363, -0.06841056888986749, -0.0027901128600038897, -0.011170798798237654, -0.004639801880126636, -0.018118907568150263, 0.00804681138323779, -0.008492182754736805, -0.11547939370489935, -0.28842332014344213, -0.23696960718909968, -0.1750700125733162, -0.12440889930762386, -0.17038740730689084, -0.1140411742233323, 0.10166470905757743, 0.18824118308608478, 0.31171376639847675, 0.10392344500332037, -0.04824340063245429, 0.010359025458730972, -0.17344509219362197, -0.188571249372074, -0.3744263193401129, -0.26933402236195847, -0.26972805863433286, -0.19704636672185843, -0.11172721840702715, -0.07675507994094699, -0.039159217737198576, -0.012710363224318044, -0.017204607794980013, -0.013039954148721538, -0.008932838282238524, 0.003853233219639249, -0.02303696031804234, -0.0752234278569457, -0.16548807678235158, -0.16538158272184533, -0.07972080856299951, -0.06084492969376062, -0.11876477732167456, -0.0023582129600373276, 0.05848548194835416, 0.12482307121157031, 0.1816464372196272, 0.07822717946280339, -0.06392280852278788, -0.16997591947921226, -0.3200442221096923, -0.3013025402883985, -0.3690532945473308, -0.31769042624246474, -0.2103423563898712, -0.12995978078232298, -0.09136824606108088, -0.07524902664503641, -0.0007061803191992354, -0.005570389943141215, -0.02096705104355892, 