{"layer_sizes": [784, 100, 10], "weights": [[[0.023082935199199663, 0.05326122150918626, -0.11292331297638353, 0.006781278871333389, 0.07474001037523922, -0.0504178364238997, 0.01200839267327589, 0.0396012598347482, 0.043140339998490096, 0.058816267306101525, -0.019968967606416647, 0.02506243276960501, -0.04518960118926615, 0.042199253132502, -0.06631662521554577, 0.02049068033410415, 0.07350962548747227, 0.003891875803874902, 0.08681901574459853, 0.09103333058027065, -0.033485484605081314, -0.014212799165333058, 0.05312231117698823, -0.06582807860417517, 0.06287379562752969, -0.0041082911660366315, 0.009958149727685002, -0.014954451098438489, 0.07005349739225344, 0.006993031649634336, -0.08304400570929191, 0.04695694240336551, 0.02567216113389102, -0.007617026547755882, -0.011923933014245238, -0.10363300978370658, 0.030723787066189723, 0.02446814613817534, 0.021096523939182082, 0.08078018546245924, 0.0042854947801206494, -0.0032991946662612017, 0.04986938376923966, -0.04847577759737033, 0.012328454796832117, 0.023820788048867978, -0.02212741797370035, -0.017252709310039194, 0.01439031770039985, 0.03854716470138858, 0.0693958992848218, 0.009614462472819935, 0.022808445278755734, 0.0446521316291533, -0.06996419296438085, -0.057370898037851684, 0.02603263419654795, -0.053731863478319083, -0.06481293671547035, -0.07825474814922845, -0.016803760742658165, 0.04046110603468823, -0.01244952371101011, 0.004877294516661161, 0.0262498870104925, -0.14221520365094958, 0.045876069616324684, -0.028286926320168392, 0.017924869918519375, -0.12297827760696033, -0.17528562202889728, -0.049555903948101575, -0.055760632967216506, -0.09569542118053961, -0.0067181120994441595, 0.012555996575108653, 0.04393311169794668, -0.0068882510608060665, 0.027869995200464612, -0.024251757690489928, -0.060709733905296284, -0.005261596748454137, -0.056744925050258785, 0.09123385270275883, 0.041912308401667916, -0.005778007553660446, 0.07317663730533619, -0.003995755949092879, -0.0721565621852914, 0.025361793447872136, 0.02631977062772449, -0.047576078118709564, 0.00566098739548761, 0.08049008235933969, -0.0668701444608725, 0.021498579020450246, -0.034548121015616495, -0.06415957842694991, -0.054758847050604575, 0.06426202038290012, -0.033607809922174006, -0.030544072503173245, 0.018946815120833845, 0.029391932496277723, -0.03857701327667971, -0.008288784556354697, -0.00020092519970421336, 0.007174342397685197, -0.03127177965283259, -0.05010037981294595, 0.009282744960395925, 0.05067380165679381, -0.030437576520472163, 0.010294897681875848, 0.06561865216845159, 0.033275735171778065, -0.08200617003640798, 0.055707220597711576, 0.07935460944303217, 0.09145026107267469, -0.04305764527536963, 0.022221656690953936, 0.00965003998977937, 0.07173977462513936, -0.20208560437167797, -0.08286780490380663, -0.09194273731805805, 0.028106593610737935, 0.0830959540220596, -0.06331640581553946, -0.03750753019183137, 0.006469122786257268, -0.11123386270213968, -0.1618165413309756, -0.15865256464589014, -0.03610984735130281, -0.014383531596869255, 0.0062218584732441126, 0.006695360277839604, 0.03387518913867215, 0.01189262105737978, 0.0517004097372621, -0.03826642776425683, 0.002535849195836028, 0.07343009424599928, -0.023729135776522612, 0.047711835165684904, -0.08494920538944815, -0.09650278570108525, -0.15936287480677622, -0.3562431080415848, -0.20392543594852952, -0.03288736777689969, 0.13913829844632725, 0.2724000180927511, 0.5136357752227555, 0.3447394665913186, 0.10031170986888592, -0.018033369261092003, -0.042503413112917166, -0.039439400451901606, -0.14157195572785225, -0.0990580909256893, -0.23503503475857743, -0.052923151026295856, -0.018482875875349872, 0.008313221709193575, -0.08840279327115758, -0.006999845167459529, 0.006651425638197159, 0.009701722214658887, -0.06151334550963444, 0.03267728152284096, -0.1717224604877658, -0.05517328676887786, -0.08455567550475687, -0.09191066253476396, 0.022670631641057693, -0.035241626557551954, -0.2546489503713759, -0.41276882497926626, -0.016536980725098058, 0.34470212321159993, 0.8400260584177085, 0.6973770594601848, 0.125602996243112, -0.15530109057902047, -0.061214739016325466, 0.023291106334371404, -0.0791885822695627, -0.23801635249173622, -0.18347963684771693, -0.05331311099526825, 0.06346321110508636, 0.02915709514917052, -0.06285013558126837, -0.05906595674747001, -0.007938678825361478, 0.0524059728084438, -0.11580339925156369, 0.03900870636633695, -0.17523436813325827, -0.2028163525096877, -0.24347470985702188, -0.013252915475840042, -0.04645725018833841, -0.1948838790798572, -0.5691661490099937, -0.39491893927496075, -0.08341609494919369, 0.40270158729385735, 0.7146608995833718, 0.4845386025522357, -0.18016852223346366, -0.2466660863578399, -0.1994094916436234, 0.09377705362096653, -0.020737189508725103, -0.006397673484268903, -0.07762119899339974, -0.0789690789063272, -0.131247872887004, -0.11028008070691163, -0.08263700098921728, -0.052021271399768386, -0.015445463278381045, 0.01217528130655304, 0.06853968151426468, -0.03794400556722866, -0.2503300950860099, -0.07526870610377996, -0.054269846373114265, -0.038469038262853715, -0.15448731978782357, -0.26092447596727547, -0.5113087623358683, -0.6770074637390388, -0.04923897724032005, 0.5022051121428844, 0.7734532946681121, 0.2555439512651701, -0.28125534970551236, -0.2317677767443455, 0.13502013559138434, -0.15115218857020415, 0.001714087447846574, -0.18743559572541313, -0.18287089188574016, -0.16062034290033156, -0.08197937225513827, 0.023330583293925327, -0.01767980186298033, -0.10291746127365874, -0.007917866655875754, -0.0978073577223538, 0.062221879614195945, -0.047314387172439167, -0.06568520883427384, 0.029313586009834594, 0.05852161071250883, -0.017540204801545205, -0.08330707663682617, 0.014829627951990833, -0.5919451438922536, -0.6600926448183271, 0.052006024505397555, 0.5638388279676743, 0.6546952679331831, 0.20622699721230847, -0.14207389949387114, -0.02269812410500881, 0.23634238377626363, -0.07488303620719473, -0.1443500459372049, -0.018032425804178336, -0.10738251184920206, -0.14521027504179895, -0.12375810757875373, -0.047383151562894986, -0.0028963348386695474, 0.004847861102678912, 0.040899633405848235, 0.031268857685105816, 0.01497554716428206, 0.12794693286352024, 0.019685993243428686, 0.25262051842023014, 0.09470314427710878, 0.08579066711716539, -0.11648808596929186, -0.29150029560459073, -0.7310606387792458, -0.5586848982020542, 0.19869958312229122, 1.0712000952413356, 0.7455683987780871, 0.2508728370524479, -0.2592137198010705, -0.013183005739000398, 0.15276771442351458, 0.07765339213309924, 0.0697548427213944, 0.1573327520529933, 0.05001566356467728, -0.13901577936642243, -0.09803108692568473, 0.01872312830240933, -0.003684821814792958, 0.011370427136620617, -0.019160576306294, -0.06505335806268454, 0.006358292903696972, 0.12547120473114065, 0.08711648405123949, 0.0021783699560061452, 0.13506413009144824, 0.04091074045171539, -0.12487793606571902, -0.45892756975163046, -0.7576407068969759, -0.5071060367333852, 0.48963030363418647, 0.8838006329412254, 0.5650347156522039, 0.08852157816074871, -0.15855395824957527, -0.11189918132957599, 0.1042372242930553, 0.3391343551328603, 0.2647602790034073, 0.19361652478760386, 0.1571146165478967, 0.0991252235817029, -0.06776131322145461, 0.031189699830828446, 0.026574376709954273, 0.015621718006273974, 0.03167062019790656, 0.054357682022897244, 0.07959781416318462, 0.11580762761679164, 0.1391212457443513, -0.06619267556477752, -0.06456044009141304, -0.12870169018115293, -0.221386281133292, -0.4081474449637917, -0.6824624941209024, -0.13591655624706164, 0.5210245966058332, 0.5769614469508164, 0.2695683394977632, -0.0022835027317055934, -0.10989546631437606, -0.1266600217761462, 0.11418491550811705, 0.10848121529876377, 0.17785218684613738, 0.09588325116322853, 0.11102121675013361, -0.025148620454511862, -0.005526445794131103, 0.03335704653595461, 0.004659680855707647, -0.04193352284519457, -0.014170886861660922, -0.07657206663065255, 0.07715296535723967, 0.01391323721156224, 0.0053724471426334405, -0.14822914541991952, -0.2105426895417123, -0.24955910127044015, -0.1688930781742729, -0.20411656409288628, -0.24129688515790668, 0.2707986613222214, 0.6657729212450297, 0.4380144701013827, 0.20149163493914976, -0.028394136762886973, 0.01680086273714968, 0.029783108373425068, 0.0964251126079865, 0.11683350447151444, 0.04633837597345888, -0.0737164199155506, -0.21582387788525995, -0.09651916886757783, 0.01835919338079861, 0.08571291079583176, 0.02827154009208888, -0.05541069304813965, -0.03964432250337378, 0.03225835515005804, 0.033441435745704844, -0.05038575961104937, -0.3214130781933138, -0.10958686037849542, -0.2126464276234175, -0.04365171121213724, -0.1279490807663795, -0.2679690028293015, -0.13612921704790176, 0.16308116069624845, 0.6737286226801779, 0.3775305162740213, 0.025475120723294043, 0.017023398009306676, 0.03131948415982699, -0.10185533225345815, -0.14591395036089339, 0.06412489358438746, 0.01212451700688629, -0.14077569470148535, -0.21319744906898558, -0.09501055255131194, 0.0734305483655783, 0.09950077382222086, 0.014825306394666386, 0.008637043937353, 0.011649660983586677, -0.02422295141401968, -0.13698309576722464, -0.13389130100024707, -0.2141463505500553, 0.02279578109925764, -0.05914922115823453, 0.08191321456384104, 0.09037921831318156, -0.2289147606883358, -0.09658604854212055, 0.15802135541550913, 0.3722942644492236, 0.3389527758872216, 0.1389127883067405, 0.2981296019168645, 0.041868220646430775, -0.019554514557306002, 0.12292494954635826, 0.25875153752666197, 0.06097540793508819, 0.09673996773677498, -0.08567939144832434, 0.0247724358734517, 0.2574205653502923, -0.01653934143710224, 0.04194506496531336, -0.0727362206898924, 0.030726762823152596, 0.010343775650901013, -0.019944036720997833, 0.0637876009753029, -0.01598889928525969, 0.0512447058151236, 0.01716565967617914, -0.05345521671062998, -0.004643749583612986, -0.10054274214940169, 0.157481449327867, 0.24683216947725964, 0.49851701748766436, 0.2607471551514453, 0.2120756120738362, 0.376051471108938, 0.3757393210702466, 0.2805226350308633, 0.04748577232569599, 0.1558563160806786, -0.10966703321822345, 0.009757544665471227, -0.003179903317684534, -0.028378720515970898, 0.04378356637497023, 0.04056817766609726, 0.0550674116771803, 0.007036211270743774, 0.012880152083245907, -0.056842925247493827, -0.023564640760728305, 0.028223688975375895, -0.05547918893244794, 0.06832180890553224, 0.07540009265513235, -0.06119209605601267, -0.041213837406114326, -0.04958019488927011, 0.07690821001195396, 0.19337848822089695, 0.5365994977516235, 0.173121439555351, 0.3899039019239313, 0.4086739733490583, 0.28253901336586423, 0.01694070050548601, 0.03771636915388284, -0.056429018391664316, -0.27083643912359034, -0.09468873648008208, -0.0936045386956206, -0.04220114088049826, 0.054002902112940294, -0.06314056841907416, 0.09599151815836729, -0.029079132007479608, 0.005191302211904779, -0.013886466048119812, 0.014411745569672866, 0.010465188427808815, 0.01218210645815048, 0.08018873131886954, 0.13324185161898858, 0.019474623215761162, -0.10409521466204978, 0.06418446736146668, 0.21101107381772513, 0.31200621992603395, 0.37798603377952034, 0.07941071273259011, 0.19974607937656116, 0.21094226329233112, 0.18333955513964087, -0.15971103757274543, -0.3241248098810634, -0.3055480450616607, -0.3948424288723775, -0.18676032929478328, -0.041336872171875844, 0.030232097253286447, 0.10985520729215095, 0.0370156808679944, -0.019419846001380654, 0.04804810340296333, 0.08305079773138022, -0.0005069579420490666, -0.027106015916049435, 0.01034632791026975, 0.022798586794310526, -0.01662821746671848, -0.06129148020286674, -0.026844282091341598, -0.05787322633472328, 0.20764657071989623, 0.13970083716654452, 0.13446740154634337, 0.16394455727044238, -0.11215640747539513, 0.227508053147671, 0.3100941841860709, 0.024157230517587253, -0.04622147041347468, -0.2860499617916994, -0.20813660760905883, -0.24430591060358106, -0.06930216877661909, 0.05175653485140299, -0.030201116591760366, 0.04560132641253811, 0.07017788948183988, -0.01793353519161847, -0.059232432342282246, 0.07595567997296725, -0.003470455694981104, -0.02891207244234908, 0.0827714078411024, 0.09183991115105745, 0.005910636756808907, -0.04484651836455821, -0.015456336539421436, 0.058073869291922625, 0.15372319435729642, 0.13556069914684532, -0.19735449278228406, -0.13772700142501976, -0.006745796883787807, 0.15828615010228025, 0.23543008012350222, 0.06869027332769959, -0.0014211014808599956, -0.37244101831665294, -0.2303027817745869, -0.10944136901633937, -0.14444763708203415, 0.05158937190252523, 0.14416326575705155, 0.06062761256978426, 0.06617594915330804, 0.10264672817040246, -0.05355732666124943, 0.1391918586891724, -0.062257669301728234, 0.04210424111442854, -0.05364735929896801, 0.14943813349159893, 0.1403493618752713, 0.2238665210584134, 0.06325220582926258, 0.19155122091794913, -0.0629402590456952, -0.09204565819642302, -0.21883711533406017, -0.15205606174136796, 0.08141490429613074, -0.06889439035071253, 0.10984741216715697, 0.07722831728023952, -0.11678168416421719, -0.14786946189794983, -0.23430436941287466, -0.16534180948006197, -0.15268012575062456, 0.019919951593032448, 0.061641278954492805, 0.003106063415414002, -0.01524128431819319, -0.03019819689110314, 0.052875148876428184, -0.0685259706531554, -0.05505690498259334, -0.023800673965835625, 0.08149108180362773, 0.05815087602262047, 0.15816462903344758, 0.24195082223034442, 0.3241964465389841, 0.2298962667005336, 0.10554010628968442, 0.07439034367301027, -0.014131037323323168, -0.23484464748634204, -0.03404329873020334, -0.2821133428803239, -0.1713695372279173, -0.0783269554092073, -0.20820987029283217, -0.24440975425098635, -0.041823835521635606, -0.15837663086583903, 0.07035887194449758, 0.014634855329071373, 0.09382486173952988, 0.004271555483574411, 0.025250627136516705, 0.01841593674382522, -0.013336919842722063, 0.010873567198211498, 0.07207339353765155, -0.012275540892493443, 0.10329801150762688, 0.0728059406562597, -0.022375097958596282, -0.022189712763877097, 0.27083230428496136, 0.13519925231026944, -0.07634281481331226, -0.005611244785331836, 0.032334744141026835, -0.349105396470702, -0.13136947465526633, -0.11601580686234271, -0.25778939927912325, -0.006408879854038958, 0.04207666332766122, -0.05763726392560196, 0.10495816319581694, -0.021350052337210816, 0.07917388122961885, 0.07512203249940864, 0.0019893094759682833, -0.012967182021091875, 0.06412817046998377, 0.03191151380714397, 0.012225440594346071, -0.006911927070345891, -0.043445454661835005, 0.05938638840258049, 0.04848665451319787, -0.045575144401165224, -0.07015270953344714, -0.07425639013551558, -0.05868448947000216, 0.0073486050229733795, -0.03274686038981421, 0.049328419517720164, -0.006471678274435843, -0.2319888398348351, -0.04797340929631647, 0.07809303647304197, -0.2323608423433992, -0.14593000312911752, 0.08311743190950885, 0.15019104836200461, 0.11432730846739148, 0.0784033407425557, 0.048101006286068115, 0.09121264743155, -0.10219026550829065, 0.07400709437441469, -0.010443931324836746, 0.04263793434664829, 0.06102896379670627, -0.1005677754411997, -0.03493630916667437, -0.06056229510511555, 0.05276946068710042, 0.05766741987765123, 0.061200813598975945, 0.02726772013483209, 0.033676009314688664, -0.030109766666972904, 0.08734383441440183, 0.006331525000272895, -0.13480002946164618, -0.21709652762085527, 0.10432956241061293, -0.08355504821171739, -0.12242892922982196, -0.004927146212004331, -0.09892898844781167, 0.14370709658782982, 0.16340574802677135, -0.045778015671889015, -0.10088497452828663, -0.0436813032777781, -0.07518535977181674, -0.008746935584854983, -0.049313642764816694, -0.09275424126267377, 0.06994544836948655, -0.035974396941014515, 0.004391465895579697, -0.018346830208163557, 0.0321907742508557, -0.049297160269280216, 0.02771809784996886, -0.026217434764585466, 0.039595373720109475, -0.002669873070684945, 0.1719145308958253, 0.1265605150137824, 0.018077790912507663, 0.004508058967711428, 0.22818230312535004, -0.02437585500993256, -0.02407237897018419, 0.11453567460581936, 0.15465144535712835, 0.04588829481614815, 0.1825778280275393, 0.007320867912199107, -0.021204580506366408, -0.03452479678928772, -0.0017875319242580392, 0.007817712682445641, 0.032304110983090925, -0.015457487191175479, -0.033001371558407946, -0.042457276044584005, 0.0001171961195766864, -0.004671000280533022, -0.00870067550118914, -0.04972355640155061, 0.013297894882231152, -0.06857671889007656, -0.05013862086247609, -0.08157862592274644, -0.08504138790896922, 0.030532616415927756, -0.013134395557212275, 0.057097118317268394, -0.062203142702400446, 0.020611724311130366, -0.044898435788075564, 0.046558181419002524, 0.0515463003385845, 0.053883749877255506, -0.008330117190871527, 0.019011539392503694, -0.012492814732120843, 0.001569908572320329, 0.03550607687994402, 0.042552226883460005, -0.010511149555297337, 0.04680049193078243], [0.0783674442792104, 0.03859820187517486, -0.01967005468269788, -0.002360662699405678, -0.07699940189164188, -0.039426133783281796, 0.0014452185569191571, 0.0722358506414017, 0.01781669968184147, 0.021726606935112414, -0.06852528392190857, -0.04672982634613114, -0.06333758546790753, 0.013994915638878436, -0.04086358166629272, 0.047612985770579874, 0.014857765376718391, 0.01860942940911904, -0.03672440552732697, -0.01985743844363599, 0.039752387093736845, 0.013512465358268796, -0.02961855049922087, 0.08962254380093734, 0.004778638168330794, 0.03115118910195209, 0.02518956852148644, -0.11841649175026092, -0.016066599659696576, -0.05916375481806423, -0.059695925373642156, -0.05811263082556368, 0.0792649533345879, 0.023023378639674276, -0.05260469876158232, -0.05166262341797215, -0.08004878953524526, 0.04165248430881097, 0.019030005952327386, 0.021800345578510464, 0.09993476737095125, -0.03652389301414799, 0.007880219744740055, -0.01196610061137817, 0.011321015569327901, -0.0386239778003715, 0.021556801263039906, 0.05590119598379456, 0.046616248384273855, 0.062415951071703966, 0.0014437103843470446, -0.05469706908072013, -0.06814031028787484, 0.013718935255080613, 0.08022240511565233, 0.07716875044963786, -0.017892837973358507, 0.00791174912379167, -0.0061523247354308645, -0.009544119444407504, 0.008300270713572139, -0.018038186329026155, -0.06959787871863107, 0.03382917232315391, 0.030933492637423652, 0.06010252252961159, 0.02051282062958521, 0.007059296795790815, 0.07994920217960409, -0.08540314414655208, 0.01872866015754382, 0.04048262159753329, 0.08749895483897381, 0.03663811812423176, 0.10433995830432083, -0.009303455866898942, -0.06673816730175992, 0.0910148031610086, -0.027740218322514998, 0.04974019993274202, -0.04503948044537266, -0.06661617249742405, -0.0005102025645991732, 0.02665579800020165, 0.03812018282043097, 0.03400623309995358, 0.01936761882821658, 0.054848182213960296, 0.06533521167850859, 0.08473880510521055, 0.030377384127875988, -0.10587635747005165, 0.11088492327361532, 0.09250099740272252, 0.07464463780135669, 0.04422270476038043, 0.03368272554530275, 0.017474245801378473, 0.0709829186170872, -0.013265679538091069, 0.017934385528897392, -0.09369401378665555, -0.06715472701635361, 0.04636869418086937, 0.0027804325076624336, 0.12739712414854756, -0.014401349222507407, -0.04142666858410481, 0.02245725411724576, -0.012096227600193549, 0.024307207624707547, -0.06597953853255334, 0.006268241853332357, 0.0036759225054471224, 0.12839909546278053, 0.006332827088983242, -0.008068388008943755, -0.044680324355835604, -0.07938329749471298, 0.10702235922149222, 0.050149646650050526, 0.12984884546315595, 0.25823749682157243, 0.08982435909788898, 0.054172399139842536, 0.003784610138279346, 0.07262142516322868, -0.03474619927149483, 0.007907431469162727, 0.14357584694962292, 0.03716354833007445, -0.048389287223041366, 0.11458470098084945, 0.0384057633973595, 0.07333907759764147, 0.011030690937812018, 0.11622838538367578, 0.05490194140241046, 0.04656628521170852, 0.025663652038219208, -0.07429824691979636, -0.06453772118668023, -0.03951166447870823, 0.05974900819241288, -0.03933994744290407, -0.03129762752213362, -0.10222256841883258, -0.023259839967534852, -0.018473181527815716, 0.07647952264804622, 0.21279199922002429, 0.1337765201500877, -0.01585504113590191, -0.2018381365913331, -0.07573300703323557, -0.2621629176785214, -0.017838932326294243, -0.12808729183848128, -0.17474003948924122, -0.13141255657925, -0.08527423413369603, 0.13374227029736224, 0.08171909626551042, 0.03548858639422168, 0.04963262271087184, 0.002425151397654537, -0.04553251387053723, 0.04889408934066877, -0.0005780389959108637, -0.060892653990639097, 0.03510798469537899, -0.02094698163322752, -0.09112446596783481, -0.05300901165300324, -0.10854293004019792, -0.0003791195646413528, 0.061113924227943595, 0.07782399904472494, -0.020555031631646726, 0.009688666210134676, -0.16467678724705487, -0.43266473452243553, -0.3099749522209411, -0.3973387892075706, -0.3473804398620534, -0.3240646208690211, -0.294480252589253, -0.23791988205767625, -0.16754407977017863, -0.10206989841512039, -0.059017454163870844, 0.026850775367817267, 0.07599154944765663, 0.047233487020676715, 0.014318269685044082, 0.001072273008958686, -0.06076286793872191, -0.03919018435997466, 0.0436685632925929, -0.08701278846653222, 0.008015748638066759, 0.11589339383639315, 0.0021495332891514223, -0.00940072645113334, 0.2510956281757256, 0.13818632748988957, 0.1365308454914996, 0.0010034800562900778, -0.3935740260627467, -0.3456284436562806, -0.24442789290575806, -0.2062146552337138, -0.0955838053534237, -0.20336882167537945, -0.2334544690239342, -0.20225784905457808, -0.2799446944346473, -0.16224354768650132, -0.19934526796980293, -0.049809933098438126, 0.00908163101396976, 0.06823447647999085, 0.1311780112919093, 0.016991040963997665, 0.01854769962739007, 0.052104403477255284, -0.011698467973148132, -0.04678801948740548, -0.15769277167418205, -0.009780817077521379, 0.0709189708542228, 0.20894684749645845, 0.14427853824861886, 0.017758226889582795, -0.03411194899298064, -0.26297260523337784, -0.27726539811656187, -0.11872408232157754, -0.21611409290040998, -0.11485497585971473, -0.0908840054162113, -0.12686815936971096, -0.19501281583369298, -0.25069722854178583, -0.258987338294333, -0.12068648931530118, -0.13807585881314713, -0.03704693716532222, 0.05743523801331694, 0.07175446839682438, -0.05436149304521553, 0.09798376023535466, -0.0902199580371112, 0.09451948180435191, 0.009844092861974255, -0.009839864374074475, -0.06841146044164723, -0.001256479865775526, 0.08152007336930372, 0.23168959415019805, 0.018268947499348306, 0.03937935817573645, -0.006782464807369609, -0.23460270318483034, -0.3863411374088941, -0.38925883490507535, -0.2184362297218782, -0.019753171692328153, 0.048373001102159335, -0.10406788798608999, -0.07295851664049659, 0.048136644255842506, -0.013651387589693458, -0.13473464300753, -0.21233262177470963, -0.06395066964658482, 0.15419171348225488, -0.002256632121106778, 0.0081074340180694, -0.08004050305304673, -0.013217215409923308, -0.04860752825614952, -0.12676961039070928, -0.056247393971292095, 0.07593242800228354, 0.06679681226702237, 0.0761141322709333, 0.07049006353573849, 0.15568227945710986, 0.15563289277782844, 0.06849128628736977, -0.04369919653831019, -0.29496808424859206, -0.4560301554220681, -0.36254920973131416, -0.037854403004660114, -0.051801535226367906, -0.03258542746184909, -0.10663331761778752, 0.041656879623573395, -0.12772728526179897, -0.10873951707218346, -0.11857079239921713, -0.10995465263625862, 0.10962341528045044, -0.17207775449880972, -0.036009598119843195, -0.013759363743935797, -0.0362575280715611, 0.013512156593229484, -0.06186628010143679, -0.09286222891157433, -0.09144809936638058, 0.013728634547397093, 0.09050363533645588, 0.08083981008548986, 0.0897711353927853, 0.09944468440759696, 0.14877918623742986, -0.011356027916726233, -0.18343249047803378, -0.46815188748244074, -0.5153190506700831, -0.3109908128411269, -0.0611539976798729, -0.21327211692330497, -0.07030682590130245, 0.09840699391384694, -0.1109859596855461, -0.1563745758386691, -0.13951806305659717, -0.11814177383736665, -0.056952364701527376, 0.07626333941293666, 0.06984278291684194, 0.015425745832309259, -0.02633886642940459, -0.08428500829573554, -0.06740537674180995, -0.0014545345488253519, -0.17602692914907875, 0.04837007209703839, -0.005208926075425495, 0.21643905180079132, 0.22565290316770417, 0.23643994543371477, 0.12291833523805501, 0.08071769905760166, -0.09700654911697386, -0.3560056310197566, -0.34964005842829454, -0.3917948264397687, -0.12319217752786002, 0.06907849435461082, -0.1807532256683528, -0.006004052730780678, -0.1542495660362234, -0.0717466669360012, 0.017019409488918464, -0.027952455391189485, 0.1616613570273164, 0.03927598584651668, 0.10133553254276137, 0.06625404951463808, -0.010966463750467283, -0.009085689491629063, 0.02724516314833507, -0.013177533045830588, -0.08250624662615386, 0.028239071747244993, 0.15049191458946304, 0.06213842129485299, 0.13997844013629365, 0.054814649932691584, 0.1651905343720733, 0.11733001784880856, 0.14077440684645512, 0.005045625522665441, -0.21807052665112456, -0.048922663087220035, -0.022217731480000565, -0.1383878173196618, 0.07596990216823131, 0.1251809548441081, 0.08685647307261105, 0.13894708263351305, 0.09953257541216774, 0.10777903450373183, 0.07504051249540633, 0.058142037613115885, -0.013967520523473827, 0.028087811692014786, 0.06575035280446409, 0.13619432535306691, 0.061094969365707054, -0.010128942849563713, -0.032387108187466734, 0.06527965410819252, 0.339056968609129, 0.3364235116633944, 0.12959222692954572, 0.13458562133547902, 0.08464900520568036, 0.15023331903776455, 0.09685567033879858, 0.03949516395173794, 0.015096477342041868, 0.08684878608499512, -0.009749909665164175, -0.09010460512910862, 0.08699126567568044, 0.05369661449447456, -0.08945519624701441, -0.016519217018102998, 0.060397217579091514, 0.09896011523298588, 0.05051541111535442, 0.06280707244581876, -0.051033494661514536, -0.06524897263158924, 0.014849235122669084, -0.08039525657312177, 0.009977136009395525, -0.021175224411380436, 0.02798903890130621, 0.05312381676917351, 0.07671770497791702, 0.21709699108223462, 0.19266313923460543, 0.15814726402840948, 0.03831910118083106, 0.15482790200410007, 0.22595364430780454, 0.1894443444679026, 0.22318334854308616, 0.034973422387071, 0.23350723529288556, 0.06465301258175574, -0.01802131670094804, -0.02171704026434516, -0.010233574604617681, -0.06104938718326753, 0.04062535923368651, 0.05890724471369699, 0.03190542825887109, 0.1362240602020527, 0.04180169621309461, 0.04448704353968491, -0.05940490583641756, -0.009830997996590892, -0.10454639042992792, -0.09733779074729305, -0.10527000822624138, 0.04359075177651133, 0.047175436575744564, 0.030003441566423726, 0.010449645063062231, -0.18168948332262203, 0.019264446247388486, 0.04757552893670981, 0.22869887134492578, 0.3124449453519843, 0.1228091833663741, 0.20277931989612605, 0.26542811639951924, -0.010342330458437509, -0.03945002963465038, 0.07939286727617534, -0.03794097347138577, -0.062405772604417424, 0.08530805049177173, 0.09721864431899219, 0.06728827189128181, 0.08486754054768297, 0.024391256660750385, -0.02447124372558533, -0.016237790914803006, -0.04005031314154443, -0.04679049425243568, 0.0032569457135746237, 0.08977776509273716, 0.0815826530143503, 0.05233144643619818, -0.06048494776212022, 0.03645291572152166, -0.22261699112794373, -0.19787911966091842, -0.07828789395613132, 0.22099914558789766, 0.4660117624377429, 0.11433647283608078, -0.04018473188184503, 0.12357603517787327, 0.03769268544563681, 0.03175464135131223, -0.017380604025570855, -0.007823481422049154, -0.007517143508797965, -0.15403651788789818, -0.0007004707244505419, 0.0006770396751720603, 0.084089013771568, -0.057748887875117005, 0.0006946754621628606, -0.023673160607863897, 0.038634851615842236, -0.08782525383514499, 0.03232287322798825, -0.016868802918292555, 0.01045447635715919, 0.008946853267646156, -0.10621268062891212, -0.1840971309363882, -0.29683935296511355, -0.11645077870051705, -0.047687728695319016, 0.3790712305127804, 0.25738612499431474, 0.16039816791991876, -0.0114330876457528, 0.05870272941298615, -0.09860615618949757, -0.06582716405864492, -0.03807076300438097, -0.08323550647350851, -0.1194300080265428, -0.1478936211537189, 0.06634731544727422, 0.16932453918957702, 0.02402684955465691, 0.009718462222641753, -0.015737154892142047, -0.0620738731285137, 0.028061658093508114, -0.05849324339524348, 0.038071071448989455, -0.07052628158039158, -0.11621809121850828, 0.0628992616950503, -0.16887034014835478, -0.2369026913882502, -0.21558858022239782, -0.039614204447844, 0.18911105596642663, 0.39472020301131977, 0.18718922717551387, 0.13333866345327083, -0.018115239964703524, 0.017775059700167694, 0.016652375540131558, 0.031566260092191836, -0.017997924745996947, -0.07906578864192933, -0.0952423162527352, 0.12006299253995542, 0.04221472658263011, 0.012673309836349072, -0.036333975411368555, -0.002448991614005918, -0.029425159359569488, 0.04219178498910877, 0.02402958458711219, -0.06431344573892615, 0.031229696588093898, -0.07390346731254081, -0.0937660369729166, -0.1884824906256948, -0.03206309597595901, -0.08720815319668505, 0.007141089143870981, 0.13476009551933213, 0.363017721024437, 0.3807939774131207, 0.28521347025337884, 0.0756224097453533, 0.05832088455832499, -0.08854689941804071, -0.10175131267396656, 0.13487620177152207, -0.12230743942611999, -0.05361523325782747, 0.1313717731938402, 0.0948256335204652, 0.16230432341629897, -0.04552851072109752, -0.036560304199443325, -0.05463069987822312, 0.03979252299597576, 0.0200701583419763, 0.052119217764461635, 0.09024767698220258, 0.03703571507208723, -0.11056911064382458, -0.1668548746391211, -0.08049430559758429, -0.06871504492748319, -0.019245173538906268, -0.061539179405502326, 0.15378444075439368, 0.1848835720679046, 0.17289851109402984, 0.24124100390203979, 0.06336387477135043, 0.017804364825503637, -0.1195100386179337, 0.19233888829796622, 0.07163612335696187, 0.13749031953474042, 0.03031060385457346, 0.1082672228547898, 0.26375603401059644, 0.21328726573103712, 0.03610586464668889, 0.08214086243713117, -0.012520573640048448, 0.026250331308670626, 0.02564385223156361, -0.06322794111384607, -0.01739612723001351, 0.018760482677437976, 0.028209230731617876, -0.061800024897315814, -0.08798316783979208, -0.15256520962303732, -0.13202915998582562, -0.015865114325349497, -0.032282822845141085, -0.03064249215035685, -0.01845515137591994, 0.01766550476957499, -0.016962375205540305, -0.16078453871827683, 0.014320681166665475, 0.018948915011442306, 0.040312704086052864, 0.19600332646343108, 0.06167101443451785, 0.09678186859380233, 0.17938289184570533, 0.2327635129294448, 0.07808244959949691, 0.004567409788685676, -0.01696714650684315, -0.03604747215567129, 0.06059940518302723, -0.03705118622446271, -0.08963084608284534, 0.017506480211715556, -0.09331105911536162, -0.08159919403471502, -0.18753443491525293, -0.33013742614193103, -0.24067005050686932, -0.2732073915326575, -0.3281286969498435, -0.2839912583886337, -0.30932973666794805, -0.21560813126858372, -0.16296682585318525, -0.11781095838699379, 0.05339598730431735, 0.02261007379676115, 0.20597694777291298, 0.1603595159793182, 0.27001167830830736, 0.26250125621744547, 0.14894576834727186, 0.051196790833654963, 0.05811642244947021, 0.01617454555433226, -0.08232140754927227, 0.06000295154171568, -0.004956663830679875, 0.028804426745129823, 0.01497438681963302, 0.052769667870209924, -0.007276079928677848, -0.11842922381330559, -0.1947713734907789, -0.26515767440928745, -0.35241894182018557, -0.3319299497371639, -0.405725756946969, -0.24198789615390248, -0.14871488572332064, -0.0287707411916579, 0.018732269364503597, -0.016740615598407955, -0.011556865036378523, -0.05062157094281552, 0.2066515217093883, 0.11740626558692085, 0.10191677287240808, 0.10908286017374823, 0.036310792227380345, 0.05066028306410543, 0.061178401712982375, 0.02634389654159845, 0.028579678059395163, 0.05827847619354539, 0.06409856634986395, -0.02528645381560204, 0.02027535849510136, -0.007223963759578086, 0.003250420579449807, -0.028218723602634728, -0.09969149578655313, -0.034139400141621104, -0.16182843193235535, -0.2177264661758595, -0.18710654840202742, -0.09741581215079895, -0.05514601044562036, -0.040218530582437566, 0.08626749998777367, 0.1887218219605105, -1.3270102228475102e-05, 0.11254760172340207, 0.0750461725615606, -0.019532705808492354, 0.03098190022778396, -0.025473785831928455, 0.022851699677720976, 0.008009402798571414, 0.043518865874926614, 0.02717803892524583, 0.036839820420113946, -0.010583327893253431, -0.0734637379628566, 0.061127488703449646, 0.0076251418214597815, 0.12574047562172394, 0.05134211370809124, -0.029973971152224124, 0.060996400469374656, -0.14475204126954055, -0.09009179975292486, -0.1415692468896098, -0.14057288062974477, -0.10260683496446259, -0.012358026526879482, -0.17334513340394467, -0.20245713596998496, -0.23456469017982018, -0.08411652576410714, -0.1636353349522386, -0.19353592397479769, -0.0010844114417246893, -0.13459400111359932, -0.06130196192021775, 0.03779041712272606, -0.052041262962064516, -0.0014575497303355388, -0.013539016398634621, -0.052272163443668945, -0.06902518881720524, 0.00952809424277071, 0.07246262034912333, 0.009188225442332842, -0.036662706478825455, -0.024542461089137588, 0.1033355704475331, -0.005347285131785789, 0.029607416005704403, 0.06772917801277686, 0.022875813224339486, -0.07822456768889688, -0.008824063633850276, -0.016101626257345073, 0.03713005763143856, 0.038293547207449895, -0.03887062224785368, 0.011727606422360783, -0.05582120255353101, -0.02772003183200274, 0.02699543838470285, -0.02930599190641069, 0.017344434560720885, -0.016105941747928013, 0.0011696801487544252, 0.05221600989405087, -0.061738478264618056, -0.019850639384056394, 0.021187156556935146], [-0.007991881585783093, 0.028814044729601904, 0.02752392124968063, 0.013949561150101151, 0.09144702063206646, 0.04825978519083962, -0.03351555667128781, 0.11773687891657733, 0.026450870738217513, 0.005948895017978568, -0.03450931448594418, -0.17241605880525288, -0.13785142661737845, 0.07982423108933465, 0.019893850963724084, 0.10990006986625302, 0.05413622017071842, 0.0426827831785707, -0.03346135270259273, 0.07898684261045817, -0.003807764495136104, -0.06602732999293438, 0.08400484421029032, 0.05723078016855816, -0.08510045507531619, 0.007305350204361094, -0.0920214130601237, 0.0035106640208968916, 0.05973339740569971, -0.016368716755782685, 0.006955302201454916, 0.03519870045531458, 0.00024203643084044646, 6.183760539720606e-05, -0.0077696165791248375, -0.005824521744757476, -0.027499478850269734, -0.05824990091006023, -0.1487105092919737, -0.07426384787208638, -0.02566677715750135, 0.0363446522326424, 0.0995805005294439, 0.020152106627700218, -0.10008353054942735, -0.01488419203678326, -0.03251845706115548, -0.03242114159786948, 0.05080150958226969, 0.03509743693141951, 0.010969224511828033, 0.10368237892351655, 0.027968199207131277, 0.008202650454610107, -0.03474899159895978, -0.020375928366262584, -0.06421688655126451, -0.009056602083913701, -0.07245439553186761, 0.08438765422711317, 0.05500741425266735, -0.03655503243814192, -0.09222799516239859, -0.08528528332883842, 0.10768366433070382, 0.08636361476871698, 0.01565586976653327, -0.016150003137464196, -0.011995236022856128, -0.05754410336191523, -0.02255978669098137, 0.005530578005344641, -0.005441811864384593, -0.026617546250402673, 0.08123943407217271, -0.034893293577022914, 0.11209451248913052, -0.07837883625069535, -0.07154293366190094, 0.030729612907986044, 0.019208823912332366, 0.03375508027194072, -0.11321880667599779, 0.049430485081202666, -0.14994916822239887, 0.0012636720036596802, -0.010086018649357998, 0.02243343791564045, -0.0027379584272140198, 0.020507242740360396, -0.020599191018389175, -0.003663784501032946, 0.13165699841191095, 0.07680327460544378, 0.12045280750574283, 0.024053742401594976, 0.09303702699355461, 0.08657462631929772, -0.06476464820642425, -0.03331205641963779, -0.05270852263383303, -0.06211105631953107, -0.1187603093284457, -0.004637861136082978, -0.16409357054095539, -0.04428220292058002, 0.0703962517612917, 0.06729580353255134, 0.035877878411459785, -0.02242985131660488, -0.04103850680220027, 0.0277846204493227, -0.022073609464522, 0.01891339771505068, 0.018442687356849362, 0.051463633000805614, 0.01236792981575894, -0.08310967697037988, 0.0025549026199123475, -0.008225918782623094, 0.09544244871291581, 0.09408505299446528, 0.037206997572778906, 0.11967285124185437, -0.04160379519481511, -0.07505625663990549, -0.19327252886148552, -0.13708667519749684, -0.17535854050884148, -0.16578230819429599, -0.055881095968398777, -0.12159030984088286, -0.12754861257021557, 0.020162261671448658, -0.07081903580569099, -0.015411005646740418, 0.008578155769599485, 0.045073602987222225, -0.0518272205133812, 0.020396846701566135, 0.050219383658143026, -0.021653485022809282, 0.0067094590847873595, -0.002191114031451163, 0.09988041411249897, 0.11435930347425372, 0.07313114089791793, 0.07606991820009609, 0.031460473219785345, -0.0133864920143649, -0.14949183228963106, -0.0843050383561503, -0.2609504457878463, -0.5074582792485217, -0.36237833562619404, -0.2673451740786658, -0.17024323924813656, -0.22372671483161372, -0.20151028668679444, -0.07332052483998064, -0.115477291516723, -0.11007090129889341, -0.1356288727565805, -0.011618595962145007, -0.10696613231837641, -0.025622601209854323, 0.13789043357455766, 0.004800355716529097, 0.0050652928276573, -0.08436644864603068, 0.0524269256327406, 0.05887488165572335, 0.09882910541863746, 0.10959548636042689, 0.06546203279662148, 0.06768234900856633, 0.029484527905557483, 0.10340505965652409, 0.04942514125280312, -0.1202050971063837, -0.2586210222493883, -0.11326834260409302, -0.08068991036404272, -0.047744216599475135, -0.0517467481157715, -0.04141941270018851, -0.05767459472491264, -0.22503197648176776, -0.1907984074734139, -0.13806907888149944, -0.10780382226391326, -0.12648061208038916, -0.11067559601141815, -0.0845809886000505, 0.0007707636687057161, -0.009225094068428353, 0.004774235064628419, -0.05061117206678564, 0.1012336473070017, 0.10369435170908341, 0.05367387289878238, -0.04285851343280082, 0.1295108608640847, 0.22194461011469654, 0.09890517904932247, 0.11637367380816724, 0.19241060022501696, 0.10003331640986213, 0.15701918735045037, 0.21616202581715951, 0.38005115883207397, -0.052104140484751704, -0.18835702005564295, -0.19744881916595228, -0.10815522022174809, -0.30808920241927945, -0.19281177844199243, -0.1864542364594956, -0.2464951465762496, -0.10015055756751937, -0.07584273917630234, -0.05968948524495901, 0.05055257219182543, -0.027377780723858897, 0.007058661087272923, 0.07572541692980973, 0.04074349021311556, 0.08047563148498504, 0.15935397639425739, 0.0936406691913227, 0.06857542886703587, 0.12168117097973345, -0.010568553188406082, 0.11835650878448974, 0.253383943740981, 0.28235698889422983, 0.45500585961505663, 0.36578257902361483, 0.3786288983751655, 0.16589604847866013, -0.0016796040874193187, -0.004551883714081578, -0.16985779133297993, -0.27805921669956607, -0.09862931598092146, -0.1480460417646192, 0.06057034454682241, -0.09169059190421915, -0.1151011873088356, -0.11026531077181695, 0.1007018080176509, -0.00448316969862066, 0.04823155111502059, -0.1359272542355993, 0.05285556667847981, 0.15046375172732185, 0.22652738176975543, 0.19333601081594476, 0.148862237445704, 0.23624640168986483, 0.22836302125323005, 0.3069637322390258, 0.38759970899398677, 0.38076656544415066, 0.541600925846883, 0.5448799873289333, 0.3314548121778559, 0.005882272079358234, 0.022112129606610742, -0.16252277150640745, -0.19022371760371976, -0.10105955774034062, -0.15677370678869285, -0.011663371022694376, -0.0062236806062761565, -0.08259428421703703, -0.054471928626603175, 0.016344319160143738, -0.014738796775751522, 0.06804213804132295, 0.06282238066201964, 0.1641871927240254, 0.031146225831283014, 0.07267141083556594, 0.11619619254098959, 0.20016592864480293, 0.1977958735214759, 0.21369442523591073, 0.39503616907340805, 0.4433175441663611, 0.5205197343780181, 0.5940113850307157, 0.2359416157814333, 0.42933528025358164, 0.06797624505039322, -0.044651159949782075, -0.10765597421171585, -0.11517357648747009, -0.18762863670487662, -0.17221550078328113, -0.11462425226550162, -0.12169058448812091, 0.020373003305954478, 0.04156039222203906, -0.004453945891785398, 0.02454911400714498, 0.001888565617159804, -0.08299135130411796, -0.04964274121303221, 0.05312421922684783, 0.041022067506783826, 0.044099834625851764, 0.12244910083417573, 0.12577743027223057, 0.13344707591070873, 0.02828772129079337, 0.15012780279250498, 0.21811316849603254, 0.19923352794057758, 0.18269438557666778, -0.12225982471111008, -0.12779370769123266, -0.3729011780167238, -0.29970403904796755, -0.18378606593006927, 0.008149611506035189, 0.040564912799120584, -0.02615093408902922, 0.0217111209430652, -0.021871088879494432, 0.03714206029296209, 0.07744821559886035, 0.13374218335883975, 0.033734778651510554, 0.07140871247042863, -0.0007114883628043591, -0.059281385856061575, 0.0472451356379229, 0.04842702101800085, 0.027382830210890902, 0.15650217042668532, 0.11429371606941567, -0.06454434286246961, -0.10188672234842558, 0.07728977911098862, -0.03287379816768892, -0.1111141798146196, -0.3141440179811094, -0.361333830094651, -0.4287972277328325, -0.24274658750416256, -0.11430356312780736, -0.07559793216172782, 0.12565002436328865, 0.1802228268118209, -0.0061853021825916754, 0.0978916243242393, -0.12231896998425074, -0.04706719265846375, -0.016776637958567323, -0.07655314423851971, -0.019886325844068235, -0.03845312922445572, -0.07837853295231983, -0.035242721378081744, -0.06950956320129628, 0.0593261565390068, 0.10490125778040398, -0.023225943202106317, -0.06383849230161683, -0.10980368269185133, -0.06425133714251437, -0.1985796816891455, -0.15262708952834445, -0.3369423165456521, -0.26334867422684055, -0.20473474721659715, -0.20400152480945702, 0.042794489112664605, -0.30168083667973844, -0.16269425054403133, 0.08466966629891846, 0.13767125847702094, -0.10430247964890335, 0.008028045198183032, -0.12641389919601287, 0.07813690988526087, 0.01715736683172289, 0.009418160706439636, 0.11911403977187528, 0.03642890822098595, 0.06235005290751492, -0.024859872417221773, -0.039147918909434795, 0.07086429658475375, -0.012464079281714521, -0.05802559394934589, -0.304884221547214, -0.1440147711681452, -0.242135610556221, -0.19103402322521984, -0.2824371034820709, -0.23645992132241675, -0.4176355265958894, -0.10692436393921162, 0.10054756520086819, 0.06757588265416374, 0.0025588452066864237, -0.13791861411110629, -0.11534518737589466, -0.0660420648590222, -0.027722062850827022, 0.017803599026997078, 0.08269440533190056, 0.07985281557319143, 0.24105621587178783, 0.11453843745012808, -0.013169475029433646, -0.08197616555754306, -0.02665580709162113, 0.07391115834224392, -0.030784807524835065, -0.005351931578463099, -0.03973681335471162, -0.10563782952254533, -0.19759351222111943, -0.12898760421859856, -0.21068441695647802, -0.1426436759880077, -0.11083626654126504, -0.03944795056085391, -0.17012472298646633, -0.10009025351322139, 0.027449047854302418, 0.1153014024207936, 0.06311563531299744, -0.08688005599741466, -0.07171935122558498, 0.13018047637549313, 0.019002471878457897, 0.07248548158284672, 0.15416856107307217, 0.1492462079905714, 0.19222090777512765, 0.0626027732284554, 0.07177270928767909, -0.07122528838524993, -0.019196551251689488, -0.15297455409643693, 0.07980813825593074, 0.022627889126191816, -0.05985679895690486, -0.12424067837741547, -0.21299883797168365, -0.1617573674130176, -0.09001961827589586, 0.07572357463579635, 0.17105001102843256, 0.11807696381659492, -0.03477415624498907, -0.019731238807773444, 0.11345548789832126, 0.011815025153881654, -0.20869289201170382, -0.391054119941604, -0.34342141865668796, -0.005806489673106128, 0.015340906028057783, 0.0013394120359278676, 0.10436461676559693, 0.1677927538985914, 0.2301959277127992, 0.030751071013549673, -0.01964584681385225, -0.059346903895871675, 0.028853766537599076, 0.03452755755273568, 0.003696650439338355, 0.0016213065352013024, -0.09699848082116638, -0.011255432029647162, -0.11805185785571226, -0.0807609922656735, -0.06365743808179863, -0.017901671042936947, 0.032470879914769074, -0.04661823686527537, 0.09231593891720045, 0.16758343066701978, 0.12380921119226279, -0.05097262569893812, -0.234235390347296, -0.36477376438415127, -0.26108183946511504, -0.19059724477266568, 0.13741152188280048, -0.024835005342671346, -0.054485875064903634, 0.14731582137683763, 0.13729025169036432, -0.0729048787589849, -0.0451017028227184, 0.010146225892973587, -0.0004535518711942414, -0.09801465292494613, -0.038680245098901736, 0.06845182003121157, -0.06608332372325737, -0.0733278697678747, -0.10065792357528024, -0.041121844019304146, -0.0659737577279567, 0.00539446067770106, -0.016488522330124964, 0.014224135860267493, -0.07064255887798773, -0.061606380743794126, -0.1720081395810288, -0.3828241065485695, -0.21008072518732934, -0.35050022080829346, -0.05409268342620003, -0.02144385311939667, 0.10568151185792296, 0.2026868251878319, 0.21094679979313596, 0.23568484389696487, 0.1717431263267645, -0.1254460160218106, 0.01636825091558114, -0.034648602155125066, 0.039006985611596504, -0.05197931805015661, -0.02276580439077699, 0.026763783285399304, 0.07130292408334024, 0.006543700141948596, -0.01702515416982443, -0.029268203396703756, -0.22238150885002733, 0.0067497792897561115, 0.017985818267478294, -0.17775030794836919, -0.35708347777144156, -0.31067939457202554, -0.38037375567502085, -0.44542338243866664, -0.2504430844864847, -0.016623160859501527, 0.10491097902840303, 0.1706108188388859, 0.19198953014449266, 0.1885346475868566, 0.05138251135554484, 0.18691211987036774, 0.010459231292345312, -0.006471902062739546, 0.030649199542589874, 0.05552871898790653, -0.006781173614180082, 0.04820824972673813, 0.04185399478222551, -0.002402047656786072, 0.0491249997150243, 0.04499773442818652, 0.039438258967903816, 0.05037986269790728, -0.059671937050611815, 0.0031559938329707186, 0.03804025051024807, -0.20242008072584364, -0.3356850550960772, -0.4369291263877901, -0.42928384916383966, -0.18360649842511434, -0.04430344722269355, 0.1460330738047445, 0.09484020883424756, 0.14312679229064698, 0.11608692749197212, 0.09549769877005389, -0.003604277674917601, 0.009437076692996847, 0.09148565666890465, 0.018463582085014904, 0.040548792991135015, -0.09148387410020367, -0.018713743372962232, 0.05602335846340537, -0.07430905869014183, 0.1424676874604505, -0.06180710356464312, -0.022733802502578643, -0.029270592328190105, 0.011861644831728383, -0.11309437559781106, -0.20215809745877739, -0.23932619016397352, -0.21013928005025417, -0.2632132639306667, -0.1493334568023798, -0.1874623178452453, -0.0964476726387324, 0.10685564192343056, 0.3052909553995918, -0.023977849968045212, 0.03804857737016559, 0.037608465866287535, -0.029310657759759835, -0.007494792248133731, -0.02157267642880896, -0.08002054189866883, -0.07358563033860517, 0.009781150216462317, 0.07138569605367319, -0.022799408485932985, 0.07719133603480081, 0.04167569406088236, 0.03960270438750542, 0.09500832896576816, 0.005654143551734184, 0.07761671429078665, 0.02099379724820363, -0.014027862214378637, -0.18535722439328628, -0.2058183488740606, -0.2239886069788352, -0.19600626511262548, -0.039928094779479575, -0.04198593748901637, 0.017301183021650755, 0.2264670839335283, 0.05871044653325592, 0.004936209048958478, -0.13841721371259796, -0.025983564395994915, 0.023502707657987034, -0.07952973237383283, 0.007840969196096741, 0.02997911062962366, 0.006360236178309749, 0.018624525211307197, 0.06571755971553499, 0.019374460094221023, -0.09953115198719768, 0.09175374563431303, -0.05152853478661898, 0.08006861217445942, 0.11053826219963359, 0.041504415863334095, 0.15585328398108875, -0.03649222199769851, -0.05847205383142748, -0.1508649215618515, -0.014219326194704857, -0.03403386813491109, -0.0841171096702057, 0.046442104315543305, 0.02144197202310366, 0.056064822041210306, -0.262258600760675, -0.03420232742971238, -0.19371449618695344, -0.24787319684006787, -0.16896151891827246, -0.14878401041363756, -0.10460544028267789, -0.04399918762218581, -0.009678153164215825, 0.009734360213981436, 0.09742585469748444, -0.009868200041255082, 0.14183945266805367, 0.0260710540607468, 0.012947108068099246, 0.058092752298277935, 0.079467217184912, 0.062189354039930866, 0.09150669217483633, 0.036909807978803666, 0.014330607482217306, 0.003989275413439796, 0.2278296782951501, 0.22679994061735662, 0.20094536591318132, 0.18594504695033295, 0.1579617990510219, 0.029510466583622316, 0.040038353995169425, 0.0074858211721994415, -0.1144990855402079, -0.09794510921478829, -0.054990069047677365, -0.040104896145988944, -0.061589405277126114, -0.007319043913027972, -0.010802040320859544, -0.031579371664506375, -0.006287343490925938, 0.07026458226104763, 0.025068521665096613, -0.038183613642612226, 0.03522826602586585, -0.05226342520615973, -0.09959980182400678, 0.08120944605009578, 0.05206517458207583, 0.11067640379778963, 0.2911831232034156, 0.24998273752673994, 0.15682242333370378, 0.19787238281442202, 0.36958494478323156, 0.12199060382243948, 0.1270211726816969, 0.0724455194273294, 0.20254271073524885, 0.18049127207503118, 0.11026354534533082, 0.21387615705142402, 0.11153009179005556, 0.021020066992229913, -0.04960434627581693, -0.004413978802580704, 0.050203506500534616, 0.08947918141617063, -0.04947132880255212, -0.0030959236266225112, -0.07996081142619547, -0.04900893373279582, -0.02170330493112188, -0.009517729762781481, -0.15100540348878802, 0.0838657466028495, -0.086187528241459, 0.01987444506925369, 0.004406534480230097, 0.0452159418168119, 0.12195565386428717, 0.09341326417594296, 0.017454574546747096, 0.19391243557635507, 0.15511811699349537, 0.16850832638814575, 0.07764804887664878, 0.19178353372262452, 0.038168810677737176, 0.1541378537243629, -0.003151073352224751, -0.06463547978229109, -0.012380607625245683, 0.03584406189761967, 0.027026995276012968, 0.014930065743195234, -0.07102448187923012, 0.04489399150570348, -0.02836136736481759, -0.02616072776504565, -0.019995397041374298, 0.08165230449839364, -0.06960098903626512, -0.08194559082307869, -0.014303512518797178, -0.0010979761773372068, 0.008971484388501831, -0.0777511945392237, 0.019005804224069278, 0.03813858891936117, 0.01960714312116013, 0.045617049454772955, 0.0304183002351748, 0.026605719664150138, 0.015457713568075184, -0.03100970499898328, -0.06788663425289819, 0.08383758350308089, -0.0664367985869608, -0.04502104402447087, -0.02837998009788962, -0.02163865907318976, 0.04405788926621606, 0.14383590947678657, -0.05940077727278904, -0.0599142460804179], [0.002167408472712366, 0.03856398039432104, 0.07735080199614083, 0.0126720176912169, 0.04772390051731305, 0.037583200232268126, 0.0016183577396262508, -0.02233889848031864, -0.011212114309660478, -0.010446280450961394, -0.055296170812564736, -0.0525328513347042, 0.017507120575947086, -0.0605587704698836, -0.03131141640489455, 0.01666679425790732, 0.04296570689457459, -0.04914700450753417, -0.05092702353630212, 0.08623552562749492, -0.02349171413480613, -0.027481388600252128, -0.07269720902926252, 0.024681573795121196, 0.033673408400977184, 0.05309497000539942, -0.014946640527374698, 0.11557106905483916, 0.009793255156106443, 0.06920197070702268, -0.022041059781089566, 0.05239431055672612, 0.017408311364351902, 0.0022153874189100664, 0.030006004280187286, -0.058063853605400804, -0.15028075495367849, -0.009133367830667233, 0.029083726713587946, 0.00269698218973245, -0.056331419785998954, 0.01984248247234664, -0.019095455424800435, 0.05659796225181903, -0.05990858898823922, -0.03725582977380676, 0.011057205817084768, -0.005663623918922059, -0.014117672683741435, 0.010907451591192377, -0.10933024216415105, 0.01657100290013066, 0.08896777491111198, -0.04433864076763478, 0.06059662389960374, -0.005664976181334399, 0.052972750538898494, 0.03838743484893325, -0.055567515982041175, -0.03278779105855792, -0.0084112194564819, 0.040452028292689096, -0.028327320981937396, 0.01208587757090392, 0.03822900596493527, 0.04375411919629055, 0.04934127791076247, -0.038983110501838024, -0.05085109043706031, -0.24588124956171262, -0.14877024078135143, -0.1462635468686103, -0.17940691160952885, -0.12267622763918669, -0.12243686709056105, -0.0924094796022352, -0.0838932033516298, -0.0820390593474496, -0.015055351766459987, -0.020078411772097227, 0.05176582832526777, -0.05008328634598743, -0.03683278018904295, -0.002031362882946643, -0.06362280026450069, 0.005382650603481312, 0.025210759621599257, 0.007608766925224411, -0.07602205472053361, 0.021433440423021075, -0.028960702683701527, 0.05929160996627349, -0.037709864723995706, 0.039069714457259694, 0.08221950378889123, 0.10266778717726212, -0.013211715568200425, -0.1195627475332403, -0.1198222248719494, -0.13625574786554656, -0.09799833751991956, 0.012131810017375766, -0.05386664432611522, -0.12509857075051795, -0.2091872194502649, -0.0548573583522905, -0.01019251622290134, 0.038345853168232795, -0.12500589903458964, 0.039124613208752115, 0.009414981465612728, 0.06525404783970311, -0.04939049356431594, -0.05323121612105469, 0.03401549087743161, -0.026672504705702618, -0.0637193138021123, -0.08240142886498518, 0.0390689907518309, 0.043625318223612736, 0.08258460535275912, 0.024090273714024644, 0.04986164349695018, 0.12270849708881458, 0.10062971108005432, -0.05644477605663553, 0.09571423575838098, -0.046948189447836186, -0.05380795926568533, -0.06901637009068455, -0.1657886973327786, -0.20844163584836958, -0.09835445108803563, -0.14236327788893963, -0.0562333772025142, -0.056071465559357776, 0.0358798947799587, -0.025909427016795213, 0.09519781388288168, -0.0443859944275335, -0.026592694836510077, -0.012470503666872763, 0.022873295434550543, -0.006681540184146938, 0.11764290775480132, 0.11890522601971264, 0.07673865132182323, 0.14614028697527195, 0.11254224105589561, 0.08168221448289552, 0.014801973105950312, 0.16667563370739677, 0.27443022446965487, 0.0805430061452733, 0.135126097685367, -0.1620072568175931, -0.05952517547503938, -0.08200930667291217, -0.11208611490150754, -0.13469490367857914, -0.003540716108288937, 0.012464127109448987, 0.11598308828611763, -0.06342906432765083, 0.0832613089287236, -0.0004474278688945717, -0.04851275754637479, -0.0327945791885763, 0.004415805839103594, 0.041982309823039576, 0.03193403997555894, 0.05433167315763091, 0.05165431172201607, 0.12245385834208597, 0.10705503741758805, 0.3313168339714818, 0.24714056591349906, 0.22547192362475316, 0.04072480382804873, -0.006542780093808177, 0.00513188639928204, -0.059996210480133476, -0.0941106905787541, -0.11204291475664739, -0.17646394894661085, -0.13907348191823163, -0.22101650860841504, 0.04364272511711174, 0.05741796772923801, 0.06569118504870661, 0.11142102530310675, 0.01813635984794632, -0.0037623500950107486, -0.10726274737011064, -0.07340777466482892, -0.018212494014254847, 0.0798435138849873, -0.011851537802498306, 0.00805835466754449, 0.0678390301374052, 0.07751204045499734, 0.2298890711927596, 0.289265226166594, 0.2725869408377393, 0.38432165448104877, 0.1705515711363172, -0.16482280751538275, -0.20633881520784972, -0.12188992903547057, -0.04322230597011629, -0.3930664891964011, -0.3703240551037884, -0.24094273513623482, -0.10393190891132317, -0.1190550932241583, 0.043611688284763035, -0.09543590395533696, 0.13300111848404658, 0.0783632210406277, 0.08115444310069599, -0.021962785411581615, -0.09680435520641627, -0.06571740709656583, -0.0352114264913102, -0.01473067860973331, -0.022732562307181063, -0.029677851932080918, 0.014767799522102519, 0.11398427272460725, 0.20056520186055185, 0.27105998906009876, 0.2873019693264211, 0.10423152461677636, -0.0606781024690954, -0.02536221559318162, -0.21899821250793264, -0.14699894576326772, -0.25878471457175434, -0.29703931962565766, -0.351612434051916, -0.01773576084236662, 0.16853123711821172, 0.1952908036291187, 0.22289808067465092, 0.06586800001293278, 0.07937554416249579, 0.1912366582168378, 0.1680207487522194, 0.01471261650651935, -0.048124453207192525, 0.07759222083089498, 0.0832532413268951, -0.08057736545407923, -0.0060356480056993015, -0.006123968677151692, 0.06024300013938378, 0.14915032283038676, 0.2115298872685814, 0.16625028259677818, 0.15554304386680814, 0.03381741819843724, 0.08502221219918764, -0.16861748700154605, -0.2754212699146823, -0.19312865571811913, -0.17451573748349508, -0.26479606265174505, -0.23613944159395409, 0.41966513344132805, 0.43639515660600603, 0.2914399260690988, 0.2680604319928003, 0.23674058908013124, 0.37499583685726967, 0.27006952297036374, 0.21320818353927398, 0.02877015158015464, -0.0011580235766039315, 0.05870641265007371, 0.009215143697311586, 0.0420955368686597, 0.07262118598513485, 0.03416326154436853, 0.058727911846621406, 0.06497720580336071, 0.23345485530826307, 0.22377240101266363, 0.040790930639349084, 0.009548386749960688, -0.09232624797737655, -0.23089600224626033, -0.28742175593934377, -0.19673368696283008, -0.2643928767421748, -0.221425643784573, 0.2315455470223576, 0.3571389553306468, 0.3332493870101025, 0.2817264515759589, 0.25086243377950285, 0.3218982276527964, 0.38045920374289777, 0.46075332796409685, 0.2199419815283322, 0.13205850008124095, 0.09301923714967796, 0.006478952975893768, 0.01686024848206748, 0.037608057791084594, 0.024543184627103722, -0.13824364616909898, -0.08838654083917136, 0.13506634513202476, 0.12224577011476065, 0.2752439437689221, 0.1946641664981238, 0.1237003963807244, -0.036114248849157246, -0.1398090506131656, -0.0408307695736812, -0.04160147141213999, -0.32181734589909383, 0.09649125011653156, 0.47487192851901056, 0.24788514107182616, 0.12902881917567144, 0.24290849340283704, 0.2545616152233707, 0.15056007616970307, 0.23209229762810346, 0.3691517921313392, 0.2166061061643861, 0.23582589276105656, 0.02500518926173164, 0.030013807792383246, 0.0338155078684317, 0.024110309737848657, 0.029534549372508857, 0.05320014247783428, -0.07404398204968332, 0.2153071017372684, 0.1513612761824845, 0.16291122035553093, 0.12237969547395151, 0.1033817459058503, -0.1870429784915799, -0.09982415337953587, -0.14782619688590473, -0.131901178570522, -0.07628699475432078, 0.22686046291626816, 0.2915850568164809, 0.13474399379170585, 0.28334223780672024, 0.09790605678423456, 0.3139998709488245, 0.13267721122860354, 0.24006878206509052, 0.09911847825234535, 0.09188131654531667, 0.19826201931840137, 0.15866392588689465, 0.11049646981894443, -0.01883753769862397, -0.04228900246818939, 0.0001623930024014207, 0.04659796225300561, -0.011870151294456656, -0.03708138316559671, 0.11909677201492708, 0.0746883487054008, 0.13204280501602805, -0.013347172090059808, -0.09121393893361367, -0.07177251324250286, -0.037614566773876756, -0.15235083563825066, 0.21775983785427797, 0.20940355374022693, 0.1612420599130004, 0.06373780729626989, 0.3054307202219055, 0.23058321486740993, 0.015363261904997969, -0.05084063786413257, 0.09646380088204781, 0.12376892584779696, 0.0531584456873752, 0.13237920408003867, 0.13711382615269546, 0.10488667879145157, 0.005742934266881132, 0.036032829085464374, -0.02859282386188212, 0.014310940546647229, -0.09648659801990048, 0.059357675944634994, 0.08950638865727494, 0.06715669060748405, 0.1242774428444464, -0.08144203624703206, -0.13888651361316484, -0.09673221622516619, 0.02840254834223117, -0.03922338722480907, 0.3054719246074935, 0.1440120267426474, 0.03324335029286872, -0.08656807762186967, 0.07803224112002442, 0.009463860654235422, 0.021261643585575727, 0.008847087900369944, -0.15539083123333608, -0.0011301781514669869, 0.03897475878018081, 0.09868002117870535, 0.07465062688964501, 0.16101014822571946, -0.002342935203206833, -0.042462237837293054, 0.022188971311879153, -0.0640508601100991, -0.02380209730110574, 0.05890562404926618, 0.1617239068570712, 0.0362226977938909, 0.050352214442900334, -0.059441010334234094, -0.09161200925778272, -0.04386086587292092, -0.09382048941710985, -0.03793914170582534, 0.1428420479238459, 0.04343161345746925, 0.14680217135175394, -0.015906325061424212, 0.026111043941648312, -0.020432532801827802, 0.0028248009601042293, -0.08339387032632778, -0.026534918725744813, -0.007950368433366882, -0.059637337811099124, 0.12307195848056968, 0.11458243265567242, -0.016905060566549474, -0.07301626589929364, 0.010623165633970852, -0.042008520206939806, -0.05878110644449281, 0.08662002826910069, 0.02990483279645424, 0.027509708389846, 0.14383783322048443, -0.014612471726235816, 0.04134832487118206, 0.053926793849363566, -0.06568596978402091, -0.12635709884728083, 0.2634030216474863, 0.3359633261199722, -0.04301287506995522, 0.11134255583972168, 0.18887146501971336, 0.2543833549038847, 0.09319014621902272, -0.022696490742537514, 0.10882623150950123, 0.07899843142187278, 0.07466758994380822, 0.05944647185762752, 0.10139363738033835, 0.10078251738977523, 0.10421884284761006, 0.0482808135334101, 0.0386702093578406, -0.020628727101088932, 0.06767495621810314, -0.007545468767876454, 0.01723567249304872, 0.02496620462901933, 0.057616223136794584, 0.007339527769020091, 0.039224692254370155, 0.1658760482836315, -0.03595708580101418, 0.23998944271083095, 0.36370016451832693, 0.27532898512943893, -0.06474301737245114, 0.1626490573964291, 0.3967911797205441, 0.23023258374892366, 0.01626200521754805, 0.17676335352840183, 0.07730461790043762, 0.02756267579099292, 0.10039011953001262, 0.019432624746857544, 0.05638051303792406, -0.009567145199241869, 0.05748640189219624, 0.031350754288909294, 0.0002348937988161458, 0.017296238152724918, 0.0183455865492487, 0.013073298717967101, 0.06595562161095732, 0.026754707694453556, -0.04095010955691903, 0.016490039491584778, -0.02118921006711043, 0.057362492522799444, 0.23387824616333835, 0.4607405510085546, 0.2457416975117178, 0.08601373759770053, -0.13528436885884856, 0.0820088885063765, 0.2637605465719759, -0.06276905289734212, -0.07481353317381706, 0.11895353016936862, -0.11017969207822773, -0.060185968590413114, 0.06661564122747199, 0.010821720252678111, -0.0530148217164644, -0.06645352086172539, -0.059366589675232395, 0.0025990557206501783, -0.01869202536097884, -0.03340366115312671, 0.025633275271993383, 0.024242533048578936, 0.07282167758073213, -0.018176027362809807, -0.01261656204608825, -0.1668913629698263, -0.06313749377494177, -0.10787261405071027, 0.002309508184845047, 0.18573914746760983, 0.07835109908701485, 0.15510886845297764, -0.050657850370762855, -0.07210699536822963, -0.07741220473774853, -0.08417759908382201, -0.2015908871125318, -0.124568336154627, -0.10376741393803918, -0.16017388648201175, -0.12331047855644456, -0.12068366524145283, -0.07225352390822028, -0.11265193814141318, 0.01529148528779962, -0.049156702948551886, -0.073363557548996, 0.02150673753208401, -0.00836444639596123, -0.056440105325395805, -0.020806360464559404, 0.09179397818352789, -0.0384067938379066, -0.04032804216807001, -0.04122781514082168, -0.2782293628339815, -0.03729302355843013, -0.00012475901354104532, -0.005083915906256833, -0.0703679594028231, -0.20172854862724607, -0.13906300329606244, -0.1611363838456678, -0.11296599088515286, -0.40419354047833317, -0.27996602573151497, -0.12482799935612511, -0.08610201858550434, -0.15621675507009106, -0.09843523768138866, -0.20891267362157814, -0.05101707927800125, -0.007099195169891834, -0.004368499834983829, 0.015928954930697105, -0.03443616616105513, 0.025683865357305408, -0.06499861790542039, -0.07263531905194362, -0.006793303563243238, -0.0013671216993951243, -0.08311619108990212, -0.13216336820057695, -0.0489557286549659, -0.011139980433834745, 0.029376013177788755, -0.06721797213972218, -0.06986080333331915, -0.1790431706859285, -0.10396150623600933, -0.02517201717477962, -0.0969973635668591, -0.3636765213938774, -0.14284110519353477, -0.029362477204952636, -0.11300149946329376, 0.06286479839347074, -0.020083203930376593, 0.006338153625950184, 0.005491888380596739, -0.03518711182439931, 0.011519521998733337, 0.02645269932172886, 0.047046587183835385, -0.041881861135159716, -0.0020151890252996566, 0.00026456539996512257, 0.015433952318551393, 0.12312668626775099, 0.12625040334341067, -0.013009744799508657, 0.13217711290854828, 0.10598858282568954, 0.16856699763800737, -0.14441293855450624, -0.03564020473097935, -0.1415443493747264, -0.18437144784447007, 0.02558970533276808, -0.15360755870186785, -0.03915833249097338, -0.01921144761353944, -0.010482199664970182, 0.12364070251406292, 0.052248951871017184, -0.06365879798176918, -0.017486556486603546, 0.008365296980105318, -0.09651360595298172, -0.008131801097375473, -0.07413046542619137, -0.0025316632343076718, -0.001564727975034473, -0.02605516419759854, 0.024695774538700574, -0.054439211798209444, 0.05626936285288021, 0.1725215318443164, 0.21010311399937068, 0.0948594502833614, 0.1527413251785857, 0.1689893395492526, -0.1322129354726432, -0.007238309596788442, -0.04567017527755866, -0.19399875496067645, -0.10190149908239272, 0.0227989690877537, -0.007571073031458774, -0.019738782328093188, 0.019399878648185803, 0.19843052882811152, 0.09749036588918404, 0.056713578008271655, 0.03670031133403678, -0.008141977312879623, 0.05508092294862973, 0.07691364231210432, 0.06692734433781147, 0.027690931815660225, 0.058001400595923396, -0.021877803012078974, -0.009948863672123226, -0.04296761310878569, -0.05606341049312515, -0.04712977341940242, 0.15242962569540697, 0.025310402616584675, 0.0020918158685706554, 0.11074672148769338, 0.07807555792735703, 0.11189545866864421, 0.11597197455640887, 0.13614942140101052, 0.0860652953535668, -0.033504867514765106, -0.025677349433534693, 0.010824114904899058, 0.006648040863111787, 0.14133386121582997, 0.1152264450155413, 0.05797544344781193, -0.04899061172958901, -0.030697332662696784, 0.00935316057318114, 0.06447183661383907, 0.04294365944261839, 0.014956406715713463, 0.13415397105466903, -0.05490699335823069, -0.030528886844437064, -0.11471393220864518, 0.06902867906547122, 0.0751370560772862, 0.10251101675027915, -0.08778695793291254, 0.05878892854558527, 0.07589876808133092, -0.010764047713283126, 0.00771103867536922, -0.03570563690805385, 0.08815275666620435, 0.064258678781028, -0.028304574495088827, -0.02107506320600543, -0.04771448727086565, -0.1279207246785458, 0.1085638994609338, -0.053625004849852116, -0.04832465643540642, -0.029443330985249594, -0.10034609879683912, -0.02820521591198859, 0.01866934446477997, -0.05093594867876995, -0.06355792348690775, 0.03388906313774575, -0.05871491285819346, 0.0005172343723594542, 0.005603768527480129, -0.02266679585107875, 0.03291205871237005, -0.033498962602077846, -0.09231535103367682, 0.123245567837943, -0.10391914270405408, -0.013501052080520257, 0.06984144937197921, 0.052424551803722165, -0.06165249770537359, -0.013761132666260247, 0.05642074716983706, -0.007649948183622762, -0.07755098855437988, 0.03728794678455019, 0.03819456260807526, 0.010185676145764195, -0.011193198211435487, 0.03728745738450716, -0.0379007347210456, 0.0014586826508211047, 0.0012748812599404334, 0.041285852432847624, 0.05870039152403459, 0.10918640793053415, -0.034730306439436524, -0.010161165558956116, 0.03877477064655215, 0.010865713303561888, -0.023193682284469528, -0.024978395355397778, -0.0032193833109831972, 0.01856178694927298, 0.007166818405462923, -0.002530996013184602, 0.05292923881340445, 0.07679673630060418, -0.024101678161909636, -0.04430426948610309, 0.04232516043449955, -0.03778749055952136, -1.032051017589875e-05, 0.0655261037058107, 0.014420705542601834, -0.003135336564099941, -0.013835028754299011, -0.03164907773229882, -0.046682739055684375, 0.017801222162528604, 0.020623086891402735], [0.02442342907886283, 0.015197072939704407, 0.006475579393114122, 0.04213438982046655, 0.004682766725960051, -0.0355322707443292, 0.0573278926467269, 0.004263002152006945, 0.005939415375780019, -0.09263163031532957, -0.013061289705074915, -0.0008189572015520285, -0.006691154769760038, -0.052470722629729134, -0.03364688988053832, 0.023213571472138313, -0.018224554716385392, -0.12810686182397138, -0.006340202867110874, -0.0284654413419858, -0.03304280895260421, -0.0013261730360679324, 0.041581559345267194, 0.008895259927163297, 0.015710401549136933, -0.011210797675857673, 0.052505293371085365, 0.011468161288099533, -0.05992293798909555, -0.04369115627031332, 0.02127416631323712, -0.01030198568481854, -0.012946659370292105, 0.0006121342569323333, -0.044959952832244625, -0.03953560956315488, 0.06888163787782536, 0.11339440650605821, 0.02090071262576674, -0.03138091966050817, -0.0354136487572809, -0.018994820841436277, -0.004010667999072954, -0.008265476559864128, -0.02072041911518901, -0.03977398389215374, 0.03307160676189685, 0.05310213891580762, 0.06822246341803274, 0.024812759389007368, 0.02961052553790057, 0.0632137399505425, 0.12228992666087345, 0.06246914310676141, 0.02865355860536149, -0.06828165515461421, 0.05587814867958208, -0.041137462573176936, -0.0251853349623972, -0.011052949937193182, -0.01087789984296563, 0.07744552970384386, 0.11587097718993769, -0.011907190950391333, -0.09413674616888518, 0.014094649474474245, 0.05611277524463516, 0.026114582174449383, 0.006532008427246457, 0.020852150039607092, -0.08931694317608625, 0.14144288857857323, -0.004655330576261856, 0.12939644390103636, 0.0871880508964156, -0.012956277778571139, 0.0017111473434969686, 0.13112511385998527, -0.03818500656860735, 0.020729060335966856, -0.03192041880489838, -0.045735337727563455, -0.030864294074605714, 0.0987959136911464, -0.011323942946052344, -0.005889483733506731, -0.014492996835180138, 0.06784705754222203, 0.0502516665745036, -0.04731494875450201, -0.011895670715818072, 0.07494855514593587, 0.06650295768608609, 0.06540119440638742, -0.01501301540083958, -0.03126503646762322, -0.10275357975480026, -0.1391839848668471, -0.14670669472536696, -0.023094988846503493, 0.008411072357042379, -0.030184321447330985, 0.002441534965366008, 0.0384267910404477, 0.08127755940241561, 0.1211933467412556, 0.11495795481845955, -0.047184567664562985, -0.02846039781675547, -0.008938885083095184, 0.041234502173410445, 0.06337791231469067, 0.06486019526094432, 0.046531522328493204, -0.09809588354605771, -0.020062761553827697, 0.00886320717787654, 0.010805100697099721, -0.04644610264685329, -0.019855342161082836, -0.006341320265635397, -0.01984443874606791, -0.15305928128247087, -0.05030316640091756, -0.10117408922948108, -0.11311965471684711, -0.04215574534878185, -0.14613777333985947, -0.03551599720749699, -0.07868150659300556, -0.07627652687030716, -0.04755866544399316, -0.009741680061039253, 0.008210687919614058, -0.0452585146217652, -0.05663853763856168, 0.006298589877340793, -0.07912712983436263, 0.05269907748125607, 0.06974978249808801, 0.03635148706434588, 0.04582865823475303, 0.04423904623656043, -0.06953358527392808, 0.045122099424071235, -0.0703640777288867, -0.09095785379629245, -0.08653647238435756, -0.013156762320680368, 0.04310430074575783, -0.10739295166064619, -0.24531607495767221, -0.10614337846746855, -0.16015725560783667, -0.0721081479291841, 0.022403132369489345, -0.06803199299668783, -0.13620032956675995, -0.056050014070652195, -0.05774708511698496, -0.011886005676235, 0.06190142856367502, 0.012932189246742892, 0.2583564124029665, 0.08545858151648193, -0.10169847339095163, -0.009648302461347747, 0.016165056369292337, 0.07822922695966432, 0.013551047069467017, 0.09420635802646836, -0.07246616336464387, 0.010707122396873606, -0.013006936680324772, -0.03871911056325869, -0.08937825048349363, -0.11351049926329033, -0.14192386653200742, -0.11582604410181592, -0.19482673552028346, -0.1719625276244699, -0.07330615385322749, -0.06823417725908444, -0.06220603924885347, -0.2272462312893075, -0.01385756815800135, 0.01944018021449819, -0.013961214539764732, 0.01357791541924223, -0.010261155937673933, 0.039054764464733646, 0.10599759576506534, 0.10026896179718268, 0.009227218736569403, -0.04521267030420598, -0.04739656751639956, -0.005001738988734229, -0.036025562174200054, -0.03645001863869808, 0.06711476948777706, -0.09718970033417278, -0.02155657180514628, -0.019262264055898613, -0.049710478981308454, -0.14968656955695123, -0.06353831857723088, -0.22156054462127234, -0.05555210142787963, -0.10223339501845188, -0.2050439148483749, 0.0889295034998206, -0.02046283457762416, -0.0017446589411589282, 0.025119912567389248, -0.11098290366301138, -0.0361885502807148, 0.05439251175609529, 0.042199175525380356, 0.05327728920999496, -0.06450583984083767, 0.004746548727148572, -0.010858612369213436, -0.021016261145504395, 0.025600580075061958, -0.10752625792297632, 0.1411661844847914, 0.039964599803393556, 0.07668985530861866, -0.04598940664961596, 0.006121418002870247, 0.006750982414318307, -0.04343815563944889, -0.07039009639687435, -0.1569486543052281, -0.17753289993797813, -0.15840354114634675, -0.12234316669974495, -0.021971081221592973, -0.022351730053593855, -0.006871399615876139, -0.08723500867814678, -0.047376037194078846, -0.10369354780054735, -0.012970147445284371, 0.03239970033331854, 0.05591035177487126, -0.04328899000177248, -0.08777978946185777, 0.028269310190736155, 0.038917341412258895, 0.012347251622262412, 0.016107426043583298, 0.037169782496720684, -0.0469628664336392, -0.009473203317644245, 0.01584124493697297, -0.059035964412835734, 0.023589496611204085, -0.013356493582281996, 0.022300685630535, -0.11526248927622683, -0.1314922265112458, -0.2539951020127908, -0.17074254749454137, -0.14728844376879938, -0.030581190390851193, 0.05235633814300831, 0.10584143107956505, 0.01452249204862937, 0.0518611815180031, 0.011563131421997877, -0.008188917508344365, -0.11259237918667869, -0.05687932235098178, -0.02363242572938329, -0.06839101300336226, 0.09469085899623432, 0.10135341233102181, 0.0005499823639460547, 0.030447955897602956, -0.0761402998186446, 0.007000152714468236, -0.017345256329350658, -0.05070334246826173, -0.07404138519327562, -0.056055130996056524, -0.0759184612979883, -0.14734018102991642, -0.1057352858488651, -0.09127978893485489, -0.1924511635566309, -0.2466659532333157, 0.0010094595121841795, 0.06932280247786872, 0.19583418145158038, 0.23148423648629393, 0.06332167902904128, -0.1298090366450156, -0.09607399632470907, -0.07089530225358928, -0.09865678408289627, -0.08770378547877952, -0.052127249331792413, 0.03397157269513033, -0.07674200728001081, 0.017693793150752767, 0.0030129710653359655, -0.06468300214430238, -0.08379734537686143, -0.013694241668679497, -0.01712627628766441, -0.011004354922188014, -0.06691085129557917, -0.0980655586667743, -0.03834398023556387, -0.0731704301934492, -0.09071385374007164, -0.250805268062191, -0.28379927338741945, -0.2554571230824012, 0.07559470500958726, 0.15689613840555564, 0.11565297896866338, 0.019196229914398722, -0.09112959375557379, -0.17381725556338684, -0.24732505271322772, -0.11535389367623734, -0.12502427287600124, -0.08239768534087136, -0.18384526415547991, -0.21608090016520826, -0.023787911823556003, 0.004852762175649761, -0.008675654722678536, 0.09941825917926034, 0.01066624316441679, 0.01352294788249276, 0.04122058063652235, 0.06035608489153846, -0.09499016489359303, -0.15848149790942057, -0.09501380048741506, 0.013314803072459145, -0.11483418414490439, -0.13421369634793787, -0.1424071188119926, 0.004447477210750365, 0.2029587221814284, 0.19620964789665638, 0.08002741823343978, 0.07068624272742173, -0.18852275607748462, -0.07158396022241452, -0.22578580797011172, -0.24666585748302922, -0.13089399288568138, -0.20401413681429584, -0.0725073669964284, -0.1722161795910378, -0.08316896500380769, -0.12347242493055224, -0.07995493440147688, 0.025702843626840156, -0.09662767837683704, 0.07561152244894902, 0.038429967900940394, -0.02230254046720975, 0.01228624822982236, -0.09903351690496731, -0.06048068562680701, -0.029135734020352435, -0.1470293646678024, 0.005819217552210251, -0.044899883046766946, 0.038187397931200934, 0.1943704900048679, 0.1554340707816227, 0.15713786843867925, 0.01868806725883412, 0.04832357222106237, -0.11694635655460707, -0.17030114423628895, -0.08509921234059145, -0.13039235058469803, -0.038014051028052505, -0.05422261141524917, -0.097614340898715, -0.015093248161706872, -0.03824440717724825, -0.1184904109350179, 0.005151552994924396, 0.014901432256789329, 0.02034450543586242, -0.001269875625926841, 0.005457161408321403, -0.06469149522224202, 0.0038980391198318795, 0.021979616458135866, -0.03413665815402636, 0.0055297483503157045, 0.02074429818885298, 0.06261138786116921, 0.03401925065574222, 0.1267747304844412, 0.041130988352086846, 0.042516506140268945, 0.08388386273857008, 0.05344806529589615, -0.09881075860023553, -0.09804756856409949, -0.16356855007699012, -0.058234067319535586, -0.17890948367577328, -0.17739472141668908, -0.06387934798117303, -0.0976278116812909, 0.0076339567618612545, -0.02185942936037735, -0.023775353307392062, 0.039917396634817096, 0.017437831058284732, -0.00250529093750543, -0.03539341336059437, -0.027836785609912578, -0.08236148403609156, -0.12887497182672655, -0.016816319616979995, 0.018957503228806186, -0.0046956711265481255, -0.04643271580467549, -0.032994449579537254, 0.03994097998509629, 0.037062852204247876, -0.052198032385648685, -0.08547791180310511, -0.08899782457871963, -0.19921673490312303, -0.06406868599901248, -0.028951725276234005, -0.11670775876598888, -0.017125427353141338, -0.07674822075728419, -0.10613173880908025, -0.075942145438904, 0.04496873365294068, 0.029259338303373402, 0.023006957078328245, -0.03406986675440327, 0.02095532406898457, 0.050459331674194516, 0.026270468944912573, 0.046125295695332524, 0.0072432000008684164, -0.10258875634572807, -0.0799636070057815, -0.12813742603528133, -0.1481548064319939, -0.15388910334533, 0.04832019405312124, 0.0370458889088084, -0.02963773459441878, 0.030841604401573457, -0.11175423386722505, -0.1529500145263474, -0.25539324217500026, -0.13490224390580743, -0.10424824265313964, -0.07540593589354964, -0.005745217356937687, -0.01908448966544709, -0.07126999678106243, -0.12035387856692652, -0.03282818537146942, -0.052597745371018544, 0.05711169968438478, -0.05272451058622612, -0.016882460197349645, 0.03419687535835204, -0.06161758788709529, 0.02062773267702552, 0.016690982872706976, 0.007897414380443295, -0.06028310864508466, -0.10388640109506318, -0.16004488792106908, 0.08812481689957817, 0.04929681206413657, 0.012457676665146125, 0.023555940490222974, 0.1290094548783128, -0.0812924808892849, -0.13365000261018037, -0.15973873726262455, -0.005918135247044639, -0.03814229923048071, -0.13402836277160793, -0.1022057035930958, 0.022906286264781823, -0.022255106348261285, -0.03962023577057706, 0.03593683362031457, -0.02078843945322097, 0.08000091602846213, 0.04636349007090281, 0.029471744362010072, 0.012856920234145511, 0.025957170820279474, -0.10557290260055609, 0.029606094113658298, 0.005015059472101831, -0.0026667961062963536, 0.01426346123373306, 0.031127671820657253, -0.0055889120501222715, 0.02386626231556208, 0.08135412352289513, 0.12182751313129438, -0.021239525083529037, -0.015936830038451345, -0.11460101698816637, 0.03586130608617637, 0.03747915262217379, -0.03893691280595767, -0.08582449470099762, -0.15191002255312464, -0.07066822959331799, -0.08113757435266003, -0.02539931034787756, 0.010639751100007819, 0.11411311818496034, -0.011518547642402881, 0.06405014509340778, 0.023206960209048146, -0.0965513084529472, 0.015987077841056168, -0.03151666494136546, -0.0023715526102898966, 0.04181079743781295, -0.021132274427569223, -0.004323219403630997, 0.07114848507348252, -0.0003510103873087055, 0.07758868193026679, 0.16851615691300573, 0.052208101790421096, 0.03863362503056618, 0.12036557154975784, 0.19508288434371462, 0.04137696639206002, 0.06991116480150192, 0.028598870658578874, -0.14426630538730179, -0.0552013467020458, -0.05369374244324413, -0.01034863198215345, -0.04050522743445781, -0.0038505137380947315, -0.08433278163048485, -0.006121801310951711, 0.007572160262367563, -0.02689207066276572, 0.06751193246166498, 0.021627616597493883, -0.01841385281507171, -0.028565540248174124, 0.009952056312808663, -0.022815926141988997, -0.07092379061315396, 0.010254627447655928, -0.02320453049170926, 0.043048632332242834, 0.010774558286887035, -0.049681387009319955, 0.1763106875002025, 0.1407970513200932, 0.1975538094159747, 0.2080884577354887, 0.22781658599273572, 0.11015086458486081, -0.03087828962538189, 0.0010366769593328042, -0.020232337800964964, -0.020855089137466285, 0.02119001267386267, -0.0021852980300828603, -0.07116539166653656, 0.06016393448206907, -0.08418267719112894, -0.01140768325416955, -0.05674548855606485, -0.0901525326252591, 0.011731351341033203, -0.05904222440886732, -0.08085008873808402, -0.02997743225724647, -0.032795542407561974, 0.05530678886709822, -0.06980142734460745, 0.020798717824795285, -0.04452119298506401, -0.034994947049377265, 0.07012060025701378, 0.04136667506515874, 0.042827602637519085, -0.019101571964284563, 0.0683148441082004, 0.01344435631790549, 0.0019488838885350266, -0.016562051146972415, -0.0449789669946481, 0.006083137968689113, 0.10512457677763712, -0.002168434052160849, 0.035835939893070816, 0.04579663691725117, -0.021062617051924973, -0.019922026788222722, -0.015251490301830893, -0.00966998213096444, -0.015492079829019094, -0.005809937902320132, 0.04412053323541758, -0.12489650220734465, 0.002967874079555078, -0.026614113948259167, -0.09256321762985095, -0.1103063889076259, -0.12538182282182275, -0.05933503267615398, -0.06707268084185068, -0.04124893168150599, -0.08755512561881983, -0.02315658917512375, 0.06006993063450461, -0.07077703122906934, -0.07617583828913739, -0.040977196631754156, -0.08938894742651309, -0.025801912009269793, -0.0691084952847989, 0.05084869562700461, 0.015317384440162169, 0.0195949732981609, 0.08500393101823907, 0.05032548109277402, 0.04244241347231213, 0.021961394969869864, -0.037413552565676356, 0.05142214601144961, 0.024206908458382217, 0.009077173265384425, -0.06885558805022539, -0.08716261453241073, 0.0056874820730341375, -0.11405440424648952, -0.039657341099923686, -0.17076039525223996, -0.0878690510390681, -0.10495735243377999, -0.0686762223105729, -0.13825931472481373, 0.01830720749854174, 0.044734643951976065, 0.020421542371807183, 0.05283551542122372, -0.10406242152158571, -0.08220911951737528, 0.06465777125421716, -0.060368457531428464, -0.061569449879852356, 0.05923143770004122, 0.007344071729577286, 0.03996894315115764, 0.02894411709423823, -0.016636040083418298, -0.05159594390746911, 0.0033854501032900596, -0.02924794531903104, -0.06878958092436699, -0.06712860627032469, 0.03313294398612466, -0.10357876029401764, 0.0013238467848761394, -0.020412068219650147, -0.008903698587373728, -0.11535777504089846, -0.18974222793625364, -0.16869480099710946, -0.005247293075763193, 0.0704030537001078, -0.03862400329208493, -0.10372198198573969, -0.0038082445203740044, 0.057958353999227503, 0.0796033792977808, 0.07065865436469322, 0.031210109908715877, 0.044800085283970656, 0.031981279997121935, -0.08700918238132116, 0.009969009145185347, 0.03313713143866579, -0.08321584958222522, 0.08652932956844349, -0.08888595308359361, -0.06997965627345967, -0.07362204715840663, 0.031227818448126738, -0.06684213461501419, -0.04097106004654856, -0.026633162542958663, -0.06622627417789322, -0.07740715084093958, -0.10478106829691716, 0.007984542831775463, -0.041922373125720044, -0.13824406614777168, -0.04471031192074408, 0.04692005116628087, 0.00622832212236697, 0.014567558677593519, 0.025342477721003058, 0.08181357946468074, -0.03127361277342311, 0.006847794372287588, -0.045766057515879845, 0.020386005677536963, 0.02984089850686857, -0.005772804385162741, 0.021433917167404278, -0.03193500532136441, 0.014700762014096801, -0.028267252439849042, 0.026673836983675907, -0.029437341086216647, -0.02821605278513192, -0.12459270574266701, -0.04452888192859498, 0.0048570895129732, 0.032048221532487306, 0.006373077327944307, -0.07158362848712897, -0.008377094773480464, 0.03947767173760971, -0.06268725621745146, -0.09268259308090768, 0.06066606471419021, 0.00034659654211959695, 0.008733865603614352, -0.033539222142716894, -0.021828964932315446, -0.04761828353358555, 0.019770808624704702, 0.04082813594058488, -0.03259554628347447, -0.026346620656793857, 0.0028931129540089176, -0.0342965839115692, 0.07841161533555394, -0.005453488519369243, 0.015899149938381273, 0.01747386937113361, -0.024050562837023365, -0.06906326360566648, 0.018273216309814315, 0.001236356642897889, 0.02487842386530767, 0.011440236702447053, -0.05789349873795003, 0.03863544044903354, -0.012999932782906539, 0.019531950101744636, 0.04423553425290494, -0.070965731390483, 0.0602874983197612, -0.046948515427629345, -0.1540637764133377, 0.09253106225812754, -0.05152067376104273, 0.03310197652089078, 0.0104538219925797, 0.15805202490127326, -0.07926320467885341], [0.003323889703554913, 0.04943570444873345, 0.011516930106571833, -0.09753617723818815, 0.0981421617220985, -0.0015404289067481429, 0.03757165133579586, 0.12846010014254597, -0.06759713684048588, 0.11701913750684806, -0.034552140798463415, 0.05531917409337461, -0.007126308666809264, 0.030020665648623494, -0.03871212382755509, 0.05326886295305237, 0.09669593400324585, 0.03086997299086639, 0.01501744669239925, -0.007232930119550234, -0.10808063160648793, -0.047710333281626875, 0.0010076670985511948, 0.048729915974949786, -0.033594398650020285, 0.0735880079140635, -0.013473027875739566, 0.012396089569694624, 0.016086888921276885, 0.0449024541939169, -0.08861888888054295, 0.019213825281433106, -0.07602175388174007, -0.11192148516325277, 0.04700550715879477, 0.009717507238791305, -0.08948195875470798, -0.11988193994853023, 0.07627684111058226, -0.05407024767984138, 0.055887554613864944, 0.0009617598521378666, -0.01295594944344556, 0.10783657658464896, 0.08481801175696348, -0.04478018364585878, -0.04698508534947664, 0.00919549272746756, 0.0984881342272826, 0.0016157622798906928, 0.02249786085762119, -0.023123729397674007, -0.06018342192807875, -0.05495934889879579, 0.046084240593667336, 0.04728023683730855, -1.8073750027758265e-06, -0.0009591313172562424, 0.02056568504620081, 0.053198750621378396, -0.0429750309359093, -0.08387609803149049, -0.06646339057873848, 0.0565914727422574, -0.04181481805453605, -0.0561259783643357, -0.04066444547365125, -0.006891166004354154, 0.05067103649437743, -0.026582835944676877, 0.022098033726005693, -0.017693533965513868, 0.040587035892005935, 0.003529684002158843, -0.040449527322623476, 0.022039498926159546, 0.07642959754699158, 0.02854141133761529, 0.13576407147663364, 0.01803454201285404, 0.008579620153090358, 0.03230465345092863, 0.04139195369177624, 0.03035055550356735, 0.027581015545778027, 0.012598020515166643, -0.011111518989740133, -0.0030466245597704144, 0.0691844828250482, -0.06565457791660163, 0.01002719743358816, 0.03770111350174225, -0.048226807745399954, -0.061194522776856206, -0.03068503780033277, 0.0027971522269568836, -0.09907658577763233, 0.0006380507825188389, 0.05845222670287698, -0.007517040598925461, 0.14360322212290588, 0.0947136814926306, 0.11592467838212939, 0.07213794644334694, 0.04260502842835419, 0.019573413996152676, 0.04837761636511175, 0.06400794882442125, -0.005984339434729214, -0.10818564746119565, -0.0333686037521256, -0.026643964733986215, 0.04794117491393592, 0.003224589858783158, -0.024920196559582695, -0.033374344541110254, 0.06871161043647936, -0.05122391803537349, -0.10468166627318982, -0.1124420646134144, -0.005026451975095079, -0.0677198646173711, -0.09917306096747913, -0.09777072189612956, -0.10196880469123684, -0.08255988575808358, -0.086218565163018, -0.07110461245432761, -0.0635776663423108, -0.05363878237552997, -0.14072436202588134, -0.035042806041760695, -0.0037895768006028603, -0.11816075674217497, 0.05104996177259268, -0.022924946425542388, -0.0844580655210715, -0.010873587585217054, 0.03621030360462853, 0.0022135080015621587, -0.04023434340868428, -0.01468901937374494, -0.004083098109779346, 0.04036014591591181, -0.020331045897021897, -0.03911466770766161, -0.07923931046303942, -0.02832808712114777, 0.08264843168439716, -0.13153457101881025, -0.09423124188496336, -0.1428705596379918, -0.11892356916457661, -0.033407489255824756, 0.25793686534514493, 0.07950509135205079, -0.07043146688271573, -0.2222112624787515, -0.2735474447128126, -0.12050708335396117, -0.09242937526979257, -0.06455180883196313, 0.004969649824350924, -0.076331763518322, -0.06416420277400814, -0.031577940149931226, -0.010719714093116903, 0.06022984611940727, 0.035450325123317854, 0.04216362909575044, 0.05497635499166745, 0.05078090550225718, -0.0764203855876828, 0.08682931486782836, -0.03815268064074652, -0.07578409564485997, -0.1154370359433968, -0.105336006530303, -0.1396007763777152, -0.047992745362379366, -0.07661441918962614, -0.04647678352458083, 0.14025518690205596, 0.12344061333635273, 0.03316421534937467, -0.0070713022232320125, -0.10782673727319327, 0.022753761619984176, -0.020100980456209765, 0.1024629448252851, 0.06125673750128925, 0.03400009998838907, -0.0866418698845512, -0.06608617993146991, -0.06233583134498168, 0.004339583293749815, -0.043433520968763836, 0.05539977515636468, -0.058390913953011145, -0.04186851158744592, -0.11204432370061819, -0.004619459727179949, 0.07053393694870001, -0.11652837865282963, -0.1775515691715143, -0.09549809613208518, 0.07230995757337268, 0.0011594313363407095, -0.22619954621718735, -0.07704854642490166, -0.342684545667604, -0.10839626388841278, 0.01610332362227122, 0.14811110918355716, 0.261064834545637, 0.32074289975922515, 0.1316928023772613, 0.23395133431979184, 0.13355508749120462, 0.17286082921292045, 0.15218212322057473, 0.08132506507806575, -0.013163522067174221, 0.06065047107198103, 0.016325180264562447, 0.036317126454523105, -0.004601880935111924, -0.007398914005204066, -0.007718942940471251, 0.08754117436482581, 0.019686964011625237, -0.08893800268023887, -0.11055288883757779, 0.04697559647121912, -0.042366276177959857, -0.09487053237666147, -0.05217547038288044, -0.17781450747544555, 0.03375120601833533, 0.09409471419483391, 0.20005997658643246, 0.2080666168809514, 0.11942973307764987, 0.16650305393553833, 0.23873638146070378, 0.04966384637342453, 0.09516708538362897, 0.19321460020283143, 0.011476428202509095, -0.039589922724532364, -0.14229924169373476, -0.059603124515317636, 0.08964201243787709, -0.053536113235844965, -0.03972472389713375, -0.11050083538716829, 0.11970096858751204, -0.03646329525780773, -0.12195444866204323, -0.213295859169056, -0.2737475611166969, -0.022625801292076458, 0.08689172880252859, -0.10674355726075414, -0.0660493297991602, -0.09892027134357019, -0.10355852022638187, -0.023017586156539118, 0.1397663948789698, 0.28218290752601627, 0.05839206695663124, 0.22148579136870344, 0.26257496527644386, 0.16532074528860793, 0.11146654140803003, 0.1956826263984509, 0.06224110087298864, -0.14031363545970574, -0.06395360971081995, 0.0609300965636871, 0.1501873934409192, -0.0391423617395182, 0.06092555345068985, 0.07900506936508124, -0.10486777398738718, 0.08221015628805668, -0.20072967554355936, -0.21163912851963412, -0.19211780061894093, -0.08146703968271549, -0.1086429899671938, -0.016245212805961244, -0.16902482272605343, -0.2234927857284466, -0.26989604179148735, -0.1324824490271463, -0.14803053045000783, 0.04961926658804296, 0.0859942132269825, -0.05365824035702032, -0.07617925394384549, 0.08646115432920119, 0.17531111871840788, 0.30145478621411836, 0.03949122226763119, -0.14147504670371788, 0.06872201791115091, 0.10986565783887019, -0.011951027564614585, -0.01618111731136733, -0.0033277808365265145, 0.019878014413081894, -0.15410834691833716, -0.042410352684592915, -0.27415111384190066, -0.07827414898002145, -0.17423905454589875, 0.18433667113993085, 0.039750491504892925, -0.09016347470925609, -0.28346722851912176, -0.2500724282821037, -0.38590725176638924, -0.5391502821630522, -0.4134049842173663, -0.36056225375708173, -0.05883281905032575, 0.021264923433563242, -0.26036259030993647, 0.0295688857119653, 0.24741712171186173, 0.22981010150064474, 0.10811837960815762, -0.09750069616077836, 0.08688097227406254, 0.02169203788897186, 0.11719752121283271, -0.017167720671230877, -0.06900653422986196, 0.05138989792049546, -0.21558875591023735, -0.16834824208840132, -0.027745808185110674, -0.10808071382814018, -0.1610363066139958, 0.21278292853844538, 0.014632552465034776, -0.027010357273418672, -0.022194092061875503, -0.06422839972558078, -0.47696700279468807, -0.49158078585104215, -0.30537247739011936, -0.2032533158668978, 0.014491703191940663, -0.008125889718592582, 0.017698813517278703, 0.1502567122229922, 0.24466308558604563, 0.24641894755940258, 0.24396651307728584, 0.08719579502102923, -0.02946629626321959, -0.03271165485455062, -0.009982789099271083, -0.05327223679754739, -0.0112850859721592, 0.013057759216017883, -0.016722667808038518, 0.0432306347494379, 0.12758237930720187, -0.02277542506033714, -0.022187251611896833, 0.20166056204706673, 0.15523827079546923, -0.07007173477856958, -0.1348322185713527, -0.3157113057719501, -0.31917782361244446, -0.17962469336004752, -0.21655169210463043, -0.04733270459947648, 0.22949557487846012, 0.1073966045894838, 0.01736565764274349, 0.03889598389334673, 0.10728147083064497, 0.3057913491765268, 0.27390941011395015, 0.039734757406372105, -0.008023544119184229, 0.01652275085498954, -0.029426579332403755, -0.09215223814482193, 0.03405174019300271, -0.05623399861967252, 0.0928209017927422, 0.24147601555046577, 0.1884998979637854, 0.14540697228964783, 0.1396091045312979, 0.12105370635246843, 0.08313338706547586, -0.014048276795463166, -0.032002317058227626, -0.15976456642591624, 0.08477332117305589, 0.026293141636789124, -0.06482192213664882, 0.1178489568688002, 0.13363965172461673, 0.11486090422832539, -0.19370626132625984, -0.15563772549268637, 0.04011310214531755, 0.03295150857909107, 0.034690124586928744, -0.014334741331691882, -0.11248550983461766, 0.07820272284945545, 0.0036284067097970074, 0.03677328984152337, -0.013706906781818566, -0.04957727502013365, -0.04135628230273602, 0.30576298488541703, 0.23581752345004564, 0.30999045505144057, 0.4033401180423591, 0.2970412809591236, 0.20666870467277085, 0.09101620658374943, 0.16366355750009964, 0.010374895494107672, 0.1296854184475441, 0.08374556490344769, -0.17611882845066007, -0.032695374928395686, -0.018024544963332414, -0.1667308891476474, -0.21291851973097323, -0.16576767846794577, -0.10227190558948548, 0.03641675758153274, -0.06329251893595257, -0.12364419103065927, -0.06560337914273608, 0.015103530689193208, -0.01815800133006084, 0.04363803158628829, -0.0038880227785945704, -0.07342623817696979, -0.032256727982404323, 0.16250760346939574, 0.2814507987288483, 0.31173055409253286, 0.4595341308409948, 0.5896729137784978, 0.4027532344600698, 0.5150348213121537, 0.5385959706104902, 0.33992853984797095, 0.40041374961872683, 0.16834033899865453, -0.12252727741619983, -0.22311302079211442, -0.3382201403033484, -0.19340084220989776, -0.20309156708672024, -0.1516396071017073, -0.20994912716908687, -0.0773153811428662, 0.044580590124430254, 0.039288202243714265, 0.12788070057191206, 0.025525475685991346, 0.03954716445207187, -0.004251447814194704, -0.026119336995684438, -0.18631151121166126, -0.07185170103551732, 0.09197596087548163, -0.08400975899377217, 0.09872710815379178, 0.17508376077405044, 0.4109091300438004, 0.41803613862977074, 0.5986462823018937, 0.5230065015869467, 0.48433622203037124, 0.3293720784913432, -0.06343104034043912, -0.08086673093330334, -0.1956398886126716, -0.3579247490340199, -0.39415752938253945, -0.09906404795178667, 0.00038698734116036383, 0.036243176200539656, -0.026234319235964386, -0.004192746488878937, 0.11313994093632028, -0.06233769193335595, 0.0873181105620841, -0.01082607402474286, 0.016217198863934995, -0.04839001324080757, -0.1187375826717513, -0.13483064611448256, -0.1217695608047562, -0.18579909194878272, -0.03153976425157084, -0.04395064449324707, 0.028465351597026237, 0.13277668510194612, 0.22529852168391032, 0.37782255894403016, 0.2785414811725203, 0.16374571194794646, 0.1318620482788014, -0.0891765462053696, -0.31526616021936893, -0.08139268636921079, -0.2390443299316651, -0.04720311840653155, 0.006253470495793089, 0.06780835860968137, -0.032903901182516376, -0.15161701425285912, 0.062283499335297914, 0.0006633219644924758, 0.033217305981633576, 0.005304014508006332, 0.05653801888479345, -0.05126055376996619, -0.08917868503810958, -0.12467137456208251, -0.15246399554809176, -0.0678048774624782, -0.054768504723711385, -0.08357478041285256, -0.1039846091519717, -0.006490995350149775, 0.13816486586145985, 0.07627641259039789, -0.04443177502657084, 0.2449993711056913, 0.10692063785071554, -0.07830265001104955, -0.042582306167617295, -0.015835210604043613, -0.1437792036811191, -0.0341762477309611, -0.10578015093702638, -0.07525058634870108, -0.046803795154459496, -0.08859222312830048, 0.05500348590018073, 0.002586455114864645, 0.00027718717930837807, -0.09685666384966367, 0.017179942096316812, 0.0656947170132975, 0.015300602983976832, -0.0551149868859316, -0.1262634583308685, -0.1958167155843996, -0.011098573399701547, -0.1925627508997341, -0.17135627120496302, 0.06642853457957126, 0.1970430270814818, 0.09536186446348449, 0.053175635982993165, 0.15213714689623345, 0.3439180027322764, 0.09136070391478514, 0.11309320382511201, -0.07998286628428583, -0.20756708868867482, -0.08420252486570998, 0.06376879968855523, -0.12783963813083257, -0.1233497538725614, -0.06984917950558699, -0.014721176063317017, 0.007119025115957778, -0.04139377785122693, -0.019979859469680242, -0.0603944762088895, 0.037107826509224, 0.07472588027662286, -0.03490001394811863, -0.08752581450155009, -0.07951571758879772, -0.09114984949178853, -0.116615133489329, -0.12426517994294602, -0.21066845138828774, -0.04949568755803718, -0.0036851760473963213, -0.027414668056861168, 0.2630413234387968, 0.28071698117809113, 0.23334944477630168, 0.03087298525444672, -0.17622298097931954, -0.16518105594778212, -0.14016139066172764, -0.07168918685877276, 0.039634199144694654, -0.1231141155225852, -0.02566644511948957, 0.02723432566043111, -0.06075883530426582, 0.012056336888815463, 0.05230322437979542, 0.0913725785390658, -0.10735570660192989, -0.1098546021336342, -0.06217066858675343, 0.037972736280380885, 0.06489661411507835, 0.20298999799600984, 0.05062900736786297, 0.09334605166571912, 0.10704312491336615, 0.1234955826736796, 0.08771797122094468, 0.12013159432246175, 0.1291541302130867, 0.18053680102766467, 0.018658520283866824, -0.18876033041036713, -0.14356718621479672, -0.06937814528034775, -0.18491602325500814, 0.003434609587198858, 0.052466441671859036, -0.13630997809708106, -0.046612253072276504, -0.02860034347550274, 0.07816692552541457, 0.046605459137506064, -0.016520500029354106, -0.0914150171805826, -0.0679457323212851, -0.08321834002648512, -0.07581765599699586, -0.10298461968059595, 0.11412734407544897, 0.024431609714845228, 0.12729774584889061, 0.1788073616827782, 0.13778362947937217, -0.0615688903794236, 0.10181186558876013, 0.15047708694156253, 0.2825819803720106, 0.25402239333581605, 0.15683288497034406, 0.09336868370896372, -0.1788769695844158, -0.20367258904804528, -0.26700341395639077, -0.05078999340247219, -0.056673342960336416, -0.0473210400771205, -0.08874520196634035, -0.0004173574356752519, -0.04948956798809976, 0.015862692104569625, 0.08993412876104036, -0.08493262527479117, -0.046885296753768055, 0.014759663463648194, -0.08143863168320924, -0.026844011719007136, -0.13169215242933527, -0.05435159245585836, 0.02465403447849819, 0.1739723801534441, 0.17806764721036755, 0.15480230825383434, 0.2802009025058342, 0.26492358083453427, 0.42456255787821273, 0.3152141561721653, 0.10222094215245461, -0.15544587799184323, -0.12217945415481249, 