{"layer_sizes": [784, 100, 10], "weights": [[[-0.10652036496092143, -0.12437070167999112, 0.019107345455960604, -0.037215016731109773, 0.010291251368575399, -0.00024366907607359755, 0.08807574135540644, -0.06037013283101082, 0.04765673739991799, 0.06960695725701346, 0.04929861864932562, 0.03579962497407871, 0.0560107141527705, 0.027962875542173138, -0.014301308358341387, -0.027062172447212474, -0.0824334105179949, 0.047407513444146544, -0.005702848745399094, -0.04504336923689621, -0.054554431659022455, 0.08609669680324153, -0.06951828990658687, 0.0427557462290844, 0.056327947654666186, 0.016147392136458497, 0.025384320232785515, 0.03734578234559788, -0.002322718617519732, -0.011431013997108093, 0.04759701967023223, -0.0030620203520220195, 0.010039630551412096, 0.02079765203347968, -0.02334400087184487, -0.004526758125567106, 0.0007850370290113563, -0.006958703355015591, 0.0345366047056627, -0.08459995287614291, 0.04701812776273024, 0.020598502669269835, 0.02886837681021681, 0.011752183524738807, 0.02426258656581478, 0.08177047754566305, 0.03429177886902208, 0.020720693386188732, 0.006717289940902675, 0.0030764503845191696, 0.01345360103283613, 0.05690044320015835, 0.04265784366941762, -0.023559855056676075, 0.015998569155428, 0.00041326698622279556, -0.011497590822902339, -0.05152998833317106, -0.02768733068764401, -0.002696471087045689, 0.02804703557851321, -0.04070500478839604, -0.027474738583615835, -0.043908218824863045, -0.012903655349974846, -0.07028537023681862, -0.04141035569492866, -0.05223349272717948, 0.005286922529490217, -0.07273825007182459, -0.17573583578640775, -0.11878003367136937, -0.04036629674914588, 0.032334419673053366, -0.04247287337050888, -0.09141949763412391, -0.126610274846715, -0.05270468285786468, 0.017316111874889187, -0.05669765964849044, 0.053637600783013245, -0.010980493242719738, -0.024525543938045433, 0.06973880678667313, -0.023151350485620684, -0.022204222968286103, -0.08865518788599043, -0.016626156740665296, -0.06353947569348152, 0.04501270761983413, -0.11027698025593628, 0.08818078088524153, -0.01570508306939316, 0.08167872340398959, -0.1057866579276447, -0.0014260593718053386, -0.08231541918043828, -0.23033640248071147, -0.18627051113197376, -0.29472560927235736, -0.1380332825075881, -0.13053132927574446, -0.28542663937238777, -0.13632821933742204, -0.10288480792342436, -0.04734949356477062, -0.06814589361289024, -0.0277143283394299, -0.07552274500877725, -0.028497269057415165, -0.0461126925547127, -0.00491342393788815, 0.000595649194351997, 0.04752349350849246, -0.02097015120172746, -0.039875862964991474, -0.04938518069847949, -0.017661586957592887, 0.05852973107049481, 0.050109832979544, 0.056269252353650726, -0.003161681200735554, -0.0773105709605961, -0.1143437562077127, -0.03394140960227361, -0.10161694636722546, -0.05692338632873173, -0.16571420198928655, -0.1277777965593102, 0.024571898916056805, -0.07075160447700163, -0.1153108524411742, 0.08726192746296213, 0.03168692475875297, 0.05053635337609826, 0.03615735604190653, 0.035417092892351454, -0.08528398060295417, 0.056231965012712264, 0.060226051716619704, -0.06278769139440125, -0.00925003365151043, -0.005522219935072434, -0.075603419497656, 0.010140278807131762, 0.06625134392497953, 0.035716009239805994, 0.06917918297408847, 0.07469072845507238, 0.14375844376002772, 0.034778591321187255, -0.17913748281181388, -0.1075855778942888, 0.09464214560953858, 0.05382658012452601, 0.09572662798813442, 0.028724315351832397, -0.04122234352198386, -0.04071539376798461, -0.2954732571725287, -0.11378173382454905, -0.12484518452864593, -0.056436016510395606, -0.008961647433308611, -0.06255398429574577, -0.006158133352308227, -0.06145931926184211, 0.046797224823036915, -0.008641396322612377, -0.03612918718956227, 0.050538586641603434, -0.039995042768749066, 0.03869368003433764, -0.012514443731537287, 0.08919158156174219, 0.10546946714972491, 0.17702233512508894, 0.011939188157256196, -0.1024198091968184, -0.16554162368516978, -0.01933488488065093, -0.03433372453261439, 0.008094894373661626, 0.01705361080127149, 0.1705544445467538, 0.024477285202015614, -0.1814555556906795, -0.2765208511062836, -0.27055792009892665, -0.17280728341632048, -0.008250352856525043, -0.061009746830190406, -0.038858675277709184, -0.03545984504493571, -0.019378458660460278, 0.02511046267248385, 0.037105131171618955, 0.06660265340028769, -0.021719519429761202, -0.016099577058620817, -0.0980887174934322, -0.002108775669893263, 0.11134708905699643, 0.126494621411354, 0.09087314708796336, -0.14201436996256925, -0.0688793825516517, -0.03217781223267596, -0.007630285132098967, -0.017426047897549198, -0.19285766785365982, -0.1645360320041224, 0.15729716521878392, -0.07225165085092017, -0.293062615943191, -0.22590621650543566, -0.10350589275550964, -0.20762163922598575, -0.07624360837216437, -0.14096712417259114, 0.04155536994603466, 0.022027112714664725, 0.06511052658512162, 0.1234595302184495, 0.017841502207429073, -0.014625551732341481, -0.0887405833377376, 0.011520413154675004, -0.023516884006384197, 0.17702788694478178, 0.17667322994515486, -0.028879969988668132, 0.12006789817044403, -0.0429562313810545, 0.07379662850565645, -0.034907998278646955, -0.18497958051659072, -0.2597568397917481, -0.09113943028407193, -0.1692238901538764, -0.05200459366438338, -0.10083924547121377, -0.1009448870867849, -0.26361004403261246, -0.26626835388225684, -0.35321613624907877, -0.27152954603022633, -0.16662430348111948, -0.05266197566228494, -0.10581545504174782, -0.054366900751779766, -0.027872536156500125, 0.01662524221476185, 0.037704072163518204, -0.05771645803443433, -0.022857967204270174, -0.12245402725689511, -0.04257358935478298, 0.10878790787624659, -0.06937641222971669, -0.1637443454453426, 0.052177174415384685, 0.10030777188661606, 0.015874211406518037, -0.22467100070545487, -0.3333770736525024, -0.15081738698583705, 0.009921046903373304, 0.014081310692069386, 0.11686300359296999, -0.015048174307867824, -0.15151729009084178, -0.13432653109107143, -0.3669649341104802, -0.42584149391079745, -0.24602119012331494, -0.13983249531646602, -0.0733180267686202, 0.026456656777533054, 0.011190813782393975, 0.039669945989669386, 0.05805125665809472, 0.028095460157137455, -0.08530488591317065, -0.07038684993736542, 0.07281838865622046, 0.010515027323633564, -0.10131356893589877, -0.08994679613892112, 0.03501906564683629, -0.12826496386238218, -0.04746014693771323, 0.03989589114905622, -0.187298025397634, -0.1936697580457529, 0.09301890550985317, 0.01714121466588071, 0.06349978321639291, 0.02899322053410744, 0.17542970734565944, -0.1760520228880989, -0.23093316203381883, -0.32203738648068536, -0.29005057271988943, -0.15826996780821, -0.13282366885512073, -0.0359339294640716, 0.09186320023108706, 0.08262836076312566, -0.03677418131778753, 0.08454303644997742, -0.018942129047674065, -0.06641262690570364, 0.02558382728998198, 0.09392381699068689, 0.0606167750762333, 0.05905360792954684, 0.055682891691336445, 0.032751573801238575, 0.15338482783342922, 0.20087346330805764, -0.07390349276406913, -0.24445709698592527, 0.22307365174819227, 0.04640344646502337, 0.07498388414336737, 0.1534853517693636, 0.22846912377173176, 0.196997436394834, -0.05844240373009067, -0.36170903883233924, -0.2741048861716148, -0.1602156889797516, -0.15366422222871656, -0.16607365714573039, -0.004927070286958384, -0.023256382105785046, 0.023388055248811712, -0.012154684830724027, -0.08192295132448857, -0.058214446965777086, -0.07942788522234828, 0.07336464252005107, -0.01647793550949333, 0.12461924233636337, -0.019284808915509297, 0.10122837691339688, 0.051608269652224974, 0.17886556705897352, -0.22343788202411843, -0.2810108714996164, 0.021599176125729414, 0.08460130754595821, 0.1647693367975467, 0.1943491866847009, 0.4402265149884589, 0.25768341869482164, 0.04633177375863727, -0.050825688202931256, -0.15847540597549856, 0.011155717170456776, -0.06084135318055157, 0.08921234157465521, 0.007855298399988395, -0.08912724341162118, 0.04084887365251855, 0.009812898508196449, -0.1309455630174393, -0.025305911668075942, -0.02709731881163263, 0.00562954524090407, -0.026402671921978673, -0.005422928055127641, 0.08247430427693596, 0.2573117727214705, 0.20145460448835809, 0.16168419829668318, -0.27642939705001424, -0.3030901777304637, 0.08620547581015536, 0.1714377813413325, 0.3151700061963389, 0.36153176905942835, 0.5008860010947929, 0.37715143051785316, 0.165916116956578, 0.14494402969954798, -0.011984297108200459, 0.07925650896381943, 0.018014580856162872, 0.04244895284300748, -0.036482685950342944, 0.018207750987405444, -0.07498601830421171, -0.05954497959518983, -0.03313548688775439, -0.002329239679371917, 0.0950525809789748, -0.05695235510590177, 0.03573934847981784, -0.05571926566108322, 0.06061621815792961, 0.09933926074045461, 0.02692838179553496, -0.12024110893057614, -0.29302174220110355, -0.2530986264802924, 0.01423232759947186, 0.16168710145044451, 0.44762990415029064, 0.4864077921447312, 0.4175907524840966, 0.15990031126034704, 0.12758130539448537, 0.13084939446552493, 0.07818372399204644, 0.021652271876818386, -0.009854978307532666, 0.051604292989625065, -0.05808356124612758, -0.02316706815525126, 0.039668127764742114, -0.04345730018980092, 0.01785755495777481, 0.02296141813529308, 0.02325473802472249, -0.04600780065702863, -0.0036411278229549473, 0.006322575453215452, 0.09448968594867413, 0.11890742895712691, -0.06186194463873112, -0.28442844470428486, -0.5336771085996048, -0.25825178650302943, 0.30996580443501703, 0.14709179615576298, 0.43337428711717846, 0.25400973513009645, 0.40007860417304025, 0.05682056748208332, -0.04825496344021509, 0.1409059830869673, 0.07796435975019732, 0.003049039951430608, 0.06469519107551945, 0.014550468051967339, 0.0008856756928925708, -0.02946638615100935, -0.019641637471064382, 0.022958333775836146, 0.05413955692261716, 0.01827264849386797, 0.02954059815213433, 0.14690763141304955, 0.11071696153653125, 0.09072605870999255, -0.03181537845536048, -0.04695697329220728, -0.07235938687414613, -0.17489651762497374, -0.4702113864548587, 0.09997354777180584, 0.6079739098785528, 0.47737714958987476, 0.6549691179974967, 0.258806094311231, 0.14774014533729563, 0.08805305954690724, 0.04856519411871438, 0.06367831943035006, -0.019543041558870905, 0.054477168918178394, 0.06791343437066151, 0.07207021398519892, 0.08105551352907264, -0.02720527969841165, -0.056144027033273335, -0.11259012825339493, 0.09034462129369555, 0.07923456257307882, 0.16257810360973765, 0.1167439616824263, 0.04833643827404654, 0.11746760660852522, -0.06099215833733435, -0.03060028573763296, -0.18818727903649557, -0.2719794998043687, -0.1166052810914565, 0.38386184299749776, 0.7333505244765273, 0.4762270434267978, 0.4473569552878203, 0.3280408146682135, -0.045436072221747205, 0.08561590815856922, 0.028160341724658873, -0.02907946733689756, -0.03992186661491851, 0.12581006019033594, 0.06922452904860853, 0.009936668510981699, 0.004387739011680263, 0.03737479787571087, 0.021074542701036345, 0.03563560876076267, -0.024920309620408778, 0.1953548048714262, 0.12244037863738941, 0.10547713333866256, 0.02936571927390841, 0.07069473261949621, -0.04049697136748839, -0.13492022414987648, -0.14898717631669578, -0.20585632852735655, 0.13729735938198578, 0.4436372247029628, 0.35811992578799395, 0.18533038529272006, 0.10153125852056584, -0.04148618651212585, -0.03102621871771018, -0.03153840390639263, -0.12367804038854734, -0.0766722993691827, -0.04559708323094112, 0.0324068550571593, -0.05563378284975548, -0.018535268218702383, 0.03056695134890532, -0.039597987921365846, 0.01732885658765497, 0.026559853881330298, 0.025793035746684855, 0.1278723467146376, 0.04757296509469836, 0.06239469619957145, -0.0643601664779561, -0.07344165826458435, -0.06817436491064521, -0.02939267570329911, 0.14616086961996605, 0.01684558101087062, 0.12680970024847113, 0.21117843943590062, 0.07652651910248888, -0.1239640943552608, -0.23171999380590697, -0.14549445792595558, -0.09218244799457236, -0.16917353794420495, -0.18788522956862586, -0.15698940619650975, -0.14733201829633055, -0.07680554183798334, 0.1061617619809269, 0.02163595876833388, -0.030994177687674287, 0.07451759464139877, 0.024546398163180275, 0.1031616017264177, -0.014662862495624112, -0.1292357321509496, -0.10077118267811457, -0.07554219232530579, -0.1337041069620695, -0.04451659296521932, -0.23150542431110224, -0.14305370695865732, 0.07126347536329834, 0.10956962738783943, -0.0812190817600677, -0.25597143405376177, -0.18045451898167797, -0.04342159971553201, -0.4044838545427128, -0.21520776925145932, -0.11815191727856905, -0.2700928372964779, -0.29794241317560427, -0.2284821184627194, -0.05576583501991914, 0.02003723431920186, -0.0925603882114028, 0.04674861497844119, -0.07582213123568549, 0.07719324149629672, 0.018647964747949244, -0.022028682891274277, 0.026270536272611462, 0.052064272019977445, 0.04596776600983331, -0.15918449308701246, -0.20130890263387063, -0.011619364094417398, -0.07759478206249107, -0.01590527941532579, 0.044520591130267274, -0.08020335906935291, -0.2561952885937473, -0.3633229571614097, -0.07113949139227757, -0.15316402856554473, -0.19251883002750805, -0.28932150765794695, -0.12046688424164578, -0.21701941556851093, -0.1942225243517483, -0.06775767872350921, 0.07901067497959173, 0.05528204568112475, -0.07503603186126294, 0.01545950341109567, 0.08567405243750972, -0.04172059680534157, 0.010603628842573631, 0.007768840585970892, 0.027260650235357817, -0.05291712596727, -0.12376276929617915, -0.15820142252195846, -0.11586437250413124, 0.0010389899736706982, 0.07443812000911322, 0.13320713997643324, -0.008242047267639444, -0.06528953262396037, -0.3264587342939528, -0.12459254644889663, -0.21823592386782845, -0.026995313205942097, -0.2064533563676783, -0.29202546063265633, -0.19966354612904905, -0.27682280770841333, -0.08766126753712782, -0.013063699077297557, 0.0717827393645044, 0.09489337829001855, 0.026844897659964978, -0.030934425944801794, 0.04075267034202426, 0.01942173196488825, -0.0877620058674821, -0.031149222743909414, 0.038672559274484125, -0.15353876766318517, -0.12828527147594, -0.12341269136497028, 0.052768787075768604, -0.028806487621700624, -0.029711173345962693, -0.08897451837458675, -0.12242019198465143, -0.09802611375593541, -0.23521539272662315, -0.0028757828295661865, -0.1541023994110737, -0.17297942445588976, -0.16201622520411202, -0.23495620366322637, -0.10366669975463702, -0.10431952218910699, 0.12334116153267406, 0.015275954367326027, 0.07578324406751703, 0.02776316278200879, -0.007656031980024983, -0.07957034952604528, 0.11539853199754371, -0.021581971214773735, -0.021890385010690235, -0.02984330819686511, -0.07018450840113807, -0.02748738028248554, -0.10456491593563738, -0.016475279754996783, 0.0002598677658261843, -0.1776162875101034, -0.2943243535082156, -0.2756473715300293, -0.3387715699243417, -0.25859108194339536, -0.2865735532281241, -0.031435102287852824, -0.07458681896825235, -0.005340882509220483, 0.011889603344765144, 0.02541979132079451, 0.07482591301405435, 0.06949816326921524, 0.08342162613848714, 0.16373035201999125, -0.01067966599957838, -0.053811107929845885, -0.01656771288508592, 0.008567519106235823, 0.03761565233513657, 0.025714101208495398, 0.010777703943237337, 0.0749601426140043, -0.026823916130163824, 0.024793705341792944, -0.013328297985779981, -0.04184515351215403, -0.05372897869475154, -0.2478572521638228, -0.18384893227423152, -0.2550918646034023, -0.15203527774854347, -0.16497076805036856, -0.1353392901983295, 0.04196215656708648, -0.0038329829618970975, -0.06512304037408476, -0.084230291477437, -0.05748961260115776, -0.05503942176537087, -0.03391528505802934, 0.04274248658524531, -0.005119931483091268, -0.0544681576429979, -0.019458335060016742, 0.00982814571395448, 0.008479806271201843, 0.055105047192202224, 0.12354616542662858, -0.02890054825884343, -0.0863638479639994, 0.08263663581646752, 0.05566461318561054, -0.028020453043078115, -0.004642993983980574, 0.02247860393931275, -0.06809208053185836, 0.00520517196861214, -0.1562837839449241, -0.06925316578880396, -0.0010592288809276199, 0.07460222749214455, 0.05929823460816653, -0.007424220462554396, -0.03195921283582471, -0.07429523922195796, -0.03224968141071249, -0.03438394355331549, 0.16948694828512242, 0.05262306198114658, -0.028767025644860885, 0.0008746696631641141, 0.008447433248259585, -0.008981701761907658, -0.04229781134665231, -0.04284952699494033, 0.015374293111906048, -0.06436291926362728, 0.01681471857210454, -0.03324874602024356, -0.07318394385923097, 0.032603636243416736, -0.01286199157173761, 0.000626402131170509, 0.08676930253268998, 0.005728430651050938, 0.027485570891425923, 0.045332213196869794, -0.026939059958285674, -0.003255174320895094, -0.05046630639862644, -0.022201298434959764, 0.04888993773599169, 0.040113425502038814, 0.033212226297042416, 0.03761980124612731, 0.005699792854716104, -0.04877072280578503, 0.07358794002064742, 0.02135383579467911, 0.07839437983557519, 0.048100765064257166, -0.04862918324962296, -0.07501502859488308], [0.034525893527053535, 0.014220283712777936, 0.0042061028101923505, 0.05608242759077173, 0.011986867781471785, -0.07654558581298494, -0.006377287133055797, 0.011620808400691945, -0.05786172713556548, -0.0032400069014281987, -0.02646059265535388, -0.02361366864392209, 0.02101706371494459, -0.009974149897547854, 0.014910189428436457, -0.04527425246633533, -0.06728805433495788, -0.09393957138047407, 0.03577507182376355, 0.0335020695276089, 0.01694706738203729, 0.12879722125197499, -0.021297769488973953, 0.11725793951459818, 0.01549435693724838, 0.046025478317562755, -0.055526046828495074, -0.04150925087141554, -0.09258660391477708, -0.00567966038192944, -0.027958046204075375, 0.026998787857747855, -0.06496454923025544, -0.03542696772227825, -0.002322723945796086, 0.05838377840866311, -0.034370679830556715, 0.020345757125372455, -0.05305846952962241, 0.03666862865294841, -0.03655882295382822, 0.053732691780056505, -0.002838258084053548, -0.06233427703257872, 0.014641816164614168, -0.02650791223156535, -0.06759641760948383, -0.028462571419219245, 0.08318723741082742, 0.024530440746126966, -0.06639465437102057, -0.05076231576706137, 0.004638233593554854, -0.060840118465840476, -0.004496520922409802, -0.0499467316173535, -0.04417359082531683, -0.03189052224983513, -0.024312124771144895, 0.011265499369070503, 0.005554672284327353, -0.015603021496351246, 0.017227253794860786, 0.07885611665881873, 0.022290881584868562, 0.10563951281241456, 0.03495159227182535, 0.08239983816186792, 0.12447921393560522, -0.00611866845557621, 0.02126032620674513, 0.02366425036692299, -0.04580979602235707, 0.02532418499229307, 0.004335929566504804, -0.03970799124405679, 0.03492183779657542, 0.009939001214896574, 0.012949165572926717, -0.04299052722516474, -0.021943392904903273, -0.08568585618014178, 0.04939422613944213, -0.007149454643706872, -0.014339099709290848, -0.06502679833601041, -0.062030570354104295, -0.011728968845512248, 0.0008064115584043089, 0.06061165214353245, 0.004647326815020766, 0.04887018949011847, 0.004128272791550172, 0.1560586599261859, 0.09278871939023076, 0.11476909302113555, 0.14654848530789644, -0.052359228965389366, -0.04322965198685285, -0.0056085732508667045, 0.01033756242900835, -0.06096657709924714, -0.013657408083175638, 0.08416244418681441, -0.003910214534933491, 0.024530092822274526, 0.08281605648697103, 0.031181803965338373, -0.003950001026882647, 0.081944684127392, -0.03946051394711728, -0.09762206532759972, 0.06540715301882731, -0.019406739680927373, -0.06312565725235729, -0.026391367555983338, 0.012776184434369502, -0.007345930454031873, -0.023265745323350785, 0.07411588810774851, 0.13439916363708643, 0.1370403725966381, 0.1342595087006222, 0.13848975949845585, 0.0029931383219967645, -0.14471543189903308, -0.030528349519461793, -0.08822554336394638, 0.0068864361208656084, 0.13150425056805343, 0.07755408715634511, 0.14426583632914614, 0.16226703723119473, 0.030713520111869574, 0.02901891747664341, -0.1179128512610074, -0.014395522394325698, 0.02188116399657959, 0.001945793566550096, -0.03361836686523259, -0.0758386887082419, -0.021155599660793268, 0.00270573495980985, -0.008310513561245536, -0.037214332792008774, -0.065794609824796, -0.07004675278237205, 0.20376598544511584, 0.06802659215355392, 0.21177827590943218, 0.1952310209627297, 0.1197796850032863, 0.05599130625068648, -0.12826275727939931, -0.07931251644329457, -0.2729308429401048, -0.15311034128369927, 0.09525670047672638, 0.14021431981619736, 0.19796179695581032, 0.22814847733996652, 0.0995818651232425, 0.021265622134812187, -0.07510786618011513, 0.038788731221649365, 0.013318092153893908, -0.00029729679869126445, -0.051945965150817085, -0.0026390059655953366, 0.09279288735338313, 0.043086312691707186, 0.0821587479462786, -0.0023927315714640796, 0.06915863802404089, 0.06605903322637612, 0.1249762269402639, 0.1269922624420443, 0.1398408809663471, 0.11354444023424518, 0.017470331794207386, -0.0234100004881077, -0.022824094053880216, -0.11970911687625878, -0.022537233053113594, -0.09392716191337178, 0.09902963888288406, 0.07534323805180884, 0.2098552583404327, 0.19996547134868545, 0.14457444971109215, 0.15527514375617874, -0.0603022713148531, -0.002161993573028311, -0.044996889925774886, 0.08872315540924203, 0.0718284489591204, 0.00443614031223434, -0.014035598680697389, -0.002990567461518644, 0.01084518647244986, -0.003964862650985146, -0.012971895846728735, 0.02638101757924674, 0.1269132155776727, 0.14996295253940112, -0.048926155139942584, 0.12728148603060324, -0.04207386354620703, 0.0534325947559548, 0.07214243572967309, -0.045154405047547294, 0.04593408965450828, -0.08368843611772873, 0.03471854948001548, 0.2944283529632401, 0.28091591570016317, 0.02782733829756647, -0.011641817269868932, 0.06604671563792906, -0.0353464412060968, -0.028220805515699745, -0.022349053183057997, -0.015324352055722528, 0.008860328039726105, -0.011710325415178595, 0.029858554988440988, 0.1323111648627454, -0.11282287874968006, -0.040219668623125766, -0.01654977834250744, 0.04897650778697189, 0.2218165972280567, 0.11655487444471496, -0.13103189452217678, -0.05808538273788401, 0.012317747581509206, 0.1765864020401468, 0.09283076917568046, -0.15677585986183334, -0.11207989702998164, 0.1290916287719792, 0.05070900838880133, 0.19072906650941635, 0.3952086646793196, 0.2519633019944368, 0.02029792277685464, -0.04893596248345164, -0.01172073917662361, -0.0557030130197004, 0.019103156439885922, -0.009872026031107267, -0.14493389914825158, 0.08238012931142095, -0.040536129532272765, -0.058590090800631454, 0.04747774158007229, -0.059698327243554616, 0.05884473537958366, 0.09353854509833757, 0.12462524424445869, 0.04197793367475561, 0.05649412565820002, -0.009355013347360726, 0.005641263684153328, 0.011826544567281083, -0.11849358350749657, -0.17135737481358995, -0.1782738933354765, 0.1705120902621678, 0.2707870310497172, 0.07424787575708786, 0.2673027354828967, 0.07976386881703913, 0.061977732945377374, 0.14764149451686598, 0.03591865568199764, -0.031113179670683104, -0.03832909553540267, 0.08355493980416195, -0.07109665311381567, 0.06698464402670959, 0.010342701918880799, 0.009917415249187832, -0.006502127724997702, -0.06254612100375952, 0.03925922554255119, 0.14195378787382174, 0.09307911936406807, 0.10301122564663495, 0.014781093687441205, 0.18949620055838265, 0.06001732620315368, -0.008747170852143866, -0.19448812146434422, -0.1262254565077202, -0.005657266046452468, 0.27696725321283944, 0.09708182022792304, 0.23735680374831092, 0.283363652093104, 0.09426212028081603, -0.0006395251014224161, 0.05447162073719007, 0.054895771740376985, 0.0030219333257168655, 0.00913743818606015, -0.04299322798230616, -0.009293899491997971, 0.04283897434907635, 0.022337585765595004, -0.040300941870555974, 0.04886556834738139, 0.043594364616957315, 0.06427675459208602, -0.024930281945678402, -0.054099254199974176, -0.010933370231932327, 0.1030050424358624, -0.11843701991678465, -0.4535462756541835, -0.2620934601980927, -0.1298940093550525, 0.11648247815345426, 0.16191971428025312, 0.018713921341174923, -0.02131530861008148, 0.16036045401084384, 0.25055406526061214, 0.021227106672276667, 0.04784434612808006, 0.11354169978036843, 0.20266465237852607, 0.12311704532285754, 0.19667958540261296, 0.09010846676188826, -0.023249919056009375, 0.0367850330321625, -0.05202405944823659, 0.05238435940240919, 0.011929042348084644, 0.07568426715591292, 0.16751933661582574, 0.04712977120448333, -0.04325520604848033, -0.04943421346776633, -0.06700748932136912, -0.355753505329414, -0.5335849875139028, -0.28542158852124466, 0.10389102108518392, 0.05591699825340369, 0.042823199955204984, -0.13024381204231544, 0.11239296128290784, 0.11237925171033969, 0.18460422528687537, -0.03862072935183163, 0.11325380066171345, 0.0678414715111945, 0.1049093513110184, 0.1647879122160857, 0.05619289443008867, -0.012215005296799341, 0.008353975786638617, -0.023920601970557294, 0.1447419214008058, 0.06896810512604135, 0.001899317768744891, -0.05288628289194343, -0.011991659809112078, 0.028995834621232452, -0.1115486031046915, 0.04617736191948636, -0.11353984206962367, -0.2160909139521629, -0.10071324046858277, -0.025187748792928375, 0.24141792955589478, 0.034171943780121665, 0.06898413619583202, -0.14638483923511722, -0.05866127974390118, 0.15256989415408728, 0.24996748580749392, -0.026845627946559886, -0.04943554584709313, 0.06167821947519472, 0.14380813341062804, 0.10342602207717201, 0.15364253262360517, 0.007878987838082165, 0.058839166420281044, -0.0560828668056141, -0.012186866398433277, -0.026963360928492785, -0.12307823137400897, -0.0678599076401527, -0.06441596793164882, 0.07697983467239973, 0.07178002855690192, -0.10557073459228987, -0.0471994144246645, 0.04767707999775185, 0.15752953726278268, 0.033577386182849486, 0.17593848255145028, 0.09061438557192528, -0.21145374572727846, -0.2468686102765974, -0.04395722704849256, -0.10392969002698867, -0.23183912750904825, -0.19304471965997463, -0.06521866122556719, -0.048232929526858516, 0.12250492760424232, 0.20760062893657982, 0.03984184463830845, -0.03133114724953233, 0.020318259096299644, 0.023566712775992454, 0.04046343680626472, -0.045167243642971124, -0.1382709267786702, -0.05274203562550837, -0.01969355255989169, 0.042322912911802825, 0.04291623642699638, -0.06673268899176435, -0.09068400731538737, 0.015727544140079187, 0.042472275114135975, 0.13610241377044727, 0.2712602614949113, 0.19437366035539702, -0.016535180933583696, -0.1916220061565009, -0.23858823038134516, -0.31914098878020625, -0.3030997329440504, -0.17856721092616953, -0.15745513287731017, -0.06540842651400976, -0.03635047363024335, 0.1832155988876103, 0.10796827082181445, 0.04921989239035741, -0.047903273000705744, -0.03902837169868168, -0.010436101678636895, -0.027441350407909848, -0.008213983052048564, -0.061134110651239484, -0.07178026154667715, 0.05809863021614982, -0.0018947861810274748, -0.1421361238988012, -0.043758032373854984, 0.005563515804972217, 0.0055366199151147, 0.18698363120862854, 0.3360048951443373, 0.1804696715093801, -0.03738407492199876, -0.025243709275803324, -0.18433226595017776, -0.44266893718965733, -0.20735918744062723, 0.013563272007902642, 0.09850092592967588, -0.013432562536126407, 0.08904546513950523, 0.2324068711292526, 0.10715659977426197, 0.036758536379419136, 0.006550798923078878, 0.068040234214258, -0.0209381720895317, 0.07626996831845521, 0.021068261334899183, -0.015067989777736452, 0.09616689094705712, 0.12091343642355729, 0.09926903299133323, -0.0741582708668782, -0.014652180675839207, -0.155913262633359, 0.11995513836299156, 0.4081096066828873, 0.4347036534313023, -0.10200634091899424, -0.23478942919856663, -0.031570130314709725, -0.34451161282238735, -0.5391796430755154, -0.06157643625148861, 0.14796563866056445, 0.40114695143143636, 0.08322452075330299, 0.1848186015668193, 0.23417822927762078, 0.06534575091008646, 0.039561980897386446, 0.0059201535946004046, -0.004811430378792561, 0.0871893434326239, -0.01315243048394857, 0.03270989269191513, -0.04110312412965304, 0.2563455637632271, 0.2073274149748213, 0.13498788710559062, 0.04576962906959517, -0.020286507946043874, 0.06678578980730053, 0.24729798052302762, 0.691422077695775, 0.4441560749501572, -0.30952876425549797, -0.23465733915207157, -0.12269488110331012, -0.24435756377184184, -0.13788509985989408, 0.08425218098484606, 0.21097433789180164, 0.1951833761062494, 0.25774628271297867, 0.22224963868258069, 0.06514427344443295, 0.10271451435720919, 0.012549924493720511, 0.11318678506648937, 0.035103396193258155, -0.10372636202699727, -0.12842068367367873, -0.025833446500385146, 0.11037675572527096, 0.1134469679908079, 0.12671701679711278, 0.28996510374035556, 0.24621196988804903, 0.335643047898979, 0.47760243038299827, 0.5090675597092968, 0.7145499115999068, 0.25980939122490476, -0.3529227587416727, -0.23975270787541964, -0.15376348453731623, -0.1205696446359247, -0.06842989558437122, 0.0293768694114963, 0.11935208469387538, 0.26615010940201006, 0.394357665340855, 0.16586765719632635, 0.11118612473267554, 0.03904274925807213, 0.012572882699275681, -0.048803642283662005, -0.07090259454093324, 0.05739737362541567, -0.04333200348813593, 0.03540308185724005, 0.1000559222116545, 0.08952168014455829, 0.23619653103483965, 0.23874965213964575, 0.23322965276323873, 0.34091597071517316, 0.5520389959576432, 0.7244698830003052, 0.551383338470592, -0.05093321692566531, -0.4744652633389516, -0.2600522652531733, -0.32212120633526675, -0.45104621490008834, -0.08804831710317676, 0.04093961431816685, 0.3024173260464792, 0.22871298442773957, 0.3568250560278128, 0.2428147634446553, -0.055633911874575386, -0.06767241423714508, 0.05661939475275435, 0.02310097553846404, -0.06272940610228274, -0.00932084360239474, -0.07614493109967167, -0.005597378811689952, 0.07350938845398654, 0.03575927210905242, 0.15145206341208026, 0.23249938953881183, 0.0811769513106134, 0.35794625800116436, 0.3733997762259196, 0.4535916151005681, 0.14028621163075575, -0.16287286997555106, -0.35060097416966024, -0.21283168737763306, -0.23079214486804547, -0.014736599509857444, -0.032115946447840535, 0.0966937974469157, 0.16450110150140898, 0.21013977897402686, 0.1505160509202622, 0.11479908798527058, -0.023048599745327115, -0.000424758931207549, -0.05352489285319646, 0.004558405912407169, 0.005147256792083767, 0.05962975747779099, -0.09232032683223611, 0.0075858723242939, 0.013620844597758669, 0.02804035304516593, 0.13719328490966343, 0.24324327439204685, 0.05688766586373311, 0.2104817580225326, 0.22246341137627998, 0.16607872746305252, 0.012109067879936444, -0.04531033207425065, -0.11199890601148693, -0.28211953020693065, -0.03971296118375384, -0.011012330169952745, 0.046106605275469996, 0.13196109679779142, 0.05763765079664864, 0.13225335067660127, 0.19185077116158644, 0.04485336213415019, 0.060726630532498736, -0.018490699596153893, -0.13738724869589547, 0.02856616819817089, -0.04875955149771698, 0.0744823136514045, -0.012154365585207681, 0.0206580646766156, 0.05359357029152373, 0.11719629304891185, 0.07395552324759996, 0.1981763185484481, 0.2651649294846429, 0.18155862474589957, 0.07137439592509677, 0.031825302544801586, -0.1749642610568645, -0.09493289901777743, -0.15634339205816136, -0.06839410985502858, 0.084271249919962, -0.006826742334547696, 0.21441623319670897, 0.12540293584909196, 0.26343019701495096, 0.12664840950954787, 0.15072286829658263, 0.06936367347817517, -0.008827746286563161, 0.037003230997540035, -0.051148205804612934, 0.03731861201620213, 0.04567024236177117, -0.038860123865586904, -0.0932139363671886, 0.04716371127398136, 0.06747720764721872, 0.021611629367347722, 0.04778903690711338, 0.03397787699015944, 0.059765894752764184, 0.05632769010669303, -0.08225065249940675, -0.1856316779304671, -0.05077252532299637, -0.10678524733791825, -0.09136884603071889, -0.013695811666307574, 0.05262143722048924, -0.0636937862824148, 0.19700461516401868, 0.12373961127048838, 0.05217097506378074, 0.03774924011460265, 0.08229900842859011, 0.013789955468596944, -0.05650921935825107, 0.06033719176817902, -0.03814764498912305, -0.027728275235642544, -0.024272064505706344, -0.009715823652064116, 0.0407942046942594, 0.1333378454082134, -0.016434814523835554, 0.08978566273610612, 0.17804305755596767, 0.014695337835542565, 0.05194264863647159, 0.07703437266741871, -0.055733574311264106, -0.14623694825999317, -0.06854569916183344, 0.06460089686459997, -0.07886845508789925, -0.02343059227752747, 0.14091584197608817, 0.17297227240206306, -0.004979669147849995, 0.03767927595879934, 0.03643529845572998, 0.07848570440846087, 0.047214318708309166, -0.07558112754605553, 0.02186128857777475, -0.03175820931376904, 0.03501407820108681, -0.04396016289649085, -0.004788642721956205, 0.005811254278535075, -0.0697506386849861, -0.031917054841076, -0.048516473830700686, -0.0022595386807137906, -0.0022527299256704563, -0.07636260620663002, 0.008884060082858263, -0.019126226046069467, -0.046084173210156704, -0.07793365886246065, 0.056246386691905785, -0.07877930790555543, -0.18297552540667833, -0.04591751611836762, -0.14407172259549827, -0.004717762494490296, -0.07167549231450403, -0.04030939621877591, -0.037764701671868114, -0.06561746188385159, -0.05975646394747618, 0.008765488835572122, -0.06770167677184219, 0.02607780944825819, 0.0025334225514696256, 0.07217769639323467, -0.043622909207059656, -0.02227376250827697, -0.08018575974523535, -0.043247493707744306, -0.02061423681316643, 0.019216677525317243, 0.09777402570764274, 0.00858564830067423, -0.0634831547049261, -0.035135168782812115, -0.008217125718471623, 0.044119592464763935, 0.03676814676568194, -0.09807135871587859, 0.02861314908578897, -0.00998621249763082, -0.06834133997261237, -0.02329829448304411, -0.10679342221424733, -0.06915614348356276, 0.0024599333411154086, -0.0118397615696384, 0.03010134072831831, 0.03454418376152144, 0.0032388222578960714, -0.053654030109976006, -0.03836676856838557, -0.07146594149017269], [0.046539766719486605, -0.03319127448740194, 0.060581090331936864, -0.047872893533626684, -0.04369439852574661, 0.0016893180070015825, -4.7235334846837504e-05, -0.07695364085609517, -0.07532085975085101, 0.039675876840647696, -0.012206519119412118, 0.03258159415906185, -0.09897524681849547, -0.0024984346461723044, -0.0003623449886659107, 0.09145971181960381, 0.025198644024010286, 0.014932416921714459, 0.03464798340199992, 0.06170503038817362, 0.04468447961559933, -0.05170974159291918, -0.09516182377345919, -0.004450155984660822, -0.029414501787996514, 0.06392946560567199, 0.016389585811649076, -0.02014506329665713, -0.07408202115686593, -0.0019235673616262816, -0.01282669233448039, -0.09980417892711885, 0.006189485563151278, 0.03602186327385967, -0.02087387698077295, 0.04005674031188324, 0.00047070687581442726, 0.01576039643351662, -0.029506862694447838, 0.031883285103205886, 0.0018943134526388295, -0.014716557671325835, -0.06329012926803025, -0.03543167840579266, -0.03303904692888171, -0.03386715006057391, -0.026987344527839702, 0.08876594159499411, -0.015483333627379492, -0.031132313322863175, -0.07658010588595199, -0.07678579928492442, 0.10939423572935875, 0.07389510557287396, -0.061747887999597365, 0.03577853467228017, 0.02181905423260325, 0.09774805284223018, -0.058139142629579574, 0.06881277366221267, 0.044356702036617866, -0.046084470554274296, -0.025843350247024794, 0.012893298351542215, -0.07088033033083517, -0.025309952656476873, -0.06327695546853938, 0.018153574184582945, 0.010480091842569865, -0.11708762483303109, -0.10508359823060837, -0.05999979012188664, -0.05276628881167095, 0.033711243282663936, 0.05314474551591016, -0.033836760445883414, -0.058172863198507896, -0.03806571120706192, 0.0015381994657728082, 0.06408074357799141, 0.014178451802694277, -0.04726527782825412, -0.07213999844286975, -0.06309062037298081, 0.020979552473537305, 0.02770879567291319, 0.029618945623240044, -0.06740757321316755, -0.0881385282588096, -0.039202977906103054, -0.023360124941435197, 0.03892600774386125, -0.09988000623593249, -0.07119854448503836, -0.05139117847891425, -0.10848111675428755, -0.019217407682951937, -0.1404928102167203, -0.11389732397320708, -0.03316683682026416, -0.019778895302125964, -0.012617776113338976, 0.008850035720529071, 0.06195904949318965, 0.0014789363573260883, 0.05109245164000578, 0.09325093473976503, -0.04444190096401588, 0.023585457958701258, -0.05031344188480432, -0.026282369628398566, 0.03453344231256715, -0.06862928907172858, -0.006378476398849913, 0.14432264729771446, 0.03623379192678723, -0.09642578495332191, -0.007447332576193152, -0.12057795284520764, -0.08498118306480493, -0.01692831206939887, -0.03916292493322274, 0.005622801654593944, 0.2216129392551001, 0.161983728736384, 0.015535632227626592, -0.007735552745449536, -0.05982359182695256, -0.04997051067454509, -0.028786518160328543, -0.09243440573886502, 0.01716831840300094, 0.02103776502623807, 0.006374205786319599, -0.036093648700429144, 0.1406241148134652, -0.04229080852180568, -0.06388480106373653, 0.0615545716652573, -0.01761132110605856, -0.0951219583467187, -0.019971585705652217, -0.030357214297503845, -0.03750675845383831, -0.1087751453368609, -0.0832478752553093, -0.08322666762046094, 0.04345788999587421, 0.10295250356731707, 0.38986284258971987, 0.19499264310988818, 0.39094683537531677, 0.11586528374032885, -0.27384352643747095, -0.25743926889869045, -0.30033457760139665, -0.06500294044991137, -0.013596624850066772, -0.02817187925444839, -0.14555652800943872, -0.08437567609303787, -0.04262625555375654, 0.20650336531877878, 0.08574227645905746, 0.08587960433361895, 0.01339260456621827, -0.025102942922542, 0.04885733369863236, -0.057274855818300115, -0.02566811555499401, 0.007637537988006328, 0.02469031512312171, -0.14790235877577437, -0.06957615149352517, -0.022284255699161114, 0.23301317092407034, 0.22422894274187524, 0.19998173403741193, 0.2521138061513692, 0.1214352515686021, 0.034711517846374426, -0.2847088884050857, -0.5256845509864418, -0.3323047739098309, -0.20867430944269735, -0.037162463311674124, -0.151350029160553, -0.09359885729043409, -0.10343501740365765, -0.1936175011466608, -0.03923096520313626, 0.10747152225052058, 0.08708986191065335, 0.013468457342720175, 0.14332557130880072, -0.008235681704031451, 0.09113107287537746, -0.0002006344551138378, -0.0004665413775432088, -0.1074986219513001, -0.0782420274300363, -0.12332333266167336, 0.03901155098898497, 0.08394203640037677, 0.2772403950805915, 0.3811849519484326, 0.2540458107587585, -0.002592171317215888, -0.24459596760796964, -0.3852907572864296, -0.37830822087734206, -0.11587487666176352, 0.07699424413630578, 0.11258230809548123, 0.06525235988518498, -0.03481208121244666, -0.1100442352849775, -0.05755519848200578, 0.08680859546908698, 0.1848317299377577, 0.09291330274051948, 0.028648427177691522, 0.06207140554940739, 0.01832356530668201, -0.15726433041483648, 0.034039755253655164, -0.04124940522852789, -0.14351747191843228, -0.07210320779113702, -0.014004187659009385, 0.054857566702412805, 0.09819030401839977, 0.17866697261277598, 0.3418064390515811, 0.10737102975176936, 0.01926695488831149, -0.21993917359877638, -0.3481868843793363, -0.22860169426075788, 0.04916439199923117, 0.010414372291510973, 0.06431481162086786, -0.08138599665852553, -0.13010548150361656, -0.0018781453493772811, 0.014009175317544588, -0.04038973426742788, 0.08155703625389465, 0.2440530351350945, 0.05838850002028858, 0.11695040275269067, 0.021216342241449974, 0.08852473462149203, -0.0031603884937999524, 0.03052323775832809, -0.01976808164071769, -0.059978430728148624, -0.03390312706796831, 0.041046902611162644, -0.05343595041559553, 0.19294220197513015, 0.3947724443341352, 0.28307498333801284, 0.08610573080545351, -0.3544205695786534, -0.692201589295753, -0.34401304593037235, -0.19247120232472867, 0.13808646274606648, -0.1375533173672603, -0.1957638061486083, -0.3025500021785079, -0.11350896185499502, 0.03546014766604189, -0.018992843724859994, 0.05611709419424917, 0.15903374876145143, 0.19235121990896564, 0.038679487272354575, -0.03277266412790406, 0.029714783585995722, 0.08421943019891591, -0.03817499673010209, -0.07342751783408549, -0.017020995395616936, 0.007402842924372296, 0.03233342639106596, 0.049020161508577374, 0.38554296430415036, 0.5223403433847359, 0.463087115494371, 0.1148312943617628, -0.1729420792255369, -0.5617099597348952, -0.4771186944651429, -0.1759377596715847, -0.0746020853186185, -0.2663463734997633, -0.3228406077852087, -0.11526157689084728, -0.09282130418362641, 0.000611936779545537, 0.0866855735084668, 0.1144604284173781, 0.1598594307629027, 0.06643502490863946, 0.07488718455477626, 0.042192338792542486, -0.026717307869869204, 0.03963805457022927, 0.006545313146050812, -0.05814812082691748, -0.09718249809393233, -0.026106500547800122, 0.03349641561086714, 0.12279649422079182, 0.3128869008138674, 0.4902001360146986, 0.421098534952644, 0.3065947029962569, 0.006726051381683903, -0.37991190791733986, -0.26166809760011234, -0.033755199466581905, 0.006679596302276225, -0.23885825897887625, -0.21191845507570695, -0.04225287573258081, -0.07661729620750006, 0.13938409632536788, 0.04173047197077686, 0.14529846144085315, 0.10995677961454467, 0.07830345926639025, 0.10472313559618449, -0.031037301920657578, 0.08998632428750301, -0.11062710312891903, 0.018995130143457765, -0.09401127731307034, 0.0078220081020131, 0.005627251254570481, -0.04537845914803247, 0.16415804000733433, 0.22148565675971538, 0.3809415314373524, 0.2977561917418567, 0.35744970262112113, 0.3367199026338575, 0.03734782032201422, -0.36634059866414076, -0.14709591891485432, -0.25803188262657173, -0.14893514665495178, -0.01397886219167717, 0.10147541016806226, 0.08195942100548965, 0.13203954491355502, -0.010598376896164734, 0.04237089122247271, 0.03791953523166745, -0.04473109626736644, 0.014414520899574287, -0.013281563839005533, -0.01825855757860354, -0.0241914041347036, 0.06420128260870787, -0.08118935092111705, -0.09023334835584149, 0.005627327715727612, -0.05235755654229451, 0.010379635892311164, 0.121303632279304, 0.16624891126676974, 0.25521762245989443, 0.4570757195852417, 0.25851843019548315, -0.13565556800191805, -0.2890395836904244, -0.10132555189045334, -0.3091651452029558, -0.17312930966409532, 0.06480477525318003, 0.05722557093261647, 0.2896347388172864, 0.1191829819713818, 0.037835840867725165, -0.0895700748367819, -0.14583538177414856, -0.019915808280326384, -0.08356053811984901, 0.04047549001663482, -0.03731956263261544, -0.06450268220334075, -0.10954165383660634, 0.027478744527106518, -0.026021392692567813, 0.02917147571710324, -0.06299434669051988, -0.008546249401263839, 0.07890885561814184, 0.01659330414635667, 0.10036961426483369, 0.30677391454868447, 0.05211847619112926, -0.16400649249273225, -0.17076568901251768, -0.20124845505425526, -0.06086193034461481, 0.15832559200795834, 0.011713323273592969, 0.16311471833376462, 0.05477721058653526, 0.103330762142695, 0.03676253466029292, -0.14727280751367386, -0.1451767594355041, -0.06006175343814454, -0.03871181639353068, 0.019865284417284915, 0.018296789952333713, 0.060481748084151445, 0.046224703180730436, 0.02539301532263328, 0.041205612655342116, 0.0007356935494264579, -0.1508862195018716, -0.013738440865478523, -0.028391328413574963, 0.14721227558914965, 0.12988361983609906, 0.12648040509293162, 0.1260749832203943, 0.028820468153898743, -0.16047472657806638, -0.34602404509993895, -0.09281610690622802, 0.03743392009890445, -0.07914317512849799, 0.004622601409371788, -0.20149085358200416, -0.09783890357541565, -0.02880501227708584, -0.0684568055924532, -0.13185848910569478, -0.1345342016098337, -0.027927495249596358, -0.05055295914483159, -0.04116840188488844, -0.04392336246933329, 0.047887867613074946, -0.01635176323578948, -0.08613936143325907, -0.22937139816875243, -0.17096581445328884, -0.23687131069556847, -0.20288996484843036, -0.05037588069712137, 0.09986751186537023, 0.016322403877819, 0.31715857997273167, 0.06003602653902052, -0.1125347588680778, -0.1993547774189631, -0.014300277901116426, -0.03897089682377967, -0.23383840831511762, -0.06957567593282882, -0.21939471110670145, -0.19526518513208596, -0.08636798123328311, -0.07325372956672237, -0.16270726289316287, -0.05390721483330196, -0.07397910107705492, -0.05745426878921019, -0.07796241879985175, 0.06968420864529508, -0.03572418752278846, -0.11746977193573002, -0.09276265826180354, -0.06478444602903896, -0.034913569585781214, -0.3068183759669222, -0.3292640501312584, -0.12859493648791318, -0.014525715085643376, 0.178850229414802, 0.23596001125114988, 0.14845984664921227, -0.12198506701434048, -0.35418742444780393, -0.17523462222287292, -0.2654730939094126, -0.21296828280000502, -0.1749788381786862, -0.058722420093703445, -0.15063640499882186, -0.037560172799494924, -0.0159317791003291, 0.02152021234294048, -0.14383977294486552, 0.005851420808004095, -0.02861388833285968, -0.012120860907653833, -0.026469272753255373, 0.043423834421407397, 0.03359683522876902, -0.13586741393445984, -0.09689603598241044, -0.0829679839608174, -0.33840297947087683, -0.18021780379952507, -0.19042294043995014, 0.04885145669367976, 0.14286461769280592, 0.1932068943581043, 0.07142367500921436, 0.047745902071004986, -0.1420748212917319, -0.23648800763935596, -0.31546312748237776, -0.13804700002590686, -0.17260986107309706, -0.08407553153919184, -0.21418269225623807, -0.2168983429756957, 0.022084554827460537, -0.017180743820940828, -0.01788417528066572, 0.0600191127490579, 0.03810727810653115, 0.058701237298716805, 0.004595896947861055, 0.08998755487915049, -0.05862748599915108, -0.14275010877818256, -0.07120441915604168, -0.09596812839812374, -0.2213999426280947, -0.0261821726855938, -0.08866983432411368, 0.1387404871243303, 0.019024572553748162, 0.14582141221657804, 0.04584141438995585, 0.047931392478478586, 0.01377633038819344, -0.29388777176065173, -0.24866905245860005, -0.10890221704885782, -0.14311914716891144, -0.09275378070752299, -0.0717244263491967, -0.061359220618512775, 0.07675862164962496, 0.0989195588045341, -0.06070609502555703, -0.028382564434768724, -0.027325927870577325, -0.09414517582597906, -0.018897484127770005, 0.054615606663166075, 0.027072507978685583, -0.22351348356471457, -0.08918546856868584, -0.12967563009427924, -0.02979895832071503, 0.08189310573379617, 0.07983134729085167, 0.02388073174115842, 0.19356574749082375, 0.1663159174800642, 0.11884130942851044, -0.04935192578966858, 0.13875104833880303, -0.22462880206913552, -0.06900030677536213, -0.09192747303834033, -0.03819881311141458, 0.03513040984772018, -0.09203511596834071, -0.010042551942460414, 0.07686996888648823, -0.052481792618692034, 0.01215358715686409, 0.046280731224381914, 0.032361220750939154, 0.06125932014795873, 0.05787154521133868, 0.04656445832125949, 0.015114781074791028, -0.13267446103560035, -0.13963339361847013, -0.0701781921667846, -0.003938838560656831, 0.025624018049282004, 0.03864101066716474, -0.04296874568131375, -0.029102563660907545, -0.022578796970306892, 0.05216146707132973, -0.025439283101682066, 0.07932146288836031, -0.20024652603501572, -0.047080350475477956, -0.04828577823121688, 0.02952377985488362, 0.07302732170048554, 0.1493259136646534, 0.09424642699092695, 0.012830800067242848, -0.03446739918005634, 0.014078833803262905, 0.009019394184203727, 0.00681779838661876, -0.013029840334799118, 0.007644351585114532, -0.045526141155831305, 0.051467456578722114, 0.05299766569843841, -0.0593250738988531, -0.09582196123786092, -0.032891298766504984, 0.018299720765507503, -0.11822236643839205, 0.07106692953254383, -0.02963094180421536, -0.08509169870632045, -0.060050335982513366, -0.06318552350134012, 0.12636342873145798, 0.07609766547520776, 0.016803392383696426, 0.017820636842898176, 0.07595815406452867, -0.026314118483424208, -0.03534340960846557, -0.057837597028185146, -0.02395947032508739, 0.07695495505241066, 0.057794912113334214, 0.09804457455389104, 0.033134922766203515, -0.0541308151570617, -0.06692398942126598, 0.006629233117290887, -0.02488123570018004, 0.09293922815317175, 0.010868298047463684, -0.13444166972846877, -0.10890604930659066, -0.059722308213010236, 0.007996486038649803, 0.12504740781187446, 0.10184839650315326, 0.21157498308451345, 0.17087872793440398, 0.13500859552677658, -0.052244079741236134, 0.15823732719971145, 0.11067596451585016, 0.10594361782261207, 0.02675181250327544, -0.051498009444564195, -0.00025391929987535357, 0.08218400084228605, 0.08990822012872321, -0.029288573139481952, -0.0065118452490264146, 0.012812583362054805, 0.07120360942038413, -0.01743036597262008, 0.06559330639875866, -0.06965784249383655, 0.0664590789977998, 0.027862732191271413, -0.07494774832472126, -0.13186536808443514, -0.1257480394623232, -0.10923941503790609, -0.016465569920944, -0.007353554499242579, 0.15487938877355661, 0.2301458291547052, 0.19590851168842036, 0.04016873596295421, 0.06638478598117722, 0.09236377515337599, -0.04311928442851977, -0.014504921132661086, -0.034529835129725184, -0.041435013086117, -0.08251646087886744, -0.0735399197085753, 0.06360937663336083, -0.04533594173415064, 0.03623289091897058, 0.08687780678130722, 0.02974719676367296, -0.03379964175077727, -0.0010957365825077197, 0.02210373378274553, -0.026645502991662056, -0.04503006645256637, 0.0010364300873679253, -0.07633682251067908, -0.11479439519174266, -0.21589916822152483, -0.18094104266758468, -0.053509030033695996, -0.033038093449982125, -0.08398295186729332, 0.004299113938963054, 0.017022394282998655, 0.2556254979894641, 0.21706183292947726, 0.16640132387702836, 0.09223429024951128, 0.01074147186127851, -0.10707033610811648, -0.052675941219007226, 0.01566032522987487, 0.020378406013233805, 0.028323189284756564, -0.04004988939330439, -0.028803615426817496, -0.08423669858012475, 0.06708369193279026, -0.0345327865647047, 0.022180878779696017, 0.016562308848951608, -0.07750639022023229, 0.11638774863738463, -0.10558460644696123, -0.004489152509083819, -0.11274241040263554, -0.07540023388869471, -0.05091158386639391, -0.022053576054674662, -0.08483582537914974, -0.10069964878476566, -0.14595316835123887, -0.10777472462652081, -0.14992257864025244, -0.1571165713871762, -0.05773102221138251, -0.11566941289996684, -0.05662538713769539, -0.0710960628913512, -0.083919974633211, -0.022867011682047238, -0.02993275380835589, -0.028519225752267893, 0.09397345405052447, 0.06000871586470643, -0.0538135911615664, 0.01610049070063074, 0.007822988653569214, -0.07662445935873402, 0.0322227425486445, 0.132720357208493, -0.04416145593437628, 0.0018627772715066194, 0.03659844382498992, 0.0093078687717666, -0.0013815405385560104, -0.044820395791709294, -0.034553000949139386, -0.020964545669376507, -0.07180690446741175, -0.06102480253567281, 0.03251586230163553, -0.026395516590850834, 0.03917052396239159, -0.00860311431475242, -0.0681984036641587, -0.03437251862428646, -0.10501572435263713, -0.06268848379252642, -0.02294418368568585, 0.07547931127892223, 0.025667128059970085, 0.05251943997657623], [-0.08459029270411142, 0.05104072883898886, -0.03369237836093932, -0.023522736960501854, 0.06123378209947825, 0.0021366575459429763, -0.05551430389345688, -0.007687409705445251, 0.054441717193102694, 0.08478938598871619, 0.12294906528795595, -0.03771977810217625, -0.07419172143172133, -0.03557144452503438, -0.0809505486221276, -0.030601669567573358, 0.033380061963526365, -0.004033826042261125, 0.05624416471363407, 0.04304257814962654, -0.010831722578387977, -0.05244182097259377, -0.025123204821993227, -0.009136710105707888, 0.04218498802391467, 0.010133348140628768, 0.003134921801599305, -0.03003157391061316, -0.013490058140909167, 0.04539933534492761, 0.05173771340822574, 0.03365676240893665, -0.035968738012397694, -0.06951711755221407, 0.07070526575142458, -0.00728276565365447, -0.11540700195558026, -0.014420911986444363, -0.011103231205668751, 0.04233669090618163, -0.0005403315296185685, 0.06276313643174965, 0.10712779562754561, -0.011578193528769504, 0.06353696019107002, -0.11740488121794433, 0.042752556015848396, 0.024104142521356297, -0.04193608011287658, -0.05147697988187127, -0.027165968174430004, -0.08881124295503173, 0.026423613743484318, -0.0803298601939885, 0.009129000845894571, -0.09048319712516582, 0.02249086422089172, 0.05189809450023729, 0.05688537432290275, -0.01147398070209092, 0.030953704029133118, 0.05144685918121321, -0.03409733445815269, 0.011966225806882414, 0.06032022752504612, 0.03373039499740625, 0.121280281717123, 0.08715984060043452, -0.030465602157414062, 0.03790596697070626, 0.07252286383794049, 0.0445820865713717, 0.16432273061499517, 0.1205982775698701, 0.061109816208752464, 0.008724834863736191, 0.1112560646597176, -0.01779147680662985, 0.0385865807777131, 0.03294694850966695, -0.04060662901725716, 0.00732557477281908, -0.007126299558485746, 0.02415079149694514, -0.0013311132779734861, -0.0500872220306718, 0.043716766615575275, 0.09642948366891926, -0.015667971662810774, 0.02284210801586432, 0.014567982273689769, -0.0096583630874519, -0.015770299411985864, -0.06622177893247883, -0.045876574278769414, -0.09221690770178097, -0.009285188099037328, -0.04709953058482203, 0.03254851148812444, 0.02192112503049418, -0.03240565286644677, 0.005776805782939787, 0.052656721639238444, 0.16246630872468107, 0.006210319550975545, -0.09191847570425732, 0.015207484566473443, 0.008320471184566058, 0.021248933268205917, -0.07218426372230613, -0.07070441006077954, -0.0649675227714951, -0.04550872942055027, 0.010752488341262665, -0.04157449992976532, -0.015148493362448365, 0.02392170568993129, -0.1135653581808333, -0.09543527622795384, -0.13023916792831297, -0.20784133295036802, -0.13346484749878348, -0.07469289476973769, -0.1735078568767217, -0.1740490391146764, -0.045118493054918295, -0.15986123267479355, -0.15911817471296175, -0.07758260484458304, 0.16108079539964035, 0.08866686715343434, 0.14177017369685724, 0.024380578833599047, -0.026586752333542827, -0.05066185481545764, -0.018146059689636746, 0.022276080977352262, 0.03094050609713232, -0.0480551412391514, 0.02851983142842137, -0.017289629581042056, -0.08826275978941843, -0.07712960587221493, -0.006799288515590047, -0.042583962263113735, 0.0022262680040059466, -0.15343076844835044, -0.17839961801638135, -0.17216646836032035, -0.1306576818700744, -0.08713231778613396, -0.15333754175032716, -0.14429778266054943, -0.16332586014536382, -0.04683321266478435, 0.0008150010828102908, -0.02096398480153896, 0.1347626898228152, 0.24389351966868042, 0.0296370855245678, 0.07165107376612144, -0.01670345459872788, 0.08582216361826821, 0.13165708528369538, 0.011225092177000007, 0.07439076206659986, -0.013167172447783166, 0.0789192396258368, 0.011972467000327868, 0.02006725941880111, -0.005347796871132263, -0.04421281490032413, -0.06416158688202252, -0.0400584172700225, -0.08865162385008635, -0.11765743733100054, -0.2684566064288731, -0.31162622490097064, -0.06897637198575138, -0.01831675668863442, -0.028125816613970116, 0.10619490223445774, 0.14393161699252144, 0.05152470572537518, -0.0024526689621409154, -0.08206858546486703, 0.047493795618764406, 0.05953738177143609, -0.05650092500548213, 0.03636718018869259, 0.07146920634148242, 0.031126296501580365, 0.0589625817626856, 0.09080486640731313, 0.015768413360734795, -0.12364057246732676, -0.0017680201108121977, 0.060063221481244745, 0.03328609323780955, -0.017297084915793164, 0.009298530951503117, -0.1431580191799142, -0.22266448380360446, -0.1416619469672885, -0.1354807860966335, -0.01816322374775366, 0.08116493833396675, 0.1461640270628361, 0.27964863677417384, 0.19163824486847122, 0.23217421243710953, 0.25471797477503094, 0.27861295174420386, -0.06699795622148336, 0.04749344811057493, -0.00852434021072693, 0.06712625584375684, 0.0839415278878926, 0.0030252609715348535, 0.019178046873677836, -0.1356301325604688, -0.0947074105685752, 0.05581276710181572, -0.06072917743462423, 0.017839946754662432, -0.034882810431397494, -0.10663983054343479, -0.1266407149822659, -0.03160799694110713, -0.10068416524260479, -0.16448763812153283, -0.06411982937126694, -0.06794663147245425, 0.04553042560074938, 0.23522342751911635, 0.34935487539083887, 0.28031944740543796, 0.12689834495620098, 0.15164329463478896, 0.028923215441177912, -0.08856307316144398, -0.123834093968263, -0.20339925888485885, -0.0993929691820663, 0.07404215672957996, 0.06813347165278089, -0.09842444890824653, 0.09048650915503909, 0.06820207532059354, 0.0891222089060002, 0.036748313208432054, -0.0476459807808689, 0.04599899429695875, -0.016825274235509145, -0.03784507833886565, -0.07032332744668555, -0.025695835126391415, -0.008001548417015347, -0.06930498389671091, -0.03162213267707349, 0.09405072866035395, 0.052298598417856765, 0.3805978350232505, 0.44418486816521363, 0.0994928030882468, 0.06645909507720021, -0.026333662143428364, -0.06710794974531085, -0.11041988433328946, -0.18980410686395438, -0.24950242744186055, -0.22973567756282348, -0.2113237923634363, -0.27679206918761734, -0.14833643807951064, -0.04668425329171931, 0.03898720836047425, -0.0072622208999738504, -0.14953586962498425, 0.014232406603597323, 0.06847889069958385, -0.006782565412462525, 0.11101709042972675, -0.06017310197837944, -0.10196196918720817, -0.03060873794352076, 0.14576217488413323, 0.1318977673671081, 0.12629424233690936, 0.09574258378917207, 0.26042744969999715, 0.1233495990458999, 0.10300080136106683, 0.04793492587768357, 0.013482113429552429, -0.004621434412110829, -0.17216535998525834, -0.270800133601507, -0.3290998710421361, -0.36552857707571573, -0.31514912216158963, -0.20135630921004427, -0.1821546113819203, -0.13563248649998677, 0.06949151092480402, -0.002636070761912339, 0.0555260945723856, -0.03431933156396906, -0.09620869964595741, -0.03269545165801665, 0.04013918113641147, -0.06875114737322358, -0.08869394258221276, -0.01538136573311935, 0.09808459323029521, 0.061409513403677514, -0.06685375458137889, -0.09941974713127455, 0.04854618425534152, 0.10221184150353707, -0.05172748490992734, 0.07773660007870375, -0.10283632045053501, -0.08913895718765809, -0.22408573162697765, -0.2068371521141761, -0.07450180244170623, -0.11688675670067525, -0.25826334299032017, -0.09588791849075576, -0.175728168007381, -0.2540364514815432, -0.05960052481404344, -0.02030489254620847, -0.0010401667395236386, -0.07344194800313095, 0.009422119948336603, -0.07698031148064642, -0.04502981257971123, -0.13809699483968763, -0.06654267621934648, -0.1488323475470892, 0.010547189332746423, -0.12674343319509992, 0.07506175406856504, 0.12282950824322938, -0.15611642348852123, 0.20103865375504837, 0.11760240554711203, -0.0655202964532243, -0.13372434625070068, -0.41388443984756973, -0.2729654788105653, -0.14515164703310737, -0.03741001161837827, -0.14312110668365635, -0.3175116613960852, -0.2846254459428502, -0.22112402767861594, -0.2002463556428293, 0.03143897091181537, 0.0201900132452498, 0.0397555842614815, -0.005064056551084181, 0.041527944851816566, -0.02128382376379607, -0.01933231468059198, -0.019722107375884566, -0.09296180485330875, -0.22573945754536576, -0.17321102092528087, -0.0765544169800091, -0.148389488186543, -0.13741157812872118, -0.10997351553615273, 0.08873655478241264, 0.017158457426508417, -0.17003225043859738, -0.2567921210284431, -0.5700419608934539, -0.4681826139829615, -0.14648157483079005, -0.08952507826153945, -0.05529310052235451, -0.21556070993561174, -0.26750535778865864, -0.2243078311084805, -0.13015446310608955, -0.03298029124496734, 0.06095385710314733, 0.06820677300571194, 0.022585164185337042, -0.0121399669093556, 0.03514015817243582, 0.005195813976742105, 0.008622812592785018, -0.11646139805862273, -0.4013537620686532, -0.25897362410831193, -0.21282678602513072, -0.1857424527337958, -0.2389123183185198, -0.03967865834348122, 0.025965404449996773, -0.09181787671047234, -0.19698053974092194, -0.34487877937423267, -0.36048243362298993, -0.345221188995957, -0.209741329495369, -0.1484989531531153, -0.3657309694359744, -0.11280877804657072, -0.2741349096223485, -0.058560339041487934, -0.027106279241824086, 0.06151376988065179, 0.023523951489408366, 0.1167276773999522, -0.02804820813252386, -0.02524723892498191, -0.08130470997154898, 0.02480221595071852, 0.0674817300783361, -0.02812992231404377, -0.16052868489492594, -0.12837130520387022, -0.15393840187294228, -0.08765021817189103, -0.09491712428436705, 0.03777330145082963, 0.06843933954491774, 0.1790636740985537, 0.057877513262690465, 0.03971301748053985, -0.3788633350399295, -0.08168568629045914, -0.05748601155887378, -0.21132244088049004, -0.3554985094207145, -0.2002808275318729, -0.0771453566114507, -0.23837068656540905, 0.005128143409288009, 0.20186423128134698, 0.10055609749397165, 0.13531604741195424, 0.01810805383330048, 0.03834863429730792, 0.05128092583863538, -0.08619910703117316, 0.012532313291091394, -0.12639535898470197, -0.06652842971386713, -0.187678361778215, -0.19328678790074671, -0.21054155403161418, -0.19415028842541063, 0.06962685478520528, 0.3313067140091207, 0.21126824315752554, 0.21245094511387347, 0.2032680872585132, -0.18174433134161488, -0.03557048525923441, -0.2516182548156611, -0.47730703123990026, -0.20528437662164406, -0.20331595829869314, -0.04874115099820262, 0.05541722652739008, 0.11096846746480916, 0.3174057225741485, 0.1593144736123507, 0.06010683566030046, -0.022531783230900704, -0.11180988896344796, -0.007423876007981085, -0.053807053040364726, 0.0007098971335085665, -0.09637021948557682, -0.06668821800751266, -0.1366182924373327, -0.15612342575874855, -0.2767768266347933, -0.14588349994348468, 0.17783857183913018, 0.114115491099197, 0.12267329553617579, 0.06869450681205938, 0.03447833704400226, -0.15201522578734922, -0.16839012473106932, -0.2784137208849486, -0.2798947985583863, -0.24305728205542745, -0.05056702057711654, -0.02692292010840465, 0.01296846079033681, 0.06776074755139355, 0.08693011170800048, 0.18618542926041406, -0.005732937008584552, 0.016833866031514846, 0.04579032389128441, 0.027464957957561677, 0.08241361108146207, -0.01670760195499022, -0.009455454280524528, -0.004408074742932406, 0.037719041951376674, -0.13558597129059466, -0.20304536582013838, -0.18875073001257311, 0.004113028402203787, -0.25990611170899663, -0.10314680142491392, -0.11028546921107178, -0.18046745409419715, 0.007277071505413645, 0.0011835090490152475, -0.10745849794182469, 0.010286527228317948, -0.186223260466756, -0.013319075497206968, -0.03811451865019793, -0.1212187561488042, 0.0857201954265626, 0.1732265804118295, 0.11433358937294932, -0.02851146768145051, -0.023641791990974582, 0.04464947957102519, 0.08778198148765617, -0.01218018231038741, -0.011982720349373447, 0.06361516886958704, -0.0914059795751114, 0.13489619013795912, -0.08240682045996175, -0.18778793636902313, -0.009251759523179286, -0.02218211493934709, -0.08042497371185578, -0.1506011455789934, 0.06345814396465961, 0.0027286206499787524, 0.16531600636605417, 0.14652525867638602, 0.08627309713221235, -0.007060404379119041, -0.09245852403163518, -0.0511805879754605, -0.06350313026524732, 0.032562158768528, -0.01765813149166111, 0.0029765501287785582, 0.05522690116255986, 0.01951529967277147, -0.03907449083793823, -0.04637135487740745, -0.019388292637284626, 0.01722202902470393, 0.0011309606888280413, 0.18854784669526567, 0.11157099307146198, 0.19691216443648163, 0.02210739041276305, 0.07134595297661561, 0.08730458089647676, 0.07696516065628492, 0.2835481486429388, 0.37135444327899425, 0.15963044356445905, 0.14228171352946, 0.25687901418825143, 0.17241171593335874, 0.17358986647122762, 0.35853601058451445, 0.13742823278604127, 0.19919655706902736, 0.19931255834285086, 0.16026665868114395, 0.034194925538277694, 0.14189241041796774, 0.053405340158361556, 0.08363777918225707, 0.030771644858986133, 0.03976962610494846, 0.0618249690970057, -0.04531763490166089, 0.04323459876504462, 0.15790341548294928, 0.19026515609796185, 0.06391882118294215, 0.020618462416468364, 0.04464047011166747, 0.1595284249258118, 0.1599920748254742, 0.1556185163630742, 0.3497045059279995, 0.2155180483841955, 0.22048454164626838, 0.07248569655070568, 0.13494844250688615, 0.2754610372542722, 0.4380580126898119, 0.18380901522269735, 0.20010409272595794, 0.16893377403803217, 0.07679063962755364, 0.12918140417694582, 0.0770690006368061, 0.1423347509753756, 0.05001276034462375, 0.04383253933129818, -0.02768497856207169, 0.004629160315896154, 0.0552838580763535, 0.04143176806475453, 0.15412166883186434, 0.17924296726106442, 0.15771769583886372, 0.07805385781736884, 0.2097471833996615, 0.24289223807633503, -0.07485500629993763, 0.04251456292884009, 0.22298677629808825, 0.07833996747038542, 0.07002832047610298, 0.19802651649570133, 0.01798928189491498, 0.14200245275748638, 0.35539395651288525, 0.16965001138796107, 0.16579073976643852, 0.0860399622710088, 0.1491964649043455, 0.15545126254770447, -0.04485644779487739, -0.012918235673287435, 0.0036577225442054155, -0.06905782991772473, 0.007539736789540135, -0.02643860576604083, 0.00681449068487474, -0.01920858341452522, 0.09318746629590803, 0.08253679915089324, 0.06762200302037545, 0.06983203623324853, -0.06431288305464584, -0.03619583838567231, -0.07391347987557498, 0.007525429577020329, 0.2238894951365708, -0.0436215957515623, 0.12423740190791609, 0.28988925239993946, 0.36788751845090983, 0.1270835156517474, 0.15864229320215603, 0.18354270833876352, 0.10497846664333804, 0.14070000675620314, 0.13897323691845773, 0.10874055860716778, -0.012457155353856459, 0.05260674529034186, -0.0031648422514987122, 0.01833656555848811, 0.017021188582186715, -0.02151978965046449, -0.05505030243308618, 0.039317374287488494, -0.0048723967440473725, -0.08177471386507601, -0.019655263777455884, 0.02082076030140757, 0.05143575311504058, -0.0846223963848947, -0.03504584704521073, -0.05304787769289695, 0.058775558627700834, -0.09143929365434975, 0.07915210736165483, 0.16270510152818796, 0.1392562619018222, 0.13545997053445497, 0.17154608047087044, 0.12621778544729007, -0.030309483775344006, -0.017428113359394676, 0.0769243694770375, 0.05378419012447807, 0.09000782663512787, 0.14803362609582846, -0.06110909483654515, 0.03294579915272371, -0.018347737307162534, 0.09771589077758282, -0.00895471736706223, -0.01593737980795326, -0.051138946503805675, -0.0001345497856366261, -0.025962374321350488, 0.03428481112459271, -0.15967239843868786, -0.15603365679377262, -0.18135076262527794, -0.13903003416724544, -0.12255593993279461, -0.048165478982129285, -0.03149676521592017, 0.014780546429144427, 0.03979436381712782, 0.07886504831517319, -0.08960963284090127, -0.034289770181326264, -0.08160126711358992, 0.012226604567424434, -0.012058798082562574, -0.019157448563121838, 0.06165769601506953, 0.08122662323748028, 0.07550262554403825, -0.008107828150846572, 0.020032981198634652, -0.08877986085005693, 0.000706819418502082, -0.0414175663638232, 0.0336722733074494, 0.03416176292379351, -0.032389627565197913, -0.04137761111336014, 0.02019888821920333, -0.024959596435971974, -0.009578627331998574, -0.013623731946296501, -0.005333944106892598, 0.010072727798882347, -0.01965126628895937, -0.037044545486018134, -0.04720015677119238, -0.024182786580387368, -0.07251592784936162, -0.07672647195190847, -0.06895788607332673, -0.026573170154282365, -0.035790941875054536, -0.009406391547247457, 0.061434313691282154, -0.019883922591332145, -0.09517101210193352, -0.06855271780307907, 0.029611715309863413, -0.061187049320479164, -0.04632250991644767, 0.013982406131224373, 0.09340335296962306, -0.07439405049082243, -0.06473522703556543, -0.001104526996620022, -0.050044398665666796, -0.03273257844978549, 0.0305550037881982, -0.08288632949097688, 0.01936111969587235, -0.0831755803383396, 0.03314799899478773, -0.024935798016957236, 0.018632266920274688, 0.00832709080282711, -0.04424731254909864, 0.01121046705664074, 0.0061327279164620834, -0.05510212040167878, 0.08874981375207315, 0.03253940192936467, -0.03453673195090946, 0.0680801590934592, -0.06718927610705609, 0.06071371973648903], [-0.08722953113189504, 0.0015845482394653949, 0.07271202604647817, 0.02347152448430721, 0.0786737557920431, 0.029867194997293484, 0.014593561804777881, -0.025339217433695913, -0.0397742260063116, 0.11383374470931598, 0.004062544277977299, -0.003624743696451113, -0.0359066850691319, 0.02970351791680522, 0.04818120701669367, 0.017536148640019227, 0.030831117732165923, -0.0019547754296723448, 0.01227353591167586, -0.05234174073517595, 0.0407213206860448, 0.05890034844593718, 0.09041368414708006, 0.1551054158950893, -0.04367628669081671, -0.010009326795975427, 0.02833351223883345, 0.007550564659035117, 0.030610792136938153, -0.016254378436670474, -0.043488812616380504, 0.06032185254668143, -0.002849716857514432, 0.015098639249718642, -0.043263937536370145, -0.028972245265350614, 0.012000385850200943, 0.06122012938945398, 0.04553664442435202, -0.00376852930110805, 0.09403873923717423, -0.008205387822198368, 0.026463113598451857, -0.08086717374258395, -0.009120903965520386, -0.14569694622260743, -0.05089142918528553, -0.0015182032832349636, 0.05641936995070637, -0.024994724192381405, -0.06716720787326304, -0.002330740153333894, -0.08923359401206375, 0.013824806268948964, -0.031537567698285175, -0.016927288031861224, 0.010589714483340418, 0.003211860874945245, -0.005147073678917897, -0.02235630833934515, -0.015494291906042462, 0.03579822379058225, -0.027479740687819894, -0.01582926307519923, -0.06068400585829947, 0.020869646725987807, 0.022441220544922678, -0.14957538458052638, -0.03792534724297258, -0.05778123988481074, 0.10067950542393138, -0.08218142059359476, -0.01129084685469862, -0.007677468405954677, -0.05973611259508766, -0.08014199770578943, -0.1643308202113367, -0.05758207914766252, -0.057197787376284184, 0.0224868082736093, -0.022455641465217786, -0.02492435632918334, 0.08288542204433198, 0.03240124756676631, -0.03660089134144856, 0.0655146613253361, 0.051810005848303295, 0.04814771073521211, -0.05760179678726216, -0.002432019071975991, -0.0671169772123067, 0.09137488788435731, 0.10519065114740754, 0.011622200620672925, 0.11795277754150715, 0.13703246742729577, 0.15274713736197862, 0.15172894078305632, 0.3636001285186806, 0.22135204546565057, 0.18754822443730249, 0.2516534779009447, 0.09811074558636729, -0.032879856599872866, 0.0586209548769126, -0.1419830048314107, -0.06250268409397355, -0.08913323359168972, 0.03993587383396905, 0.011416881920737216, 0.008224364514884655, 0.025174090124656653, -0.02494070384860724, -0.007115822095117172, -0.06003144037760033, 0.05432654979937684, -0.06217173467306267, 0.046641055996700535, 0.05098066386881007, 0.017931486309304072, 0.11180717506872423, 0.2997757904286008, 0.2914328929661334, 0.36219171561613617, 0.49859656753850046, 0.5392697680574086, 0.3571410322876596, 0.48851594250544866, 0.35605709442290395, 0.14831516750049542, 0.22002446337569748, -0.1230937796705511, -0.09942505965784365, -0.0827905301529523, -0.31108713566709284, -0.26679434823521253, -0.11064501927985791, 0.007243486335408056, 0.001282826421288638, -0.12135391299997372, 0.0481813989827308, -0.021654281063095113, -0.004472774543170875, -0.017539069268914218, 0.04500253155765252, 0.0472171533894897, 0.07412349291473941, 0.12801362067660504, 0.2826631136469958, 0.24252166892760302, 0.305037871650513, 0.39798615707335455, 0.33439911334931505, 0.5584722498993157, 0.35907213171733454, 0.3526244081808613, 0.39865310182662905, 0.25004138976257423, 0.26092738057337955, 0.07494475976728615, -0.05340759948169051, -0.19654035788277835, -0.2150866022790793, -0.21687476519150925, -0.13144824277860595, -0.04131286247242323, 0.04807814344792825, -0.023689323295853493, -0.0476040611229177, 0.02445543120435841, -0.01235597633162424, 0.044062247969794445, -0.030245600190468555, 0.16927832834426226, 0.04127028809107056, 0.03379545925017315, -0.04911180771472331, 0.112035743864187, 0.2025361393441564, 0.32453745140133733, 0.24220820265068743, 0.3878880663648118, 0.36719486157714215, 0.30244801276008054, 0.33350230012241, 0.11395222192127352, 0.38332797418986464, 0.08041024055700596, 0.035947688922764155, -0.2108875761035295, -0.2854862308220757, -0.218923688963709, -0.12690442147600783, 0.033368482700263116, 0.020627661006189985, -0.011747108967582683, -0.04221954401096732, 0.026854694520890923, 0.0387558354515899, -0.0189113925501795, 0.040085237325277044, -0.11478495458875486, -0.0036137286028609748, -0.1332550602426651, -0.048191498731815184, -0.02638982927563559, -0.09332609652753256, -0.10705074942382195, -0.10536603221754406, -0.017474237842924654, 0.14405735501302572, 0.23897773178992593, 0.29551784885845017, 0.1795305879933315, 0.3163955375167991, 0.21952097631973025, 0.08410214490796944, -0.017275504991572634, -0.0490829507071338, -0.1964065506809937, -0.08447137341913978, 0.06897331389853824, -0.1705498661648888, -0.018400582331216254, -0.04428854711178236, -0.024599668276963055, 0.07637478847440894, 0.07847470827607352, 0.04710874899474471, -0.08844247591300958, -0.13100902667630718, -0.04873845955775105, -0.14444261597273586, -0.2806420318383273, -0.2745617079577506, -0.48604825941878477, -0.5635373540769779, -0.28364160592139, 0.017327570938049548, 0.3583813972658613, 0.5717724112930617, 0.4584999068207333, 0.4853350996761981, 0.3352107885061601, 0.3828175708004765, 0.056441616652839526, 0.08184794397357749, -0.016378870443029544, 0.00042740390550534304, -0.12071771657672166, -0.06806803543921983, 0.070588212695392, -0.029285097171688246, 0.03853363531670545, -0.015993262448071775, 0.03192583336247006, 0.05943780395090154, -0.09726740035945114, -0.1392296725584563, -0.17656683921509173, -0.29187142754026707, -0.3668542658893785, -0.33798167518432964, -0.513287671807223, -0.39356228347770744, -0.47148320821864664, -0.1929756638448831, 0.19712879956233356, 0.24364028479975824, 0.5849167846564599, 0.49351891581914903, 0.41682271132371107, 0.38437608520686606, 0.11796979437640079, 0.2561372024432857, -0.025304544574827822, -0.2341796319923247, 0.030374414456724317, 0.01581255008543628, -0.0160455420280702, -0.07973402665068689, -0.015818331901763415, 0.00422570484779111, 0.055321494067961975, -0.07397851717437362, -0.1111647906781626, -0.15956994208337344, -0.4041450753881562, -0.5660457817864278, -0.5056535410598572, -0.2640293384517742, -0.19771351195759004, -0.41479151391229463, -0.40734753598410794, -0.2433553787415035, -0.23477703489576032, 0.14372440941643405, 0.17139258560837445, 0.2882663926907332, 0.3051513505205014, 0.3577253156393343, 0.27540950529985436, 0.1776930165076834, 0.08505503508820729, -0.3140235334600987, -0.0433851697046418, -0.01782809017546504, 0.006696497630552245, 0.02878103895732598, -0.020994756583351343, 0.07524056792028605, 0.09617131075192414, -0.020634369883318703, -0.19465537167093275, -0.1948501452067961, -0.3483576706665733, -0.3223525378183912, -0.3396226642984372, -0.06105708675833946, 0.036230362663232756, -0.2886086137648208, -0.26778044577620447, -0.24299301446395094, -0.2262413909220196, -0.35103622623509834, 0.0468060610888784, 0.05326557969005209, 0.32055901040880097, 0.43419655868835866, 0.17014290777842375, 0.2218347775738062, -0.10343267375343589, -0.19987411546223843, 0.02929595259982343, 0.004704782813115985, -0.05250160233129735, -0.046795228997038384, 0.06217238864896637, 0.09892694417717611, -0.004138466635342093, -0.005932340471019603, -0.18630400778277176, -0.1240739454465548, -0.2373545395636034, -0.12897827590913863, 0.038542973412550724, 0.31801070421129934, -0.12032744117950102, -0.20638065844859307, -0.32577372920094766, -0.25341679924247895, -0.19613498271386293, -0.14681335616017324, -0.14625939659408604, 0.11321799633156632, 0.42403424090189373, 0.33419613852037744, -0.04285776045873407, -0.2637103034206707, -0.34361128562007087, -0.11055417646500616, -0.01958209888995758, -0.05309390258515836, -0.0660022680719186, 0.010319714063853793, 0.12820869644337107, 0.03937299188913348, -0.052031092763453225, -0.0003919588902190538, -0.13278846293829238, -0.04409836238873668, 0.10517082851128245, 0.06429347209538958, 0.09622468535602281, 0.08544728828613568, -0.22229354291222014, -0.1359265984369689, -0.05773088780019204, -0.09222349109117908, -0.33989810060710546, -0.19560609700251208, 0.10315952361408992, 0.2202481153409589, 0.2703405342864861, -0.011566522136463028, -0.10849949469690236, -0.4428911746748544, -0.43392151320084477, -0.3283842231153805, -0.009006631080169972, 0.0029658968432395424, 0.041309410229749675, 0.009929938964445, -0.01393140301910638, -0.06612243832380651, -0.07736376802262512, 0.06686742977982872, -0.15407878093885702, 0.07700366071823253, 0.27438265732538814, 0.11927012911029893, -0.12016301997989526, -0.27365047773203716, -0.2695947531028292, -0.1514937900069927, -0.11023701487872362, -0.07667583469286303, -0.046035674342505876, 0.06391896687069275, 0.080205661729146, 0.09359257717091443, 0.1265959263338157, 0.07309921925562393, -0.1507002810775173, -0.4358115727537249, -0.4625828804558587, -0.04629572008421479, 0.017437663234134464, -0.02584181202227748, -0.09241768455141769, 0.04947350856138222, 0.07409766298021632, -0.12270422123258475, 0.054016259663191374, 0.03441651090208526, 0.061798222742557196, 0.15478271186016013, 0.0826013838200124, -0.0527447251696416, -0.015901343746369947, -0.19848653900477098, -0.31498637147771963, -0.4554136843828171, -0.3308321911154279, -0.35380499586540326, 0.07011026000901768, 0.026661433264504056, -0.0738157832365975, 0.007384889752970102, -0.021407948924727055, -0.14473562438839263, -0.30258710609274203, -0.22204577885592588, -0.17123197943359778, -0.11413161662110943, 0.08825519143955352, 0.04266137611021795, 0.08323332987726241, 0.04521585237087176, -0.01145965001695981, -0.012159746760184675, -0.04204484592859998, 0.28800008194692756, 0.12443746757293443, 0.034190216288466774, -0.01510707989939558, -0.1793325965019646, 0.12670837032222063, -0.11052997899569829, -0.37813161195164524, -0.3547733703703893, -0.2293280309907138, -0.3110295060562079, -0.18415845885440316, 0.013891130625405368, 0.049890587050066645, 0.007824551236963467, -0.11879644222256455, -0.2133476834682346, -0.16676454816674127, 0.05286401357755931, 0.12294009920023441, -0.0771050849662732, 0.039073082363947485, 0.10057604965935024, -0.02314987915344429, -0.0549516785798439, 0.00473162136797058, -0.006412343580018482, 0.01833116239777036, 0.12384612926506455, 0.09483157510890072, 0.045946452673938355, -0.08522609439008466, -0.0652416878841455, 0.005885088834627635, -0.17350767243796333, -0.20239847262177357, -0.12376679473810528, -0.006284000500417154, -0.182675151695372, 0.08024585599958924, 0.07974989009821769, 0.06250407290227808, -0.13050965118879093, -0.11351137754210974, -0.32563083702627216, -0.3358068144584342, -0.07050880295116924, 0.00948503819806263, 0.0856783359433082, 0.14450686445476715, 0.0436807124253642, 0.025553618634242714, -0.10583817956639532, -0.043542262447348115, -0.0013736849094326362, 0.004839668399809547, 0.03786067865092288, 0.23744191508541365, -0.0318234099513228, 0.04467411086004557, -0.08775472678617324, -0.05882959904231428, -0.025822915918148556, 0.11051373683978227, -0.1133191076503568, -0.10993192927090979, 0.10221423441618613, 0.23837691660565924, 0.12245568885872035, 0.2133250574710925, 0.06732803266663133, -0.16775407793480626, -0.14681485925564447, -0.12226854227226712, 0.04918442282537834, 0.14800252940032352, 0.15864868297561313, 0.07832638383207588, 0.008014311523321865, -0.020145540413544726, -0.004858831605902174, 0.092870983443108, -0.02903415597375779, 0.022192266837482103, 0.17058912627596076, 0.23519385563894812, -0.1091743930978363, -0.0986339348695055, -0.007337322129922111, -0.011021490053961254, 0.13154722181223136, 0.02224868072651374, 0.22704294937479536, 0.321098406151921, 0.13379968515063967, 0.03707614769612432, 0.026228002974956446, 0.2636455386186226, 0.06064231509953644, 0.08667650044687135, -0.09859956508107735, -0.012695559420522756, 0.044411110533072444, 0.1675271518058267, 0.18025526105188136, -0.037387838628771715, -0.04326136959309647, -0.0389424306145726, 0.05560942388511322, -0.037980765574276945, -0.02950101416561831, 0.05320612129637305, 0.23200993432942651, 0.1379998316285815, 0.06966774303449816, -0.08271236078316815, -0.027430525659023125, -0.043732962912770366, 0.01811587690115836, -0.027868470219596164, -0.043272216481369336, 0.11118717497756386, 0.03963179992525898, -0.13406113231217895, 0.041991910333348995, 0.05608660620950566, 0.023925303085962198, 0.03911716071999315, 0.13679116319299112, 0.07949691396346611, 0.12161541931806455, 0.14084551751943436, 0.13406626399513313, -0.012758356635701991, -0.06273855785093901, 0.06615256244627134, 0.0029043649290273546, 0.03576113187059463, -0.03289952367918028, 0.011109635568870414, 0.06362096351258203, 0.14681421300762365, 0.004256250860605835, 0.04784343162266084, -0.12951466464547767, -0.30214293463381947, -0.0911090131422689, -0.2905558295202796, -0.09185708275645606, -0.13446244728107704, -0.23647954771834492, -0.16990002415367061, 0.021038840389804137, -0.0530527020562811, 0.13693427921092918, 0.05735254216547615, -0.06146427212654005, -0.0221310268440155, -0.1175325065879161, -0.030592502067323946, -0.012576168692891219, 0.022878326962579038, 0.0725171465351405, 0.01973176951836795, -0.012007256667733742, -0.04903151474889173, -0.0017164704914285228, 0.07225727371366428, 0.0022350240507801695, 0.06983477768455366, 0.06821106666021055, 0.10759620297127749, 0.07155863525713738, -0.1092185238695189, -0.03724733127245873, -0.03208528614175105, -0.13282296505332475, -0.15666937053472738, 0.028527291234089102, -0.1024083436729959, -0.05242102656035006, -0.19270399659587917, 0.04940521365696285, 0.02649704630370415, -0.006796094858454312, 0.005077132052722421, -0.032554702061309615, 0.06786388892397503, 0.0034908248064152007, -0.09882200565952484, 0.04811823307942681, 0.07953841425877618, -0.014232475002652466, -0.06895023314805133, 0.05286834970323649, -0.06687273202532922, 0.047457174909996465, -0.05791187551548086, 0.08220277755752514, 0.12718161981040566, 0.07439270065242463, -0.05155393374851437, -0.023049304309503544, 0.117548962667679, -0.09471240394414496, -0.02285610433452787, -0.08434147557595123, -0.18020415412993276, -0.06740962354962796, 0.015671053071303957, 0.0744186223069817, -0.018178452801871837, -0.010055778717686138, 0.050050380443518595, -0.02313650443554979, 0.10830714381143333, 0.06779687402894875, -0.01840732994956909, -0.007344148419949519, 0.08247755743164421, 0.0016459089220580315, 0.08335299021301792, 0.01800540115199266, -0.03710605156333778, 0.06390221457037308, 0.1070866599208999, 0.17317697426752848, 0.24726131288341155, 0.17311856529666622, -0.028008796789292786, 0.25606460404857695, 0.07214333026626803, 0.18973828111821284, 0.07680808708043864, 0.03185352705228298, -0.10073082250008994, 0.024044242928661634, 0.11325918816708351, 0.09916093334786664, 0.0696133709327493, -0.026525659337680422, -0.025135942185193053, 0.06149765843117905, 0.045141741799133786, 0.018502256694809312, 0.062355885780804705, -0.007411120126654048, -0.008025693742949716, 0.03895490733814273, 0.036266813540475056, -0.02720089069732858, 0.036494818417566355, 0.004287686850854198, 0.13005001594514132, 0.17051507382158823, 0.12783092442912794, 0.2692194189764453, 0.16315240939404344, 0.26192118628432526, 0.3038425687202468, 0.30624245941404726, 0.14613645352818114, 0.06160344448393695, -0.031785898501755214, -0.042856715257313015, 0.05907538508160409, 0.10302173146570055, 0.09818458834304405, 0.12887282666011993, -0.004296365955082907, 0.026435247830312304, 0.02184131748970293, -0.053872882879449906, 0.07324919889718938, -0.052607457649625496, -0.046558536379411465, -0.13716619760412527, 0.042607404260800126, -0.044247768515928564, 0.0600106891898297, -0.06841125593709911, 0.015448150525362704, 0.09648942786908761, 0.057701355844900604, 0.036684973198383326, 0.07118831156519037, 0.16477129932526025, 0.26169211203669185, 0.1518221225424612, 0.20216335728476933, 0.16268064709174201, 0.11000185134036763, 0.07462885619107891, 0.12253027010100034, 0.15515619208704565, 0.03422471200380837, 0.038408483254093066, 0.012707511604511435, -0.005372056053697736, 0.038456082911399576, 0.07010630898856242, -0.047918458683205656, -0.08280169401523504, 0.05216771208438026, -0.05541363379967671, -0.06268925507806075, -0.07806480417896157, -0.010629246517842045, 0.022969800390582606, 0.039691028937078356, -0.058566038637824905, 0.05784165368292842, 0.07271010125354282, 0.025082456454773236, 0.05996482011686196, 0.004042220082219314, 0.020553914750724454, -0.02098058700866002, -0.03708610565431017, 0.027662665469351425, -0.07165606602141718, -0.009358926654105005, 0.06856325849381995, 0.044438077329674454, 0.010651062595376544, 0.05001388542340483, -0.027631732140614276, -0.00324299782126864, -0.026178133785960934, 0.041603098718201045, -0.0498244731331537, -0.032575586207479135], [0.009306544928943648, 0.029490057996371055, -0.0024126419695072857, 0.011260202429711642, -0.013121005313492537, -0.0932368415068562, 0.027941742708135396, 0.03698656822114618, -0.08306113736002882, 0.06960569171549218, -0.03202251149752082, 0.01207679632505989, -0.015878887446701236, 0.01742944942035383, -0.004975182886653014, 0.08323068799239268, -0.0350383569213139, 0.03970843253113331, 0.06997208199663482, -0.07237729159434204, 0.008139120093585089, 0.04406282272367054, -0.04949385416969866, -0.07604457877154178, -0.10070253691620183, 0.07806835714997287, -0.009258235438681518, 0.034720253704791544, -0.039597852894665775, -0.06719314923965908, 0.04966736746581285, 0.07328933375660758, -0.0249894801605617, -0.07835703112253449, 0.021497252570502823, -0.028362001558129662, -0.013616152410736024, 0.004460576913752832, -0.046140185182715676, -0.011382544498163628, -0.05245102893948402, 0.07431162428051194, -0.00015100204620623333, -0.11290068596888776, -0.018808894201271326, -0.044194024586158856, 0.05294095805045955, -0.09866422047643328, 0.055124788838774225, 0.018607715680782927, -0.0014085213853912565, -0.11647705079597612, 0.07296100679775497, -0.002881926627630844, -0.02558697669160383, -0.030059005556957428, 0.048976868418594124, -0.0552657142590238, 0.025883850820070643, 0.029207496924951722, 0.015740933706322804, 0.0101514007425737, -0.060012980337461504, 0.06514396204133148, -0.00884393942794823, -0.09646388583375652, 0.04847614209200154, -0.03275179249766314, 0.014420204938960663, 0.05959830291593358, 0.02832626231380385, -0.015171017829218784, -0.03670687040180869, -0.005182446596389922, 0.013514508111644615, 0.06735223811917797, 0.028109517755118434, 0.05720873228385162, 0.007523581953397619, -0.1300903967493169, -0.025631396043650344, 0.0025403129026366593, -0.0011001235714562867, 0.04942596345146684, -0.05415918159265492, 0.03221007045187193, -0.052529932486472565, -0.08286317342601605, -0.0628046943948937, 0.0062129456112059896, 0.059393495069988714, 0.043126360966226636, -0.025441880188427683, -0.05790579366997258, 0.06925132473242711, -0.11908502497623047, -0.059414101373324195, -0.10912249242786859, -0.24366349680632957, -0.20740976029776814, -0.19400084134450019, -0.13835402120827422, -0.04998294856034116, -0.15513257620562074, -0.010370946042642505, -0.06568780448094694, 0.07422671518371952, 0.01744998484194629, -0.05188215273721794, -0.05897298164131437, -0.019004535350076367, 0.015898233208425806, -0.04549151261881832, 0.0018019577296510454, -0.0054220550697372406, -0.01800906514955188, -0.04308483379800096, -0.13674396168005487, -0.06620012040925463, 0.019924980309421872, -0.12560531827530427, -0.09474611620546658, -0.10071092496886619, -0.08726111713828526, -0.15496581534671364, -0.06340998091031318, -0.19267154873394993, -0.1895714205426074, -0.17604862701089788, -0.24189984677128076, -0.1575697581775684, -0.030004267720161147, -0.1403026106150746, -0.04203901498834731, 0.08119649868055964, 0.01971278235359107, -0.03613031123165215, -0.1193736065874541, -0.040599291575842765, 0.13493133402480553, -0.03220981650208968, 0.06486878360664707, -4.958645330595793e-05, -0.0037918114499898912, -0.02162147969673078, -0.021619454167007186, 0.011045090084611037, -0.09580788431321925, -0.1711212519602098, -0.17310535706120977, -0.18336125084590071, -0.04810185656159825, -0.03647153995735599, -0.005937852365503085, -0.15487938491207429, -0.039500681867858, -0.29886841997175323, -0.3376385495993515, -0.45143342173854356, -0.22789413181682894, -0.14152698504992411, -0.06955810266524885, 0.021238788265758705, 0.13209482721484492, -0.03800965686371446, 0.055711294531066324, 0.007626372215381667, -0.009370823754611292, 0.03351304783628965, 0.032226805548723085, -0.011772922857906128, 0.10341212146363109, 0.06087175027881284, -0.04387974113684107, -0.019571764402399234, -0.19539631970309654, -0.234228406958751, -0.18716367176822282, -0.1906359426575049, 0.006167100050382442, 0.027762453063187215, 0.03126293271558476, 0.10425888635953467, -0.12035272618380279, -0.0917439414622269, 0.026651184098869206, -0.20090954818938492, -0.31352780758507864, -0.2166036232512499, -0.04646430169497671, 0.14188984786990663, 0.1322525514259664, -0.04224124257167047, -0.0731498350613853, -0.018128531424450017, -0.041529561082374884, -0.01181781590412524, 0.015322962261826356, -0.050045219883364585, 0.025102702033373586, 0.1295195040852084, -0.07828884402861344, -0.11521468066130043, -0.17611603569035944, -0.264862021633834, -0.1104233868645873, -0.155145408648192, 0.11076341379542047, 0.24623036839790205, 0.1874612414927329, 0.1694237595082648, -0.16725841750797937, 0.0369973892196847, -0.03758840182482132, -0.3162346415824488, -0.0038258110747969834, 0.09351276469303464, -0.059863284715092877, 0.049022884731933156, 0.06846031093805986, -0.08857622238455512, -0.025006767883938043, -0.03757732617941451, -0.08059829798970787, -0.037586275320435576, -0.004957667146734211, -0.015998775075696497, -0.011516469244583199, -0.018315420231446125, -0.08150829071037487, -0.15878233950274287, -0.1266468193746737, -0.03554449454863418, -0.004430764512917588, 0.16040930295854608, 0.12736210841702056, 0.07156819758604363, 0.12245818541280323, 0.13940532446359896, -0.23343995298942646, -0.2543541041323379, -0.13538442899178735, -0.0732032541558155, -0.2658904746334843, -0.11224158353522355, -0.05907736476212394, 0.09802687169448371, -0.06350907232833196, -0.02107198365763429, -0.04634171604126568, 0.005896524898223192, -0.09090716981360752, 0.07183049228206059, -0.041242903751440456, -0.04485508378254075, 0.023680100275846407, -0.005283118074925073, -0.12525069475653444, -0.19288306772838693, -0.1461014903724357, 0.029645917670027524, 0.030734588719268752, 0.06458335792373618, 0.06693367877393719, 0.0641780900388664, 0.17958657712419362, 0.13657036330851569, 0.13893312435040628, -0.04431864895002299, -0.29957673842838484, -0.1256466872993805, -0.020089229104659156, -0.10263261160095781, -0.016884609377086444, -0.001790065458728876, -0.06876831615461892, -0.023793638322565987, -0.11830484931212125, 0.01716455320408804, -0.0656498834205951, -0.027741772256190435, 0.0509593124646363, -0.04692818552065252, -0.011963705143740247, -0.04084519300721849, -0.17974690719273143, -0.3905649584162524, -0.31998776263288436, 0.05639873993277995, 0.005136524914944845, -0.024804234790629973, -0.006180232270605337, -0.056415516744516996, -0.012062255108149731, 0.09215132890491583, 0.19000852067063267, 0.07020155905934902, -0.2536803044148591, -0.1311605091014926, 0.0057400957299731286, -0.05482230260959077, -0.048301760434787226, 0.06222490131453262, -0.10168497912606159, -0.06175900268133175, -0.074287510811305, -0.06211170191164852, 0.04139982313453395, 0.004662814088187963, -0.01689322753822386, -0.0566189574952271, -0.036774625497566604, -0.024974091570825994, -0.1838097040146967, -0.20832668527787124, -0.1363403006504471, 0.07529762990469634, -0.029700234163260727, 0.07410150779060709, -0.07810058302609223, 0.0044073318308965, 0.038924128128339196, 0.14784884452360456, 0.05679990604846433, 0.022626266825964476, -0.16584915582941903, -0.10018735787080253, 0.07141048342267323, 0.0007240847877998139, 0.13648267299578143, -0.029530211785324383, -0.15265209284129289, -0.005765015004199283, -0.11250735721958298, -0.08456737753196261, -0.033549374216602576, 0.03677237846815451, 0.029645345422374486, -0.0859311219434962, -0.044304034088207274, -0.11191527554958247, -0.13878786931053003, -0.17748954627624886, -0.15325422079492684, 0.028470733824390006, 0.039341267860295355, -0.06636037737563236, -0.05804151219297311, -0.0651229876130583, 0.18715655933644734, 0.276118378124614, 0.19791797902222555, 0.16822181214138315, -0.0314765959180322, 0.0752577045659217, -0.19155263959413263, -0.0017315523215458476, 0.08925004391266513, -0.15539064923457824, -0.18978085831602784, -0.10186747873516433, 0.017142988629039933, -0.004249346648194953, 0.03465629263101391, -0.0006763988829777349, -0.14139494518429224, -0.0022374059858523607, 0.041118783552369836, -0.03647577603398067, -0.09140245528417745, -0.18289285131244903, 0.13023210635172558, 0.15446480481643357, 0.17729125754127076, 0.025867431160541136, -0.18394175371658789, 0.014517744770476753, 0.3116828953225012, 0.3650426585398338, 0.4448353410925633, 0.2354477876014853, 0.19062182193826666, -0.005074675233217422, -0.02511991449046871, 0.06439419159865295, 0.018362057472311222, -0.19315169878101832, -0.19058818648472184, -0.04605355759425425, -0.024403068316285744, -0.1290682687154156, 0.011684679227524582, 0.046112518695969974, 0.005725440474245137, -0.053854519623871534, 0.0048304662216792854, 0.012450606644634918, 0.008447764944994345, -0.21168388980793837, -0.06881929376715439, -0.03981010794565175, 0.1406109594468084, 0.024685464320286146, -0.11157621282377099, 0.2576084015273495, 0.35923721795359304, 0.3087887194292935, 0.22766793841334107, 0.367262966891297, 0.21621073753788977, 0.1387909525367463, -0.03499837188073159, -0.0711295690738102, -0.13487320133237318, -0.1461571607012999, -0.1995091281120003, -0.10366298074819191, -0.08004463909671856, -0.021092613818287892, -0.024163398760173038, 0.000660306303852346, -0.07510167712342983, -0.06399922616475642, 0.04468683955834204, 0.015047419783069324, -0.07423842338979467, -0.25651629763272005, -0.2884030897525351, -0.19659463932453233, 0.17941323391771613, 0.013971795246847215, 0.0016407169512817935, 0.2979960819553458, 0.2990334140597074, 0.2606896792501066, 0.09075459481883878, 0.37569002799262813, 0.196881024713024, -0.12651369476371754, -0.28634661915785964, -0.27106528425931914, -0.23175903971913908, -0.16054126490219522, -0.12399734666926111, -0.15812355606686465, -0.1283371491137286, -0.024564898195086643, -0.0265509344246603, -0.0069032906285093724, 0.10495059227158722, 0.008740070947918474, 0.022661296569524866, 0.017364398249840304, -0.12580688155264125, -0.24904799632816677, -0.3248513027175959, -0.32728433663231576, -0.20197000065492957, -0.1324414515044133, 0.16190946069417742, 0.2011281127729959, 0.25734480472134774, 0.28513733246318074, 0.12212869207089189, 0.2755083174827009, -0.16514234058797675, -0.4236464710872623, -0.36845214272818055, -0.3639717725075144, -0.07597852694653931, -0.12857306691089834, -0.07598588272984613, -0.19314019648524502, -0.06230523621976674, -0.027562813340848723, 0.011371152275788497, -0.1053908341642104, -0.03672730610983894, 0.011437148067348683, -0.04828570327510291, -0.03524175836420444, -0.02578613877660266, -0.2950472440642498, -0.4481645666269987, -0.3544465555299948, -0.267175599185341, -0.3456716757907862, -0.18682109032453245, -0.01679357513355676, 0.1257765274601559, 0.15996428904507523, 0.03170415711423288, -0.028827791284778057, -0.4304738782391591, -0.6233168514178195, -0.40294012399358875, -0.2844066177163443, -0.1104593616279578, -0.15381732342301482, -0.013297167171299314, -0.1250139605852065, -0.06098146441880048, -0.04827115209347252, 0.01700229061015738, -0.07414273523203, -0.005413786937489353, 0.004421415981782096, 0.08481286796304105, -0.07346156322211371, -0.13318624605839152, -0.30732400333802473, -0.34833803233228144, -0.44498089615441416, -0.4854503550260755, -0.4991424218295602, -0.2573839087255904, -0.2625095784850302, 0.031785389791984774, 0.13575282087839688, -0.25417054245204707, -0.49945583183080655, -0.5811628449891352, -0.5752758196711381, -0.4670451307891528, -0.18155270657782518, -0.17727242142301847, -0.11052742369093768, -0.22606984117655857, -0.12169393765333261, 0.009205647192650586, 0.014100219373246821, 0.0025545487749021756, -0.02594389711713611, -0.06239015059427111, -0.018558116888374807, 0.1130407681452763, -0.06270014850693197, -0.11710190205510987, -0.3008646612868445, -0.2750443087838991, -0.22986940243290507, -0.4631586572328737, -0.3889628125095521, -0.16408122075427253, -0.05193771920591339, 0.020560522021316932, 0.01647134741135843, -0.16736585413018362, -0.4921175455526026, -0.5354895248598593, -0.4203419052161278, -0.4116027470253945, -0.20239406464884668, -0.1304521061293291, -0.173088242550287, -0.12112759822925541, -0.048450543485572456, -0.08773421769894045, 0.04320765898512235, 0.022897525701832233, -0.016209115118336448, -0.017981063255146753, -0.050915628629663284, -0.06063717500737377, -0.025627704140301858, -0.07173799021045707, -0.14590279627056557, -0.15782638002657357, -0.23825199640987982, -0.2946143388644787, -0.23800882778611993, -0.20448712323650736, 0.10470267167586143, -0.1502860265112742, -0.16177491542287412, -0.2628348248050963, -0.24173333137767702, -0.44545673439035993, -0.26744954251742126, -0.3680024096826615, -0.19445973944384842, -0.14754672605212166, -0.11682118777309722, -0.15128588293247708, -0.040315221785524026, 0.02327387721219431, 0.07098439780473781, -0.029514601270968194, 0.01646479425352104, 0.10070593726949056, -0.01140661278693828, -0.03185203795903792, -0.05214902436889047, 0.05639267372614381, -8.682077236747957e-05, -0.13578542586835854, -0.07803163415409087, -0.07160973353822264, 0.0704220657242238, -0.18503823222457091, -0.07870534822477349, -0.2096791999041201, -0.18444308215648939, -0.11899546874881091, -0.000834393699329524, -0.32066984721825764, -0.24090079951041582, -0.27316051520590656, -0.08650178176345925, -0.1204991247345664, -0.09013111841524023, -0.10665038196491615, -0.10974684222543907, 0.053876194749335096, -0.030647847242035734, 0.03426505957645963, -0.017403588107974464, 0.05352908983845184, 0.0055396679680724745, -0.04996063809666667, -0.003689142223095733, 0.07860538779340782, 0.12460221334748424, 0.022666816083286648, 0.17522244669467762, -0.004104941135534747, 0.006670896658521543, -0.172971063811551, -0.1158943826431405, -0.22181797382781648, -0.07632061283426574, -0.12263685971939887, -0.032821638787438365, -0.03751947262516613, -0.09532910721017321, -0.10991053259541801, -0.10367892434222586, -0.05111720903703965, -0.05540454328171242, 0.04606909247412176, 0.01027950719942324, -0.025152190449942477, 0.013522498774637303, 0.0822435803482103, -0.03570356573310194, -0.056933699209275976, 0.008156164105898074, 0.04938426886234837, -0.04138795486248325, 0.07954469130724436, 0.18396189033871602, 0.0937413130392002, 0.0352336011469119, 0.09588811276987697, 0.18591143799269597, -0.05653899178469153, 0.03739681211814256, -0.05674198760896114, -0.08093121120889851, -0.11186264022772945, -0.02553530743185088, 0.21084004130546938, 0.03628799515661885, -0.02718423534263666, -0.13183458958459193, -0.07949334760977192, -0.07668395507506845, -0.05964582315597064, -0.0016448304656807864, -0.08647513308850469, 0.05520844445011358, -0.0008330096538193126, -0.07777724552288386, 0.0076334337753162515, -0.026012965651503444, 0.01455528590295768, 0.022754592795060837, 0.11322810339585579, 0.11602417114509002, 0.1589389483238118, 0.023000950323115516, 0.09431559301192978, 0.032318843356307775, -0.20130182963489962, -0.2845381309744112, -0.27673503681547645, -0.25546051410459963, -0.07861008835808757, -0.1759363825656495, -0.055403127620909653, -0.06122429058418891, -0.06340852109102137, -0.13398337129223353, 0.025148817028154566, -0.05785520723379847, -0.03717333312902605, 0.05687707299261863, 